<?xml version="1.0" encoding="UTF-8" standalone="yes"?>
<PMML xmlns="http://www.dmg.org/PMML-4_3" version="4.3">
	<Header>
		<Application name="JPMML-XGBoost" version="1.1-SNAPSHOT"/>
		<Timestamp>2017-03-02T13:24:27Z</Timestamp>
	</Header>
	<DataDictionary>
		<DataField name="resp_time" optype="continuous" dataType="float"/>
		<DataField name="traffic_travel_time" optype="continuous" dataType="integer"/>
		<DataField name="mean_resp_time" optype="continuous" dataType="float"/>
		<DataField name="is_urgent" optype="continuous" dataType="integer"/>
		<DataField name="num_cars" optype="continuous" dataType="integer"/>
		<DataField name="cross_npc" optype="continuous" dataType="integer"/>
	</DataDictionary>
	<MiningModel functionName="regression">
		<MiningSchema>
			<MiningField name="resp_time" usageType="target"/>
			<MiningField name="mean_resp_time"/>
			<MiningField name="traffic_travel_time"/>
			<MiningField name="cross_npc"/>
			<MiningField name="is_urgent"/>
			<MiningField name="num_cars"/>
		</MiningSchema>
		<Targets>
			<Target field="resp_time" rescaleConstant="0.5"/>
		</Targets>
		<Segmentation multipleModelMethod="sum">
			<Segment id="1">
				<True/>
				<TreeModel functionName="regression" missingValueStrategy="defaultChild" splitCharacteristic="binarySplit">
					<MiningSchema>
						<MiningField name="mean_resp_time"/>
						<MiningField name="num_cars"/>
						<MiningField name="cross_npc"/>
					</MiningSchema>
					<Node id="1" defaultChild="2">
						<True/>
						<Node id="2" defaultChild="4">
							<SimplePredicate field="mean_resp_time" operator="lessThan" value="11.79057"/>
							<Node id="4" defaultChild="8">
								<SimplePredicate field="num_cars" operator="lessThan" value="2"/>
								<Node id="8" defaultChild="16">
									<SimplePredicate field="mean_resp_time" operator="lessThan" value="9.138096"/>
									<Node id="16" score="0.3277236">
										<SimplePredicate field="mean_resp_time" operator="lessThan" value="7.188988"/>
									</Node>
									<Node id="17" score="0.41757384">
										<SimplePredicate field="mean_resp_time" operator="greaterOrEqual" value="7.188988"/>
									</Node>
								</Node>
								<Node id="9" defaultChild="18">
									<SimplePredicate field="mean_resp_time" operator="greaterOrEqual" value="9.138096"/>
									<Node id="18" score="0.48494917">
										<SimplePredicate field="mean_resp_time" operator="lessThan" value="10.204166"/>
									</Node>
									<Node id="19" score="0.5373146">
										<SimplePredicate field="mean_resp_time" operator="greaterOrEqual" value="10.204166"/>
									</Node>
								</Node>
							</Node>
							<Node id="5" defaultChild="10">
								<SimplePredicate field="num_cars" operator="greaterOrEqual" value="2"/>
								<Node id="10" defaultChild="20">
									<SimplePredicate field="mean_resp_time" operator="lessThan" value="5.8944445"/>
									<Node id="20" score="0.05664858">
										<SimplePredicate field="mean_resp_time" operator="lessThan" value="2.7333333"/>
									</Node>
									<Node id="21" score="0.16885339">
										<SimplePredicate field="mean_resp_time" operator="greaterOrEqual" value="2.7333333"/>
									</Node>
								</Node>
								<Node id="11" defaultChild="22">
									<SimplePredicate field="mean_resp_time" operator="greaterOrEqual" value="5.8944445"/>
									<Node id="22" score="0.25166112">
										<SimplePredicate field="mean_resp_time" operator="lessThan" value="8.255"/>
									</Node>
									<Node id="23" score="0.3139953">
										<SimplePredicate field="mean_resp_time" operator="greaterOrEqual" value="8.255"/>
									</Node>
								</Node>
							</Node>
						</Node>
						<Node id="3" defaultChild="6">
							<SimplePredicate field="mean_resp_time" operator="greaterOrEqual" value="11.79057"/>
							<Node id="6" defaultChild="12">
								<SimplePredicate field="num_cars" operator="lessThan" value="2"/>
								<Node id="12" defaultChild="24">
									<SimplePredicate field="mean_resp_time" operator="lessThan" value="15.950956"/>
									<Node id="24" score="0.59907126">
										<SimplePredicate field="mean_resp_time" operator="lessThan" value="13.531372"/>
									</Node>
									<Node id="25" score="0.66422194">
										<SimplePredicate field="mean_resp_time" operator="greaterOrEqual" value="13.531372"/>
									</Node>
								</Node>
								<Node id="13" defaultChild="26">
									<SimplePredicate field="mean_resp_time" operator="greaterOrEqual" value="15.950956"/>
									<Node id="26" score="0.74930465">
										<SimplePredicate field="mean_resp_time" operator="lessThan" value="20.769842"/>
									</Node>
									<Node id="27" score="0.8886197">
										<SimplePredicate field="mean_resp_time" operator="greaterOrEqual" value="20.769842"/>
									</Node>
								</Node>
							</Node>
							<Node id="7" defaultChild="14">
								<SimplePredicate field="num_cars" operator="greaterOrEqual" value="2"/>
								<Node id="14" defaultChild="28">
									<SimplePredicate field="cross_npc" operator="lessThan" value="1"/>
									<Node id="28" score="0.33782223">
										<SimplePredicate field="mean_resp_time" operator="lessThan" value="14.648272"/>
									</Node>
									<Node id="29" score="0.41954327">
										<SimplePredicate field="mean_resp_time" operator="greaterOrEqual" value="14.648272"/>
									</Node>
								</Node>
								<Node id="15" defaultChild="30">
									<SimplePredicate field="cross_npc" operator="greaterOrEqual" value="1"/>
									<Node id="30" score="0.60398394">
										<SimplePredicate field="mean_resp_time" operator="lessThan" value="19.846153"/>
									</Node>
									<Node id="31" score="0.8567096">
										<SimplePredicate field="mean_resp_time" operator="greaterOrEqual" value="19.846153"/>
									</Node>
								</Node>
							</Node>
						</Node>
					</Node>
				</TreeModel>
			</Segment>
			<Segment id="2">
				<True/>
				<TreeModel functionName="regression" missingValueStrategy="defaultChild" splitCharacteristic="binarySplit">
					<MiningSchema>
						<MiningField name="mean_resp_time"/>
						<MiningField name="num_cars"/>
						<MiningField name="cross_npc"/>
					</MiningSchema>
					<Node id="1" defaultChild="2">
						<True/>
						<Node id="2" defaultChild="4">
							<SimplePredicate field="mean_resp_time" operator="lessThan" value="11.745"/>
							<Node id="4" defaultChild="8">
								<SimplePredicate field="num_cars" operator="lessThan" value="2"/>
								<Node id="8" defaultChild="16">
									<SimplePredicate field="mean_resp_time" operator="lessThan" value="8.925824"/>
									<Node id="16" score="0.3099478">
										<SimplePredicate field="mean_resp_time" operator="lessThan" value="7.184659"/>
									</Node>
									<Node id="17" score="0.3925001">
										<SimplePredicate field="mean_resp_time" operator="greaterOrEqual" value="7.184659"/>
									</Node>
								</Node>
								<Node id="9" defaultChild="18">
									<SimplePredicate field="mean_resp_time" operator="greaterOrEqual" value="8.925824"/>
									<Node id="18" score="0.45540085">
										<SimplePredicate field="mean_resp_time" operator="lessThan" value="10.204166"/>
									</Node>
									<Node id="19" score="0.510098">
										<SimplePredicate field="mean_resp_time" operator="greaterOrEqual" value="10.204166"/>
									</Node>
								</Node>
							</Node>
							<Node id="5" defaultChild="10">
								<SimplePredicate field="num_cars" operator="greaterOrEqual" value="2"/>
								<Node id="10" defaultChild="20">
									<SimplePredicate field="mean_resp_time" operator="lessThan" value="5.8944445"/>
									<Node id="20" score="0.05293804">
										<SimplePredicate field="mean_resp_time" operator="lessThan" value="2.7333333"/>
									</Node>
									<Node id="21" score="0.15938832">
										<SimplePredicate field="mean_resp_time" operator="greaterOrEqual" value="2.7333333"/>
									</Node>
								</Node>
								<Node id="11" defaultChild="22">
									<SimplePredicate field="mean_resp_time" operator="greaterOrEqual" value="5.8944445"/>
									<Node id="22" score="0.23220979">
										<SimplePredicate field="mean_resp_time" operator="lessThan" value="7.9600315"/>
									</Node>
									<Node id="23" score="0.29445848">
										<SimplePredicate field="mean_resp_time" operator="greaterOrEqual" value="7.9600315"/>
									</Node>
								</Node>
							</Node>
						</Node>
						<Node id="3" defaultChild="6">
							<SimplePredicate field="mean_resp_time" operator="greaterOrEqual" value="11.745"/>
							<Node id="6" defaultChild="12">
								<SimplePredicate field="num_cars" operator="lessThan" value="2"/>
								<Node id="12" defaultChild="24">
									<SimplePredicate field="mean_resp_time" operator="lessThan" value="15.950956"/>
									<Node id="24" score="0.56680006">
										<SimplePredicate field="mean_resp_time" operator="lessThan" value="13.492857"/>
									</Node>
									<Node id="25" score="0.62847894">
										<SimplePredicate field="mean_resp_time" operator="greaterOrEqual" value="13.492857"/>
									</Node>
								</Node>
								<Node id="13" defaultChild="26">
									<SimplePredicate field="mean_resp_time" operator="greaterOrEqual" value="15.950956"/>
									<Node id="26" score="0.71243834">
										<SimplePredicate field="mean_resp_time" operator="lessThan" value="20.769842"/>
									</Node>
									<Node id="27" score="0.84683114">
										<SimplePredicate field="mean_resp_time" operator="greaterOrEqual" value="20.769842"/>
									</Node>
								</Node>
							</Node>
							<Node id="7" defaultChild="14">
								<SimplePredicate field="num_cars" operator="greaterOrEqual" value="2"/>
								<Node id="14" defaultChild="28">
									<SimplePredicate field="cross_npc" operator="lessThan" value="1"/>
									<Node id="28" score="0.32010636">
										<SimplePredicate field="mean_resp_time" operator="lessThan" value="14.648272"/>
									</Node>
									<Node id="29" score="0.39484835">
										<SimplePredicate field="mean_resp_time" operator="greaterOrEqual" value="14.648272"/>
									</Node>
								</Node>
								<Node id="15" defaultChild="30">
									<SimplePredicate field="cross_npc" operator="greaterOrEqual" value="1"/>
									<Node id="30" score="0.57132566">
										<SimplePredicate field="mean_resp_time" operator="lessThan" value="19.846153"/>
									</Node>
									<Node id="31" score="0.8224686">
										<SimplePredicate field="mean_resp_time" operator="greaterOrEqual" value="19.846153"/>
									</Node>
								</Node>
							</Node>
						</Node>
					</Node>
				</TreeModel>
			</Segment>
			<Segment id="3">
				<True/>
				<TreeModel functionName="regression" missingValueStrategy="defaultChild" splitCharacteristic="binarySplit">
					<MiningSchema>
						<MiningField name="mean_resp_time"/>
						<MiningField name="is_urgent"/>
						<MiningField name="num_cars"/>
						<MiningField name="cross_npc"/>
					</MiningSchema>
					<Node id="1" defaultChild="2">
						<True/>
						<Node id="2" defaultChild="4">
							<SimplePredicate field="mean_resp_time" operator="lessThan" value="11.797436"/>
							<Node id="4" defaultChild="8">
								<SimplePredicate field="num_cars" operator="lessThan" value="2"/>
								<Node id="8" defaultChild="16">
									<SimplePredicate field="mean_resp_time" operator="lessThan" value="8.925824"/>
									<Node id="16" score="0.28192887">
										<SimplePredicate field="mean_resp_time" operator="lessThan" value="6.906926"/>
									</Node>
									<Node id="17" score="0.3684924">
										<SimplePredicate field="mean_resp_time" operator="greaterOrEqual" value="6.906926"/>
									</Node>
								</Node>
								<Node id="9" defaultChild="18">
									<SimplePredicate field="mean_resp_time" operator="greaterOrEqual" value="8.925824"/>
									<Node id="18" score="0.4310015">
										<SimplePredicate field="mean_resp_time" operator="lessThan" value="10.120471"/>
									</Node>
									<Node id="19" score="0.48191085">
										<SimplePredicate field="mean_resp_time" operator="greaterOrEqual" value="10.120471"/>
									</Node>
								</Node>
							</Node>
							<Node id="5" defaultChild="10">
								<SimplePredicate field="num_cars" operator="greaterOrEqual" value="2"/>
								<Node id="10" defaultChild="20">
									<SimplePredicate field="mean_resp_time" operator="lessThan" value="6.728736"/>
									<Node id="20" score="0.07106418">
										<SimplePredicate field="mean_resp_time" operator="lessThan" value="3.5833335"/>
									</Node>
									<Node id="21" score="0.18165897">
										<SimplePredicate field="mean_resp_time" operator="greaterOrEqual" value="3.5833335"/>
									</Node>
								</Node>
								<Node id="11" defaultChild="22">
									<SimplePredicate field="mean_resp_time" operator="greaterOrEqual" value="6.728736"/>
									<Node id="22" score="0.22638415">
										<SimplePredicate field="is_urgent" operator="lessThan" value="1"/>
									</Node>
									<Node id="23" score="0.28398934">
										<SimplePredicate field="is_urgent" operator="greaterOrEqual" value="1"/>
									</Node>
								</Node>
							</Node>
						</Node>
						<Node id="3" defaultChild="6">
							<SimplePredicate field="mean_resp_time" operator="greaterOrEqual" value="11.797436"/>
							<Node id="6" defaultChild="12">
								<SimplePredicate field="num_cars" operator="lessThan" value="2"/>
								<Node id="12" defaultChild="24">
									<SimplePredicate field="mean_resp_time" operator="lessThan" value="16.723637"/>
									<Node id="24" score="0.54130113">
										<SimplePredicate field="mean_resp_time" operator="lessThan" value="13.540833"/>
									</Node>
									<Node id="25" score="0.6052915">
										<SimplePredicate field="mean_resp_time" operator="greaterOrEqual" value="13.540833"/>
									</Node>
								</Node>
								<Node id="13" defaultChild="26">
									<SimplePredicate field="mean_resp_time" operator="greaterOrEqual" value="16.723637"/>
									<Node id="26" score="0.7030969">
										<SimplePredicate field="cross_npc" operator="lessThan" value="1"/>
									</Node>
									<Node id="27" score="0.90678054">
										<SimplePredicate field="cross_npc" operator="greaterOrEqual" value="1"/>
									</Node>
								</Node>
							</Node>
							<Node id="7" defaultChild="14">
								<SimplePredicate field="num_cars" operator="greaterOrEqual" value="2"/>
								<Node id="14" defaultChild="28">
									<SimplePredicate field="cross_npc" operator="lessThan" value="1"/>
									<Node id="28" score="0.30517644">
										<SimplePredicate field="mean_resp_time" operator="lessThan" value="14.648272"/>
									</Node>
									<Node id="29" score="0.37735838">
										<SimplePredicate field="mean_resp_time" operator="greaterOrEqual" value="14.648272"/>
									</Node>
								</Node>
								<Node id="15" defaultChild="30">
									<SimplePredicate field="cross_npc" operator="greaterOrEqual" value="1"/>
									<Node id="30" score="0.54305965">
										<SimplePredicate field="mean_resp_time" operator="lessThan" value="19.846153"/>
									</Node>
									<Node id="31" score="0.7856032">
										<SimplePredicate field="mean_resp_time" operator="greaterOrEqual" value="19.846153"/>
									</Node>
								</Node>
							</Node>
						</Node>
					</Node>
				</TreeModel>
			</Segment>
			<Segment id="4">
				<True/>
				<TreeModel functionName="regression" missingValueStrategy="defaultChild" splitCharacteristic="binarySplit">
					<MiningSchema>
						<MiningField name="mean_resp_time"/>
						<MiningField name="is_urgent"/>
						<MiningField name="num_cars"/>
						<MiningField name="cross_npc"/>
					</MiningSchema>
					<Node id="1" defaultChild="2">
						<True/>
						<Node id="2" defaultChild="4">
							<SimplePredicate field="mean_resp_time" operator="lessThan" value="11.745"/>
							<Node id="4" defaultChild="8">
								<SimplePredicate field="num_cars" operator="lessThan" value="2"/>
								<Node id="8" defaultChild="16">
									<SimplePredicate field="mean_resp_time" operator="lessThan" value="9.297059"/>
									<Node id="16" score="0.30294022">
										<SimplePredicate field="mean_resp_time" operator="lessThan" value="7.8535714"/>
									</Node>
									<Node id="17" score="0.37324497">
										<SimplePredicate field="mean_resp_time" operator="greaterOrEqual" value="7.8535714"/>
									</Node>
								</Node>
								<Node id="9" defaultChild="18">
									<SimplePredicate field="mean_resp_time" operator="greaterOrEqual" value="9.297059"/>
									<Node id="18" score="0.4200294">
										<SimplePredicate field="mean_resp_time" operator="lessThan" value="10.204166"/>
									</Node>
									<Node id="19" score="0.46050644">
										<SimplePredicate field="mean_resp_time" operator="greaterOrEqual" value="10.204166"/>
									</Node>
								</Node>
							</Node>
							<Node id="5" defaultChild="10">
								<SimplePredicate field="num_cars" operator="greaterOrEqual" value="2"/>
								<Node id="10" defaultChild="20">
									<SimplePredicate field="mean_resp_time" operator="lessThan" value="6.9428105"/>
									<Node id="20" score="0.06483372">
										<SimplePredicate field="mean_resp_time" operator="lessThan" value="3.1833334"/>
									</Node>
									<Node id="21" score="0.17453472">
										<SimplePredicate field="mean_resp_time" operator="greaterOrEqual" value="3.1833334"/>
									</Node>
								</Node>
								<Node id="11" defaultChild="22">
									<SimplePredicate field="mean_resp_time" operator="greaterOrEqual" value="6.9428105"/>
									<Node id="22" score="0.21467471">
										<SimplePredicate field="is_urgent" operator="lessThan" value="1"/>
									</Node>
									<Node id="23" score="0.2727292">
										<SimplePredicate field="is_urgent" operator="greaterOrEqual" value="1"/>
									</Node>
								</Node>
							</Node>
						</Node>
						<Node id="3" defaultChild="6">
							<SimplePredicate field="mean_resp_time" operator="greaterOrEqual" value="11.745"/>
							<Node id="6" defaultChild="12">
								<SimplePredicate field="num_cars" operator="lessThan" value="2"/>
								<Node id="12" defaultChild="24">
									<SimplePredicate field="mean_resp_time" operator="lessThan" value="16.723637"/>
									<Node id="24" score="0.52287316">
										<SimplePredicate field="mean_resp_time" operator="lessThan" value="14.164728"/>
									</Node>
									<Node id="25" score="0.584848">
										<SimplePredicate field="mean_resp_time" operator="greaterOrEqual" value="14.164728"/>
									</Node>
								</Node>
								<Node id="13" defaultChild="26">
									<SimplePredicate field="mean_resp_time" operator="greaterOrEqual" value="16.723637"/>
									<Node id="26" score="0.66808486">
										<SimplePredicate field="cross_npc" operator="lessThan" value="1"/>
									</Node>
									<Node id="27" score="0.8614112">
										<SimplePredicate field="cross_npc" operator="greaterOrEqual" value="1"/>
									</Node>
								</Node>
							</Node>
							<Node id="7" defaultChild="14">
								<SimplePredicate field="num_cars" operator="greaterOrEqual" value="2"/>
								<Node id="14" defaultChild="28">
									<SimplePredicate field="cross_npc" operator="lessThan" value="1"/>
									<Node id="28" score="0.28872025">
										<SimplePredicate field="mean_resp_time" operator="lessThan" value="14.648272"/>
									</Node>
									<Node id="29" score="0.3564908">
										<SimplePredicate field="mean_resp_time" operator="greaterOrEqual" value="14.648272"/>
									</Node>
								</Node>
								<Node id="15" defaultChild="30">
									<SimplePredicate field="cross_npc" operator="greaterOrEqual" value="1"/>
									<Node id="30" score="0.5126864">
										<SimplePredicate field="mean_resp_time" operator="lessThan" value="19.846153"/>
									</Node>
									<Node id="31" score="0.7453909">
										<SimplePredicate field="mean_resp_time" operator="greaterOrEqual" value="19.846153"/>
									</Node>
								</Node>
							</Node>
						</Node>
					</Node>
				</TreeModel>
			</Segment>
			<Segment id="5">
				<True/>
				<TreeModel functionName="regression" missingValueStrategy="defaultChild" splitCharacteristic="binarySplit">
					<MiningSchema>
						<MiningField name="mean_resp_time"/>
						<MiningField name="is_urgent"/>
						<MiningField name="num_cars"/>
						<MiningField name="cross_npc"/>
					</MiningSchema>
					<Node id="1" defaultChild="2">
						<True/>
						<Node id="2" defaultChild="4">
							<SimplePredicate field="mean_resp_time" operator="lessThan" value="11.715633"/>
							<Node id="4" defaultChild="8">
								<SimplePredicate field="num_cars" operator="lessThan" value="2"/>
								<Node id="8" defaultChild="16">
									<SimplePredicate field="mean_resp_time" operator="lessThan" value="9.236694"/>
									<Node id="16" score="0.2651516">
										<SimplePredicate field="mean_resp_time" operator="lessThan" value="7.184659"/>
									</Node>
									<Node id="17" score="0.34122345">
										<SimplePredicate field="mean_resp_time" operator="greaterOrEqual" value="7.184659"/>
									</Node>
								</Node>
								<Node id="9" defaultChild="18">
									<SimplePredicate field="mean_resp_time" operator="greaterOrEqual" value="9.236694"/>
									<Node id="18" score="0.39945254">
										<SimplePredicate field="mean_resp_time" operator="lessThan" value="10.397917"/>
									</Node>
									<Node id="19" score="0.43961844">
										<SimplePredicate field="mean_resp_time" operator="greaterOrEqual" value="10.397917"/>
									</Node>
								</Node>
							</Node>
							<Node id="5" defaultChild="10">
								<SimplePredicate field="num_cars" operator="greaterOrEqual" value="2"/>
								<Node id="10" defaultChild="20">
									<SimplePredicate field="mean_resp_time" operator="lessThan" value="7.478095"/>
									<Node id="20" score="0.063500226">
										<SimplePredicate field="mean_resp_time" operator="lessThan" value="3.875"/>
									</Node>
									<Node id="21" score="0.17542887">
										<SimplePredicate field="mean_resp_time" operator="greaterOrEqual" value="3.875"/>
									</Node>
								</Node>
								<Node id="11" defaultChild="22">
									<SimplePredicate field="mean_resp_time" operator="greaterOrEqual" value="7.478095"/>
									<Node id="22" score="0.20705138">
										<SimplePredicate field="is_urgent" operator="lessThan" value="1"/>
									</Node>
									<Node id="23" score="0.2691175">
										<SimplePredicate field="is_urgent" operator="greaterOrEqual" value="1"/>
									</Node>
								</Node>
							</Node>
						</Node>
						<Node id="3" defaultChild="6">
							<SimplePredicate field="mean_resp_time" operator="greaterOrEqual" value="11.715633"/>
							<Node id="6" defaultChild="12">
								<SimplePredicate field="num_cars" operator="lessThan" value="2"/>
								<Node id="12" defaultChild="24">
									<SimplePredicate field="mean_resp_time" operator="lessThan" value="15.961309"/>
									<Node id="24" score="0.48667723">
										<SimplePredicate field="mean_resp_time" operator="lessThan" value="13.5278635"/>
									</Node>
									<Node id="25" score="0.54050356">
										<SimplePredicate field="mean_resp_time" operator="greaterOrEqual" value="13.5278635"/>
									</Node>
								</Node>
								<Node id="13" defaultChild="26">
									<SimplePredicate field="mean_resp_time" operator="greaterOrEqual" value="15.961309"/>
									<Node id="26" score="0.6092389">
										<SimplePredicate field="mean_resp_time" operator="lessThan" value="20.769842"/>
									</Node>
									<Node id="27" score="0.7332041">
										<SimplePredicate field="mean_resp_time" operator="greaterOrEqual" value="20.769842"/>
									</Node>
								</Node>
							</Node>
							<Node id="7" defaultChild="14">
								<SimplePredicate field="num_cars" operator="greaterOrEqual" value="2"/>
								<Node id="14" defaultChild="28">
									<SimplePredicate field="cross_npc" operator="lessThan" value="1"/>
									<Node id="28" score="0.29734573">
										<SimplePredicate field="is_urgent" operator="lessThan" value="1"/>
									</Node>
									<Node id="29" score="0.42596468">
										<SimplePredicate field="is_urgent" operator="greaterOrEqual" value="1"/>
									</Node>
								</Node>
								<Node id="15" defaultChild="30">
									<SimplePredicate field="cross_npc" operator="greaterOrEqual" value="1"/>
									<Node id="30" score="0.48937216">
										<SimplePredicate field="mean_resp_time" operator="lessThan" value="19.846153"/>
									</Node>
									<Node id="31" score="0.7151967">
										<SimplePredicate field="mean_resp_time" operator="greaterOrEqual" value="19.846153"/>
									</Node>
								</Node>
							</Node>
						</Node>
					</Node>
				</TreeModel>
			</Segment>
			<Segment id="6">
				<True/>
				<TreeModel functionName="regression" missingValueStrategy="defaultChild" splitCharacteristic="binarySplit">
					<MiningSchema>
						<MiningField name="mean_resp_time"/>
						<MiningField name="num_cars"/>
						<MiningField name="cross_npc"/>
					</MiningSchema>
					<Node id="1" defaultChild="2">
						<True/>
						<Node id="2" defaultChild="4">
							<SimplePredicate field="mean_resp_time" operator="lessThan" value="11.797436"/>
							<Node id="4" defaultChild="8">
								<SimplePredicate field="num_cars" operator="lessThan" value="2"/>
								<Node id="8" defaultChild="16">
									<SimplePredicate field="mean_resp_time" operator="lessThan" value="8.561251"/>
									<Node id="16" score="0.20972757">
										<SimplePredicate field="mean_resp_time" operator="lessThan" value="6.2886906"/>
									</Node>
									<Node id="17" score="0.30451488">
										<SimplePredicate field="mean_resp_time" operator="greaterOrEqual" value="6.2886906"/>
									</Node>
								</Node>
								<Node id="9" defaultChild="18">
									<SimplePredicate field="mean_resp_time" operator="greaterOrEqual" value="8.561251"/>
									<Node id="18" score="0.36119416">
										<SimplePredicate field="mean_resp_time" operator="lessThan" value="9.920998"/>
									</Node>
									<Node id="19" score="0.41082907">
										<SimplePredicate field="mean_resp_time" operator="greaterOrEqual" value="9.920998"/>
									</Node>
								</Node>
							</Node>
							<Node id="5" defaultChild="10">
								<SimplePredicate field="num_cars" operator="greaterOrEqual" value="2"/>
								<Node id="10" defaultChild="20">
									<SimplePredicate field="mean_resp_time" operator="lessThan" value="5.8944445"/>
									<Node id="20" score="0.03999034">
										<SimplePredicate field="mean_resp_time" operator="lessThan" value="2.7333333"/>
									</Node>
									<Node id="21" score="0.12930194">
										<SimplePredicate field="mean_resp_time" operator="greaterOrEqual" value="2.7333333"/>
									</Node>
								</Node>
								<Node id="11" defaultChild="22">
									<SimplePredicate field="mean_resp_time" operator="greaterOrEqual" value="5.8944445"/>
									<Node id="22" score="0.19608012">
										<SimplePredicate field="mean_resp_time" operator="lessThan" value="8.689903"/>
									</Node>
									<Node id="23" score="0.2482848">
										<SimplePredicate field="mean_resp_time" operator="greaterOrEqual" value="8.689903"/>
									</Node>
								</Node>
							</Node>
						</Node>
						<Node id="3" defaultChild="6">
							<SimplePredicate field="mean_resp_time" operator="greaterOrEqual" value="11.797436"/>
							<Node id="6" defaultChild="12">
								<SimplePredicate field="num_cars" operator="lessThan" value="2"/>
								<Node id="12" defaultChild="24">
									<SimplePredicate field="mean_resp_time" operator="lessThan" value="16.723637"/>
									<Node id="24" score="0.4694426">
										<SimplePredicate field="mean_resp_time" operator="lessThan" value="13.988372"/>
									</Node>
									<Node id="25" score="0.52440286">
										<SimplePredicate field="mean_resp_time" operator="greaterOrEqual" value="13.988372"/>
									</Node>
								</Node>
								<Node id="13" defaultChild="26">
									<SimplePredicate field="mean_resp_time" operator="greaterOrEqual" value="16.723637"/>
									<Node id="26" score="0.6030486">
										<SimplePredicate field="cross_npc" operator="lessThan" value="1"/>
									</Node>
									<Node id="27" score="0.78322905">
										<SimplePredicate field="cross_npc" operator="greaterOrEqual" value="1"/>
									</Node>
								</Node>
							</Node>
							<Node id="7" defaultChild="14">
								<SimplePredicate field="num_cars" operator="greaterOrEqual" value="2"/>
								<Node id="14" defaultChild="28">
									<SimplePredicate field="cross_npc" operator="lessThan" value="1"/>
									<Node id="28" score="0.2585189">
										<SimplePredicate field="mean_resp_time" operator="lessThan" value="14.648272"/>
									</Node>
									<Node id="29" score="0.32865158">
										<SimplePredicate field="mean_resp_time" operator="greaterOrEqual" value="14.648272"/>
									</Node>
								</Node>
								<Node id="15" defaultChild="30">
									<SimplePredicate field="cross_npc" operator="greaterOrEqual" value="1"/>
									<Node id="30" score="0.44632274">
										<SimplePredicate field="mean_resp_time" operator="lessThan" value="17.954544"/>
									</Node>
									<Node id="31" score="0.6481721">
										<SimplePredicate field="mean_resp_time" operator="greaterOrEqual" value="17.954544"/>
									</Node>
								</Node>
							</Node>
						</Node>
					</Node>
				</TreeModel>
			</Segment>
			<Segment id="7">
				<True/>
				<TreeModel functionName="regression" missingValueStrategy="defaultChild" splitCharacteristic="binarySplit">
					<MiningSchema>
						<MiningField name="mean_resp_time"/>
						<MiningField name="is_urgent"/>
						<MiningField name="num_cars"/>
						<MiningField name="cross_npc"/>
					</MiningSchema>
					<Node id="1" defaultChild="2">
						<True/>
						<Node id="2" defaultChild="4">
							<SimplePredicate field="mean_resp_time" operator="lessThan" value="11.9827585"/>
							<Node id="4" defaultChild="8">
								<SimplePredicate field="num_cars" operator="lessThan" value="2"/>
								<Node id="8" defaultChild="16">
									<SimplePredicate field="mean_resp_time" operator="lessThan" value="8.925824"/>
									<Node id="16" score="0.20997813">
										<SimplePredicate field="mean_resp_time" operator="lessThan" value="6.4913793"/>
									</Node>
									<Node id="17" score="0.29701954">
										<SimplePredicate field="mean_resp_time" operator="greaterOrEqual" value="6.4913793"/>
									</Node>
								</Node>
								<Node id="9" defaultChild="18">
									<SimplePredicate field="mean_resp_time" operator="greaterOrEqual" value="8.925824"/>
									<Node id="18" score="0.35215676">
										<SimplePredicate field="mean_resp_time" operator="lessThan" value="10.204166"/>
									</Node>
									<Node id="19" score="0.3958114">
										<SimplePredicate field="mean_resp_time" operator="greaterOrEqual" value="10.204166"/>
									</Node>
								</Node>
							</Node>
							<Node id="5" defaultChild="10">
								<SimplePredicate field="num_cars" operator="greaterOrEqual" value="2"/>
								<Node id="10" defaultChild="20">
									<SimplePredicate field="mean_resp_time" operator="lessThan" value="7.478095"/>
									<Node id="20" score="0.057468753">
										<SimplePredicate field="mean_resp_time" operator="lessThan" value="3.875"/>
									</Node>
									<Node id="21" score="0.15860894">
										<SimplePredicate field="mean_resp_time" operator="greaterOrEqual" value="3.875"/>
									</Node>
								</Node>
								<Node id="11" defaultChild="22">
									<SimplePredicate field="mean_resp_time" operator="greaterOrEqual" value="7.478095"/>
									<Node id="22" score="0.18762767">
										<SimplePredicate field="is_urgent" operator="lessThan" value="1"/>
									</Node>
									<Node id="23" score="0.24677046">
										<SimplePredicate field="is_urgent" operator="greaterOrEqual" value="1"/>
									</Node>
								</Node>
							</Node>
						</Node>
						<Node id="3" defaultChild="6">
							<SimplePredicate field="mean_resp_time" operator="greaterOrEqual" value="11.9827585"/>
							<Node id="6" defaultChild="12">
								<SimplePredicate field="num_cars" operator="lessThan" value="2"/>
								<Node id="12" defaultChild="24">
									<SimplePredicate field="mean_resp_time" operator="lessThan" value="17.329456"/>
									<Node id="24" score="0.45707852">
										<SimplePredicate field="mean_resp_time" operator="lessThan" value="14.861904"/>
									</Node>
									<Node id="25" score="0.5155854">
										<SimplePredicate field="mean_resp_time" operator="greaterOrEqual" value="14.861904"/>
									</Node>
								</Node>
								<Node id="13" defaultChild="26">
									<SimplePredicate field="mean_resp_time" operator="greaterOrEqual" value="17.329456"/>
									<Node id="26" score="0.5816369">
										<SimplePredicate field="cross_npc" operator="lessThan" value="1"/>
									</Node>
									<Node id="27" score="0.75903416">
										<SimplePredicate field="cross_npc" operator="greaterOrEqual" value="1"/>
									</Node>
								</Node>
							</Node>
							<Node id="7" defaultChild="14">
								<SimplePredicate field="num_cars" operator="greaterOrEqual" value="2"/>
								<Node id="14" defaultChild="28">
									<SimplePredicate field="cross_npc" operator="lessThan" value="1"/>
									<Node id="28" score="0.26649788">
										<SimplePredicate field="mean_resp_time" operator="lessThan" value="18.648352"/>
									</Node>
									<Node id="29" score="0.36671638">
										<SimplePredicate field="mean_resp_time" operator="greaterOrEqual" value="18.648352"/>
									</Node>
								</Node>
								<Node id="15" defaultChild="30">
									<SimplePredicate field="cross_npc" operator="greaterOrEqual" value="1"/>
									<Node id="30" score="0.42585087">
										<SimplePredicate field="mean_resp_time" operator="lessThan" value="17.954544"/>
									</Node>
									<Node id="31" score="0.6057529">
										<SimplePredicate field="mean_resp_time" operator="greaterOrEqual" value="17.954544"/>
									</Node>
								</Node>
							</Node>
						</Node>
					</Node>
				</TreeModel>
			</Segment>
			<Segment id="8">
				<True/>
				<TreeModel functionName="regression" missingValueStrategy="defaultChild" splitCharacteristic="binarySplit">
					<MiningSchema>
						<MiningField name="mean_resp_time"/>
						<MiningField name="is_urgent"/>
						<MiningField name="num_cars"/>
						<MiningField name="cross_npc"/>
					</MiningSchema>
					<Node id="1" defaultChild="2">
						<True/>
						<Node id="2" defaultChild="4">
							<SimplePredicate field="mean_resp_time" operator="lessThan" value="11.496836"/>
							<Node id="4" defaultChild="8">
								<SimplePredicate field="num_cars" operator="lessThan" value="2"/>
								<Node id="8" defaultChild="16">
									<SimplePredicate field="mean_resp_time" operator="lessThan" value="8.310097"/>
									<Node id="16" score="0.1399877">
										<SimplePredicate field="mean_resp_time" operator="lessThan" value="5.482143"/>
									</Node>
									<Node id="17" score="0.26392123">
										<SimplePredicate field="mean_resp_time" operator="greaterOrEqual" value="5.482143"/>
									</Node>
								</Node>
								<Node id="9" defaultChild="18">
									<SimplePredicate field="mean_resp_time" operator="greaterOrEqual" value="8.310097"/>
									<Node id="18" score="0.31874734">
										<SimplePredicate field="mean_resp_time" operator="lessThan" value="9.641429"/>
									</Node>
									<Node id="19" score="0.36377984">
										<SimplePredicate field="mean_resp_time" operator="greaterOrEqual" value="9.641429"/>
									</Node>
								</Node>
							</Node>
							<Node id="5" defaultChild="10">
								<SimplePredicate field="num_cars" operator="greaterOrEqual" value="2"/>
								<Node id="10" defaultChild="20">
									<SimplePredicate field="mean_resp_time" operator="lessThan" value="5.7238097"/>
									<Node id="20" score="0.032497667">
										<SimplePredicate field="mean_resp_time" operator="lessThan" value="2.3666668"/>
									</Node>
									<Node id="21" score="0.11296002">
										<SimplePredicate field="mean_resp_time" operator="greaterOrEqual" value="2.3666668"/>
									</Node>
								</Node>
								<Node id="11" defaultChild="22">
									<SimplePredicate field="mean_resp_time" operator="greaterOrEqual" value="5.7238097"/>
									<Node id="22" score="0.175853">
										<SimplePredicate field="mean_resp_time" operator="lessThan" value="8.620193"/>
									</Node>
									<Node id="23" score="0.22275923">
										<SimplePredicate field="mean_resp_time" operator="greaterOrEqual" value="8.620193"/>
									</Node>
								</Node>
							</Node>
						</Node>
						<Node id="3" defaultChild="6">
							<SimplePredicate field="mean_resp_time" operator="greaterOrEqual" value="11.496836"/>
							<Node id="6" defaultChild="12">
								<SimplePredicate field="num_cars" operator="lessThan" value="2"/>
								<Node id="12" defaultChild="24">
									<SimplePredicate field="mean_resp_time" operator="lessThan" value="15.961309"/>
									<Node id="24" score="0.41350266">
										<SimplePredicate field="mean_resp_time" operator="lessThan" value="13.492857"/>
									</Node>
									<Node id="25" score="0.46170092">
										<SimplePredicate field="mean_resp_time" operator="greaterOrEqual" value="13.492857"/>
									</Node>
								</Node>
								<Node id="13" defaultChild="26">
									<SimplePredicate field="mean_resp_time" operator="greaterOrEqual" value="15.961309"/>
									<Node id="26" score="0.52607036">
										<SimplePredicate field="mean_resp_time" operator="lessThan" value="21.886753"/>
									</Node>
									<Node id="27" score="0.652387">
										<SimplePredicate field="mean_resp_time" operator="greaterOrEqual" value="21.886753"/>
									</Node>
								</Node>
							</Node>
							<Node id="7" defaultChild="14">
								<SimplePredicate field="num_cars" operator="greaterOrEqual" value="2"/>
								<Node id="14" defaultChild="28">
									<SimplePredicate field="cross_npc" operator="lessThan" value="1"/>
									<Node id="28" score="0.25066078">
										<SimplePredicate field="is_urgent" operator="lessThan" value="1"/>
									</Node>
									<Node id="29" score="0.37110922">
										<SimplePredicate field="is_urgent" operator="greaterOrEqual" value="1"/>
									</Node>
								</Node>
								<Node id="15" defaultChild="30">
									<SimplePredicate field="cross_npc" operator="greaterOrEqual" value="1"/>
									<Node id="30" score="0.4138198">
										<SimplePredicate field="mean_resp_time" operator="lessThan" value="19.846153"/>
									</Node>
									<Node id="31" score="0.6146382">
										<SimplePredicate field="mean_resp_time" operator="greaterOrEqual" value="19.846153"/>
									</Node>
								</Node>
							</Node>
						</Node>
					</Node>
				</TreeModel>
			</Segment>
			<Segment id="9">
				<True/>
				<TreeModel functionName="regression" missingValueStrategy="defaultChild" splitCharacteristic="binarySplit">
					<MiningSchema>
						<MiningField name="mean_resp_time"/>
						<MiningField name="is_urgent"/>
						<MiningField name="num_cars"/>
						<MiningField name="cross_npc"/>
					</MiningSchema>
					<Node id="1" defaultChild="2">
						<True/>
						<Node id="2" defaultChild="4">
							<SimplePredicate field="mean_resp_time" operator="lessThan" value="11.496836"/>
							<Node id="4" defaultChild="8">
								<SimplePredicate field="num_cars" operator="lessThan" value="2"/>
								<Node id="8" defaultChild="16">
									<SimplePredicate field="mean_resp_time" operator="lessThan" value="8.236694"/>
									<Node id="16" score="0.03766304">
										<SimplePredicate field="mean_resp_time" operator="lessThan" value="4.1499996"/>
									</Node>
									<Node id="17" score="0.24616273">
										<SimplePredicate field="mean_resp_time" operator="greaterOrEqual" value="4.1499996"/>
									</Node>
								</Node>
								<Node id="9" defaultChild="18">
									<SimplePredicate field="mean_resp_time" operator="greaterOrEqual" value="8.236694"/>
									<Node id="18" score="0.301614">
										<SimplePredicate field="mean_resp_time" operator="lessThan" value="9.630604"/>
									</Node>
									<Node id="19" score="0.34554577">
										<SimplePredicate field="mean_resp_time" operator="greaterOrEqual" value="9.630604"/>
									</Node>
								</Node>
							</Node>
							<Node id="5" defaultChild="10">
								<SimplePredicate field="num_cars" operator="greaterOrEqual" value="2"/>
								<Node id="10" defaultChild="20">
									<SimplePredicate field="mean_resp_time" operator="lessThan" value="7.478095"/>
									<Node id="20" score="0.051255412">
										<SimplePredicate field="mean_resp_time" operator="lessThan" value="3.875"/>
									</Node>
									<Node id="21" score="0.1417217">
										<SimplePredicate field="mean_resp_time" operator="greaterOrEqual" value="3.875"/>
									</Node>
								</Node>
								<Node id="11" defaultChild="22">
									<SimplePredicate field="mean_resp_time" operator="greaterOrEqual" value="7.478095"/>
									<Node id="22" score="0.16282775">
										<SimplePredicate field="is_urgent" operator="lessThan" value="1"/>
									</Node>
									<Node id="23" score="0.21889403">
										<SimplePredicate field="is_urgent" operator="greaterOrEqual" value="1"/>
									</Node>
								</Node>
							</Node>
						</Node>
						<Node id="3" defaultChild="6">
							<SimplePredicate field="mean_resp_time" operator="greaterOrEqual" value="11.496836"/>
							<Node id="6" defaultChild="12">
								<SimplePredicate field="num_cars" operator="lessThan" value="2"/>
								<Node id="12" defaultChild="24">
									<SimplePredicate field="mean_resp_time" operator="lessThan" value="15.950956"/>
									<Node id="24" score="0.3926449">
										<SimplePredicate field="mean_resp_time" operator="lessThan" value="13.492857"/>
									</Node>
									<Node id="25" score="0.4401783">
										<SimplePredicate field="mean_resp_time" operator="greaterOrEqual" value="13.492857"/>
									</Node>
								</Node>
								<Node id="13" defaultChild="26">
									<SimplePredicate field="mean_resp_time" operator="greaterOrEqual" value="15.950956"/>
									<Node id="26" score="0.4959178">
										<SimplePredicate field="mean_resp_time" operator="lessThan" value="20.769842"/>
									</Node>
									<Node id="27" score="0.6036087">
										<SimplePredicate field="mean_resp_time" operator="greaterOrEqual" value="20.769842"/>
									</Node>
								</Node>
							</Node>
							<Node id="7" defaultChild="14">
								<SimplePredicate field="num_cars" operator="greaterOrEqual" value="2"/>
								<Node id="14" defaultChild="28">
									<SimplePredicate field="cross_npc" operator="lessThan" value="1"/>
									<Node id="28" score="0.23866689">
										<SimplePredicate field="is_urgent" operator="lessThan" value="1"/>
									</Node>
									<Node id="29" score="0.3490476">
										<SimplePredicate field="is_urgent" operator="greaterOrEqual" value="1"/>
									</Node>
								</Node>
								<Node id="15" defaultChild="30">
									<SimplePredicate field="cross_npc" operator="greaterOrEqual" value="1"/>
									<Node id="30" score="0.40366164">
										<SimplePredicate field="mean_resp_time" operator="lessThan" value="22.875"/>
									</Node>
									<Node id="31" score="0.63053024">
										<SimplePredicate field="mean_resp_time" operator="greaterOrEqual" value="22.875"/>
									</Node>
								</Node>
							</Node>
						</Node>
					</Node>
				</TreeModel>
			</Segment>
			<Segment id="10">
				<True/>
				<TreeModel functionName="regression" missingValueStrategy="defaultChild" splitCharacteristic="binarySplit">
					<MiningSchema>
						<MiningField name="mean_resp_time"/>
						<MiningField name="is_urgent"/>
						<MiningField name="num_cars"/>
						<MiningField name="cross_npc"/>
					</MiningSchema>
					<Node id="1" defaultChild="2">
						<True/>
						<Node id="2" defaultChild="4">
							<SimplePredicate field="mean_resp_time" operator="lessThan" value="12.418011"/>
							<Node id="4" defaultChild="8">
								<SimplePredicate field="num_cars" operator="lessThan" value="2"/>
								<Node id="8" defaultChild="16">
									<SimplePredicate field="mean_resp_time" operator="lessThan" value="9.297059"/>
									<Node id="16" score="0.21989894">
										<SimplePredicate field="mean_resp_time" operator="lessThan" value="7.8535714"/>
									</Node>
									<Node id="17" score="0.27569523">
										<SimplePredicate field="mean_resp_time" operator="greaterOrEqual" value="7.8535714"/>
									</Node>
								</Node>
								<Node id="9" defaultChild="18">
									<SimplePredicate field="mean_resp_time" operator="greaterOrEqual" value="9.297059"/>
									<Node id="18" score="0.31402302">
										<SimplePredicate field="mean_resp_time" operator="lessThan" value="10.7464285"/>
									</Node>
									<Node id="19" score="0.35064277">
										<SimplePredicate field="mean_resp_time" operator="greaterOrEqual" value="10.7464285"/>
									</Node>
								</Node>
							</Node>
							<Node id="5" defaultChild="10">
								<SimplePredicate field="num_cars" operator="greaterOrEqual" value="2"/>
								<Node id="10" defaultChild="20">
									<SimplePredicate field="mean_resp_time" operator="lessThan" value="7.478095"/>
									<Node id="20" score="0.061479993">
										<SimplePredicate field="mean_resp_time" operator="lessThan" value="4.8819447"/>
									</Node>
									<Node id="21" score="0.13891841">
										<SimplePredicate field="mean_resp_time" operator="greaterOrEqual" value="4.8819447"/>
									</Node>
								</Node>
								<Node id="11" defaultChild="22">
									<SimplePredicate field="mean_resp_time" operator="greaterOrEqual" value="7.478095"/>
									<Node id="22" score="0.15729116">
										<SimplePredicate field="is_urgent" operator="lessThan" value="1"/>
									</Node>
									<Node id="23" score="0.21567266">
										<SimplePredicate field="is_urgent" operator="greaterOrEqual" value="1"/>
									</Node>
								</Node>
							</Node>
						</Node>
						<Node id="3" defaultChild="6">
							<SimplePredicate field="mean_resp_time" operator="greaterOrEqual" value="12.418011"/>
							<Node id="6" defaultChild="12">
								<SimplePredicate field="num_cars" operator="lessThan" value="2"/>
								<Node id="12" defaultChild="24">
									<SimplePredicate field="mean_resp_time" operator="lessThan" value="17.329456"/>
									<Node id="24" score="0.397235">
										<SimplePredicate field="mean_resp_time" operator="lessThan" value="14.893797"/>
									</Node>
									<Node id="25" score="0.44186255">
										<SimplePredicate field="mean_resp_time" operator="greaterOrEqual" value="14.893797"/>
									</Node>
								</Node>
								<Node id="13" defaultChild="26">
									<SimplePredicate field="mean_resp_time" operator="greaterOrEqual" value="17.329456"/>
									<Node id="26" score="0.5008449">
										<SimplePredicate field="cross_npc" operator="lessThan" value="1"/>
									</Node>
									<Node id="27" score="0.66993976">
										<SimplePredicate field="cross_npc" operator="greaterOrEqual" value="1"/>
									</Node>
								</Node>
							</Node>
							<Node id="7" defaultChild="14">
								<SimplePredicate field="num_cars" operator="greaterOrEqual" value="2"/>
								<Node id="14" defaultChild="28">
									<SimplePredicate field="cross_npc" operator="lessThan" value="1"/>
									<Node id="28" score="0.22956267">
										<SimplePredicate field="mean_resp_time" operator="lessThan" value="18.648352"/>
									</Node>
									<Node id="29" score="0.3205138">
										<SimplePredicate field="mean_resp_time" operator="greaterOrEqual" value="18.648352"/>
									</Node>
								</Node>
								<Node id="15" defaultChild="30">
									<SimplePredicate field="cross_npc" operator="greaterOrEqual" value="1"/>
									<Node id="30" score="0.38893607">
										<SimplePredicate field="mean_resp_time" operator="lessThan" value="19.846153"/>
									</Node>
									<Node id="31" score="0.5550531">
										<SimplePredicate field="mean_resp_time" operator="greaterOrEqual" value="19.846153"/>
									</Node>
								</Node>
							</Node>
						</Node>
					</Node>
				</TreeModel>
			</Segment>
			<Segment id="11">
				<True/>
				<TreeModel functionName="regression" missingValueStrategy="defaultChild" splitCharacteristic="binarySplit">
					<MiningSchema>
						<MiningField name="mean_resp_time"/>
						<MiningField name="is_urgent"/>
						<MiningField name="num_cars"/>
						<MiningField name="cross_npc"/>
					</MiningSchema>
					<Node id="1" defaultChild="2">
						<True/>
						<Node id="2" defaultChild="4">
							<SimplePredicate field="mean_resp_time" operator="lessThan" value="11.496836"/>
							<Node id="4" defaultChild="8">
								<SimplePredicate field="num_cars" operator="lessThan" value="2"/>
								<Node id="8" defaultChild="16">
									<SimplePredicate field="mean_resp_time" operator="lessThan" value="8.151922"/>
									<Node id="16" score="0.11479057">
										<SimplePredicate field="mean_resp_time" operator="lessThan" value="5.482143"/>
									</Node>
									<Node id="17" score="0.22264548">
										<SimplePredicate field="mean_resp_time" operator="greaterOrEqual" value="5.482143"/>
									</Node>
								</Node>
								<Node id="9" defaultChild="18">
									<SimplePredicate field="mean_resp_time" operator="greaterOrEqual" value="8.151922"/>
									<Node id="18" score="0.27496397">
										<SimplePredicate field="mean_resp_time" operator="lessThan" value="9.917793"/>
									</Node>
									<Node id="19" score="0.31542024">
										<SimplePredicate field="mean_resp_time" operator="greaterOrEqual" value="9.917793"/>
									</Node>
								</Node>
							</Node>
							<Node id="5" defaultChild="10">
								<SimplePredicate field="num_cars" operator="greaterOrEqual" value="2"/>
								<Node id="10" defaultChild="20">
									<SimplePredicate field="mean_resp_time" operator="lessThan" value="7.478095"/>
									<Node id="20" score="0.059123337">
										<SimplePredicate field="mean_resp_time" operator="lessThan" value="4.8819447"/>
									</Node>
									<Node id="21" score="0.13097866">
										<SimplePredicate field="mean_resp_time" operator="greaterOrEqual" value="4.8819447"/>
									</Node>
								</Node>
								<Node id="11" defaultChild="22">
									<SimplePredicate field="mean_resp_time" operator="greaterOrEqual" value="7.478095"/>
									<Node id="22" score="0.14330742">
										<SimplePredicate field="is_urgent" operator="lessThan" value="1"/>
									</Node>
									<Node id="23" score="0.19929421">
										<SimplePredicate field="is_urgent" operator="greaterOrEqual" value="1"/>
									</Node>
								</Node>
							</Node>
						</Node>
						<Node id="3" defaultChild="6">
							<SimplePredicate field="mean_resp_time" operator="greaterOrEqual" value="11.496836"/>
							<Node id="6" defaultChild="12">
								<SimplePredicate field="num_cars" operator="lessThan" value="2"/>
								<Node id="12" defaultChild="24">
									<SimplePredicate field="mean_resp_time" operator="lessThan" value="15.292892"/>
									<Node id="24" score="0.3478528">
										<SimplePredicate field="mean_resp_time" operator="lessThan" value="12.983871"/>
									</Node>
									<Node id="25" score="0.38771653">
										<SimplePredicate field="mean_resp_time" operator="greaterOrEqual" value="12.983871"/>
									</Node>
								</Node>
								<Node id="13" defaultChild="26">
									<SimplePredicate field="mean_resp_time" operator="greaterOrEqual" value="15.292892"/>
									<Node id="26" score="0.43582946">
										<SimplePredicate field="mean_resp_time" operator="lessThan" value="19.472149"/>
									</Node>
									<Node id="27" score="0.5251523">
										<SimplePredicate field="mean_resp_time" operator="greaterOrEqual" value="19.472149"/>
									</Node>
								</Node>
							</Node>
							<Node id="7" defaultChild="14">
								<SimplePredicate field="num_cars" operator="greaterOrEqual" value="2"/>
								<Node id="14" defaultChild="28">
									<SimplePredicate field="cross_npc" operator="lessThan" value="1"/>
									<Node id="28" score="0.21513832">
										<SimplePredicate field="is_urgent" operator="lessThan" value="1"/>
									</Node>
									<Node id="29" score="0.32363567">
										<SimplePredicate field="is_urgent" operator="greaterOrEqual" value="1"/>
									</Node>
								</Node>
								<Node id="15" defaultChild="30">
									<SimplePredicate field="cross_npc" operator="greaterOrEqual" value="1"/>
									<Node id="30" score="0.33405837">
										<SimplePredicate field="mean_resp_time" operator="lessThan" value="17.954544"/>
									</Node>
									<Node id="31" score="0.5039299">
										<SimplePredicate field="mean_resp_time" operator="greaterOrEqual" value="17.954544"/>
									</Node>
								</Node>
							</Node>
						</Node>
					</Node>
				</TreeModel>
			</Segment>
			<Segment id="12">
				<True/>
				<TreeModel functionName="regression" missingValueStrategy="defaultChild" splitCharacteristic="binarySplit">
					<MiningSchema>
						<MiningField name="mean_resp_time"/>
						<MiningField name="is_urgent"/>
						<MiningField name="num_cars"/>
						<MiningField name="cross_npc"/>
					</MiningSchema>
					<Node id="1" defaultChild="2">
						<True/>
						<Node id="2" defaultChild="4">
							<SimplePredicate field="mean_resp_time" operator="lessThan" value="11.797436"/>
							<Node id="4" defaultChild="8">
								<SimplePredicate field="num_cars" operator="lessThan" value="2"/>
								<Node id="8" defaultChild="16">
									<SimplePredicate field="mean_resp_time" operator="lessThan" value="9.236694"/>
									<Node id="16" score="0.17172809">
										<SimplePredicate field="mean_resp_time" operator="lessThan" value="6.9710083"/>
									</Node>
									<Node id="17" score="0.23677056">
										<SimplePredicate field="mean_resp_time" operator="greaterOrEqual" value="6.9710083"/>
									</Node>
								</Node>
								<Node id="9" defaultChild="18">
									<SimplePredicate field="mean_resp_time" operator="greaterOrEqual" value="9.236694"/>
									<Node id="18" score="0.28036058">
										<SimplePredicate field="mean_resp_time" operator="lessThan" value="10.552778"/>
									</Node>
									<Node id="19" score="0.30903518">
										<SimplePredicate field="mean_resp_time" operator="greaterOrEqual" value="10.552778"/>
									</Node>
								</Node>
							</Node>
							<Node id="5" defaultChild="10">
								<SimplePredicate field="num_cars" operator="greaterOrEqual" value="2"/>
								<Node id="10" defaultChild="20">
									<SimplePredicate field="mean_resp_time" operator="lessThan" value="7.51"/>
									<Node id="20" score="0.042113498">
										<SimplePredicate field="mean_resp_time" operator="lessThan" value="3.875"/>
									</Node>
									<Node id="21" score="0.1228464">
										<SimplePredicate field="mean_resp_time" operator="greaterOrEqual" value="3.875"/>
									</Node>
								</Node>
								<Node id="11" defaultChild="22">
									<SimplePredicate field="mean_resp_time" operator="greaterOrEqual" value="7.51"/>
									<Node id="22" score="0.13764074">
										<SimplePredicate field="is_urgent" operator="lessThan" value="1"/>
									</Node>
									<Node id="23" score="0.19177523">
										<SimplePredicate field="is_urgent" operator="greaterOrEqual" value="1"/>
									</Node>
								</Node>
							</Node>
						</Node>
						<Node id="3" defaultChild="6">
							<SimplePredicate field="mean_resp_time" operator="greaterOrEqual" value="11.797436"/>
							<Node id="6" defaultChild="12">
								<SimplePredicate field="num_cars" operator="lessThan" value="2"/>
								<Node id="12" defaultChild="24">
									<SimplePredicate field="mean_resp_time" operator="lessThan" value="17.329456"/>
									<Node id="24" score="0.34503773">
										<SimplePredicate field="mean_resp_time" operator="lessThan" value="13.988372"/>
									</Node>
									<Node id="25" score="0.38921767">
										<SimplePredicate field="mean_resp_time" operator="greaterOrEqual" value="13.988372"/>
									</Node>
								</Node>
								<Node id="13" defaultChild="26">
									<SimplePredicate field="mean_resp_time" operator="greaterOrEqual" value="17.329456"/>
									<Node id="26" score="0.45084715">
										<SimplePredicate field="cross_npc" operator="lessThan" value="1"/>
									</Node>
									<Node id="27" score="0.6088395">
										<SimplePredicate field="cross_npc" operator="greaterOrEqual" value="1"/>
									</Node>
								</Node>
							</Node>
							<Node id="7" defaultChild="14">
								<SimplePredicate field="num_cars" operator="greaterOrEqual" value="2"/>
								<Node id="14" defaultChild="28">
									<SimplePredicate field="cross_npc" operator="lessThan" value="1"/>
									<Node id="28" score="0.18439385">
										<SimplePredicate field="mean_resp_time" operator="lessThan" value="14.648272"/>
									</Node>
									<Node id="29" score="0.24862956">
										<SimplePredicate field="mean_resp_time" operator="greaterOrEqual" value="14.648272"/>
									</Node>
								</Node>
								<Node id="15" defaultChild="30">
									<SimplePredicate field="cross_npc" operator="greaterOrEqual" value="1"/>
									<Node id="30" score="0.32158288">
										<SimplePredicate field="mean_resp_time" operator="lessThan" value="17.954544"/>
									</Node>
									<Node id="31" score="0.47930175">
										<SimplePredicate field="mean_resp_time" operator="greaterOrEqual" value="17.954544"/>
									</Node>
								</Node>
							</Node>
						</Node>
					</Node>
				</TreeModel>
			</Segment>
			<Segment id="13">
				<True/>
				<TreeModel functionName="regression" missingValueStrategy="defaultChild" splitCharacteristic="binarySplit">
					<MiningSchema>
						<MiningField name="mean_resp_time"/>
						<MiningField name="is_urgent"/>
						<MiningField name="num_cars"/>
						<MiningField name="cross_npc"/>
					</MiningSchema>
					<Node id="1" defaultChild="2">
						<True/>
						<Node id="2" defaultChild="4">
							<SimplePredicate field="mean_resp_time" operator="lessThan" value="12.05719"/>
							<Node id="4" defaultChild="8">
								<SimplePredicate field="num_cars" operator="lessThan" value="2"/>
								<Node id="8" defaultChild="16">
									<SimplePredicate field="mean_resp_time" operator="lessThan" value="9.297059"/>
									<Node id="16" score="0.18823962">
										<SimplePredicate field="mean_resp_time" operator="lessThan" value="7.8535714"/>
									</Node>
									<Node id="17" score="0.23695906">
										<SimplePredicate field="mean_resp_time" operator="greaterOrEqual" value="7.8535714"/>
									</Node>
								</Node>
								<Node id="9" defaultChild="18">
									<SimplePredicate field="mean_resp_time" operator="greaterOrEqual" value="9.297059"/>
									<Node id="18" score="0.26892826">
										<SimplePredicate field="mean_resp_time" operator="lessThan" value="10.7464285"/>
									</Node>
									<Node id="19" score="0.29692575">
										<SimplePredicate field="mean_resp_time" operator="greaterOrEqual" value="10.7464285"/>
									</Node>
								</Node>
							</Node>
							<Node id="5" defaultChild="10">
								<SimplePredicate field="num_cars" operator="greaterOrEqual" value="2"/>
								<Node id="10" defaultChild="20">
									<SimplePredicate field="mean_resp_time" operator="lessThan" value="8.689903"/>
									<Node id="20" score="0.053165175">
										<SimplePredicate field="mean_resp_time" operator="lessThan" value="4.8819447"/>
									</Node>
									<Node id="21" score="0.12997201">
										<SimplePredicate field="mean_resp_time" operator="greaterOrEqual" value="4.8819447"/>
									</Node>
								</Node>
								<Node id="11" defaultChild="22">
									<SimplePredicate field="mean_resp_time" operator="greaterOrEqual" value="8.689903"/>
									<Node id="22" score="0.14036492">
										<SimplePredicate field="is_urgent" operator="lessThan" value="1"/>
									</Node>
									<Node id="23" score="0.21393275">
										<SimplePredicate field="is_urgent" operator="greaterOrEqual" value="1"/>
									</Node>
								</Node>
							</Node>
						</Node>
						<Node id="3" defaultChild="6">
							<SimplePredicate field="mean_resp_time" operator="greaterOrEqual" value="12.05719"/>
							<Node id="6" defaultChild="12">
								<SimplePredicate field="num_cars" operator="lessThan" value="2"/>
								<Node id="12" defaultChild="24">
									<SimplePredicate field="mean_resp_time" operator="lessThan" value="17.329456"/>
									<Node id="24" score="0.3374464">
										<SimplePredicate field="mean_resp_time" operator="lessThan" value="14.906927"/>
									</Node>
									<Node id="25" score="0.37987038">
										<SimplePredicate field="mean_resp_time" operator="greaterOrEqual" value="14.906927"/>
									</Node>
								</Node>
								<Node id="13" defaultChild="26">
									<SimplePredicate field="mean_resp_time" operator="greaterOrEqual" value="17.329456"/>
									<Node id="26" score="0.42845684">
										<SimplePredicate field="cross_npc" operator="lessThan" value="1"/>
									</Node>
									<Node id="27" score="0.5812128">
										<SimplePredicate field="cross_npc" operator="greaterOrEqual" value="1"/>
									</Node>
								</Node>
							</Node>
							<Node id="7" defaultChild="14">
								<SimplePredicate field="num_cars" operator="greaterOrEqual" value="2"/>
								<Node id="14" defaultChild="28">
									<SimplePredicate field="cross_npc" operator="lessThan" value="1"/>
									<Node id="28" score="0.17409018">
										<SimplePredicate field="mean_resp_time" operator="lessThan" value="14.648272"/>
									</Node>
									<Node id="29" score="0.23363283">
										<SimplePredicate field="mean_resp_time" operator="greaterOrEqual" value="14.648272"/>
									</Node>
								</Node>
								<Node id="15" defaultChild="30">
									<SimplePredicate field="cross_npc" operator="greaterOrEqual" value="1"/>
									<Node id="30" score="0.31435108">
										<SimplePredicate field="mean_resp_time" operator="lessThan" value="17.954544"/>
									</Node>
									<Node id="31" score="0.44579744">
										<SimplePredicate field="mean_resp_time" operator="greaterOrEqual" value="17.954544"/>
									</Node>
								</Node>
							</Node>
						</Node>
					</Node>
				</TreeModel>
			</Segment>
			<Segment id="14">
				<True/>
				<TreeModel functionName="regression" missingValueStrategy="defaultChild" splitCharacteristic="binarySplit">
					<MiningSchema>
						<MiningField name="mean_resp_time"/>
						<MiningField name="is_urgent"/>
						<MiningField name="num_cars"/>
						<MiningField name="cross_npc"/>
					</MiningSchema>
					<Node id="1" defaultChild="2">
						<True/>
						<Node id="2" defaultChild="4">
							<SimplePredicate field="mean_resp_time" operator="lessThan" value="11.496836"/>
							<Node id="4" defaultChild="8">
								<SimplePredicate field="num_cars" operator="lessThan" value="2"/>
								<Node id="8" defaultChild="16">
									<SimplePredicate field="mean_resp_time" operator="lessThan" value="8.151922"/>
									<Node id="16" score="0.041234963">
										<SimplePredicate field="mean_resp_time" operator="lessThan" value="4.9444447"/>
									</Node>
									<Node id="17" score="0.19001839">
										<SimplePredicate field="mean_resp_time" operator="greaterOrEqual" value="4.9444447"/>
									</Node>
								</Node>
								<Node id="9" defaultChild="18">
									<SimplePredicate field="mean_resp_time" operator="greaterOrEqual" value="8.151922"/>
									<Node id="18" score="0.23617828">
										<SimplePredicate field="mean_resp_time" operator="lessThan" value="9.920998"/>
									</Node>
									<Node id="19" score="0.27090877">
										<SimplePredicate field="mean_resp_time" operator="greaterOrEqual" value="9.920998"/>
									</Node>
								</Node>
							</Node>
							<Node id="5" defaultChild="10">
								<SimplePredicate field="num_cars" operator="greaterOrEqual" value="2"/>
								<Node id="10" defaultChild="20">
									<SimplePredicate field="mean_resp_time" operator="lessThan" value="5.8944445"/>
									<Node id="20" score="0.01768147">
										<SimplePredicate field="mean_resp_time" operator="lessThan" value="2.1666665"/>
									</Node>
									<Node id="21" score="0.08360296">
										<SimplePredicate field="mean_resp_time" operator="greaterOrEqual" value="2.1666665"/>
									</Node>
								</Node>
								<Node id="11" defaultChild="22">
									<SimplePredicate field="mean_resp_time" operator="greaterOrEqual" value="5.8944445"/>
									<Node id="22" score="0.12961659">
										<SimplePredicate field="mean_resp_time" operator="lessThan" value="8.984375"/>
									</Node>
									<Node id="23" score="0.16933905">
										<SimplePredicate field="mean_resp_time" operator="greaterOrEqual" value="8.984375"/>
									</Node>
								</Node>
							</Node>
						</Node>
						<Node id="3" defaultChild="6">
							<SimplePredicate field="mean_resp_time" operator="greaterOrEqual" value="11.496836"/>
							<Node id="6" defaultChild="12">
								<SimplePredicate field="num_cars" operator="lessThan" value="2"/>
								<Node id="12" defaultChild="24">
									<SimplePredicate field="mean_resp_time" operator="lessThan" value="15.292892"/>
									<Node id="24" score="0.2979245">
										<SimplePredicate field="mean_resp_time" operator="lessThan" value="12.983871"/>
									</Node>
									<Node id="25" score="0.3312187">
										<SimplePredicate field="mean_resp_time" operator="greaterOrEqual" value="12.983871"/>
									</Node>
								</Node>
								<Node id="13" defaultChild="26">
									<SimplePredicate field="mean_resp_time" operator="greaterOrEqual" value="15.292892"/>
									<Node id="26" score="0.37480086">
										<SimplePredicate field="mean_resp_time" operator="lessThan" value="19.992188"/>
									</Node>
									<Node id="27" score="0.46147558">
										<SimplePredicate field="mean_resp_time" operator="greaterOrEqual" value="19.992188"/>
									</Node>
								</Node>
							</Node>
							<Node id="7" defaultChild="14">
								<SimplePredicate field="num_cars" operator="greaterOrEqual" value="2"/>
								<Node id="14" defaultChild="28">
									<SimplePredicate field="cross_npc" operator="lessThan" value="1"/>
									<Node id="28" score="0.18580684">
										<SimplePredicate field="is_urgent" operator="lessThan" value="1"/>
									</Node>
									<Node id="29" score="0.28770915">
										<SimplePredicate field="is_urgent" operator="greaterOrEqual" value="1"/>
									</Node>
								</Node>
								<Node id="15" defaultChild="30">
									<SimplePredicate field="cross_npc" operator="greaterOrEqual" value="1"/>
									<Node id="30" score="0.3069646">
										<SimplePredicate field="mean_resp_time" operator="lessThan" value="22.875"/>
									</Node>
									<Node id="31" score="0.48649183">
										<SimplePredicate field="mean_resp_time" operator="greaterOrEqual" value="22.875"/>
									</Node>
								</Node>
							</Node>
						</Node>
					</Node>
				</TreeModel>
			</Segment>
			<Segment id="15">
				<True/>
				<TreeModel functionName="regression" missingValueStrategy="defaultChild" splitCharacteristic="binarySplit">
					<MiningSchema>
						<MiningField name="mean_resp_time"/>
						<MiningField name="is_urgent"/>
						<MiningField name="num_cars"/>
						<MiningField name="cross_npc"/>
					</MiningSchema>
					<Node id="1" defaultChild="2">
						<True/>
						<Node id="2" defaultChild="4">
							<SimplePredicate field="mean_resp_time" operator="lessThan" value="11.907671"/>
							<Node id="4" defaultChild="8">
								<SimplePredicate field="num_cars" operator="lessThan" value="2"/>
								<Node id="8" defaultChild="16">
									<SimplePredicate field="mean_resp_time" operator="lessThan" value="8.464102"/>
									<Node id="16" score="0.12385863">
										<SimplePredicate field="mean_resp_time" operator="lessThan" value="6.324561"/>
									</Node>
									<Node id="17" score="0.18972747">
										<SimplePredicate field="mean_resp_time" operator="greaterOrEqual" value="6.324561"/>
									</Node>
								</Node>
								<Node id="9" defaultChild="18">
									<SimplePredicate field="mean_resp_time" operator="greaterOrEqual" value="8.464102"/>
									<Node id="18" score="0.22986951">
										<SimplePredicate field="mean_resp_time" operator="lessThan" value="10.120471"/>
									</Node>
									<Node id="19" score="0.2620052">
										<SimplePredicate field="mean_resp_time" operator="greaterOrEqual" value="10.120471"/>
									</Node>
								</Node>
							</Node>
							<Node id="5" defaultChild="10">
								<SimplePredicate field="num_cars" operator="greaterOrEqual" value="2"/>
								<Node id="10" defaultChild="20">
									<SimplePredicate field="mean_resp_time" operator="lessThan" value="7.9522724"/>
									<Node id="20" score="0.04600021">
										<SimplePredicate field="mean_resp_time" operator="lessThan" value="4.535714"/>
									</Node>
									<Node id="21" score="0.11075155">
										<SimplePredicate field="mean_resp_time" operator="greaterOrEqual" value="4.535714"/>
									</Node>
								</Node>
								<Node id="11" defaultChild="22">
									<SimplePredicate field="mean_resp_time" operator="greaterOrEqual" value="7.9522724"/>
									<Node id="22" score="0.119931854">
										<SimplePredicate field="is_urgent" operator="lessThan" value="1"/>
									</Node>
									<Node id="23" score="0.17439511">
										<SimplePredicate field="is_urgent" operator="greaterOrEqual" value="1"/>
									</Node>
								</Node>
							</Node>
						</Node>
						<Node id="3" defaultChild="6">
							<SimplePredicate field="mean_resp_time" operator="greaterOrEqual" value="11.907671"/>
							<Node id="6" defaultChild="12">
								<SimplePredicate field="num_cars" operator="lessThan" value="2"/>
								<Node id="12" defaultChild="24">
									<SimplePredicate field="mean_resp_time" operator="lessThan" value="17.183502"/>
									<Node id="24" score="0.29732046">
										<SimplePredicate field="mean_resp_time" operator="lessThan" value="13.988372"/>
									</Node>
									<Node id="25" score="0.33399272">
										<SimplePredicate field="mean_resp_time" operator="greaterOrEqual" value="13.988372"/>
									</Node>
								</Node>
								<Node id="13" defaultChild="26">
									<SimplePredicate field="mean_resp_time" operator="greaterOrEqual" value="17.183502"/>
									<Node id="26" score="0.38628456">
										<SimplePredicate field="cross_npc" operator="lessThan" value="1"/>
									</Node>
									<Node id="27" score="0.5264968">
										<SimplePredicate field="cross_npc" operator="greaterOrEqual" value="1"/>
									</Node>
								</Node>
							</Node>
							<Node id="7" defaultChild="14">
								<SimplePredicate field="num_cars" operator="greaterOrEqual" value="2"/>
								<Node id="14" defaultChild="28">
									<SimplePredicate field="cross_npc" operator="lessThan" value="1"/>
									<Node id="28" score="0.1729273">
										<SimplePredicate field="mean_resp_time" operator="lessThan" value="18.648352"/>
									</Node>
									<Node id="29" score="0.25480822">
										<SimplePredicate field="mean_resp_time" operator="greaterOrEqual" value="18.648352"/>
									</Node>
								</Node>
								<Node id="15" defaultChild="30">
									<SimplePredicate field="cross_npc" operator="greaterOrEqual" value="1"/>
									<Node id="30" score="0.2828384">
										<SimplePredicate field="mean_resp_time" operator="lessThan" value="17.954544"/>
									</Node>
									<Node id="31" score="0.40470353">
										<SimplePredicate field="mean_resp_time" operator="greaterOrEqual" value="17.954544"/>
									</Node>
								</Node>
							</Node>
						</Node>
					</Node>
				</TreeModel>
			</Segment>
			<Segment id="16">
				<True/>
				<TreeModel functionName="regression" missingValueStrategy="defaultChild" splitCharacteristic="binarySplit">
					<MiningSchema>
						<MiningField name="mean_resp_time"/>
						<MiningField name="is_urgent"/>
						<MiningField name="num_cars"/>
						<MiningField name="cross_npc"/>
					</MiningSchema>
					<Node id="1" defaultChild="2">
						<True/>
						<Node id="2" defaultChild="4">
							<SimplePredicate field="mean_resp_time" operator="lessThan" value="12.493902"/>
							<Node id="4" defaultChild="8">
								<SimplePredicate field="num_cars" operator="lessThan" value="2"/>
								<Node id="8" defaultChild="16">
									<SimplePredicate field="mean_resp_time" operator="lessThan" value="9.475973"/>
									<Node id="16" score="0.14892466">
										<SimplePredicate field="mean_resp_time" operator="lessThan" value="7.3038464"/>
									</Node>
									<Node id="17" score="0.19960378">
										<SimplePredicate field="mean_resp_time" operator="greaterOrEqual" value="7.3038464"/>
									</Node>
								</Node>
								<Node id="9" defaultChild="18">
									<SimplePredicate field="mean_resp_time" operator="greaterOrEqual" value="9.475973"/>
									<Node id="18" score="0.23424938">
										<SimplePredicate field="mean_resp_time" operator="lessThan" value="10.968864"/>
									</Node>
									<Node id="19" score="0.2603598">
										<SimplePredicate field="mean_resp_time" operator="greaterOrEqual" value="10.968864"/>
									</Node>
								</Node>
							</Node>
							<Node id="5" defaultChild="10">
								<SimplePredicate field="num_cars" operator="greaterOrEqual" value="2"/>
								<Node id="10" defaultChild="20">
									<SimplePredicate field="mean_resp_time" operator="lessThan" value="8.620193"/>
									<Node id="20" score="0.044205394">
										<SimplePredicate field="mean_resp_time" operator="lessThan" value="4.8819447"/>
									</Node>
									<Node id="21" score="0.10910689">
										<SimplePredicate field="mean_resp_time" operator="greaterOrEqual" value="4.8819447"/>
									</Node>
								</Node>
								<Node id="11" defaultChild="22">
									<SimplePredicate field="mean_resp_time" operator="greaterOrEqual" value="8.620193"/>
									<Node id="22" score="0.115539804">
										<SimplePredicate field="is_urgent" operator="lessThan" value="1"/>
									</Node>
									<Node id="23" score="0.18324894">
										<SimplePredicate field="is_urgent" operator="greaterOrEqual" value="1"/>
									</Node>
								</Node>
							</Node>
						</Node>
						<Node id="3" defaultChild="6">
							<SimplePredicate field="mean_resp_time" operator="greaterOrEqual" value="12.493902"/>
							<Node id="6" defaultChild="12">
								<SimplePredicate field="num_cars" operator="lessThan" value="2"/>
								<Node id="12" defaultChild="24">
									<SimplePredicate field="mean_resp_time" operator="lessThan" value="18.763306"/>
									<Node id="24" score="0.29512355">
										<SimplePredicate field="mean_resp_time" operator="lessThan" value="15.292892"/>
									</Node>
									<Node id="25" score="0.33228803">
										<SimplePredicate field="mean_resp_time" operator="greaterOrEqual" value="15.292892"/>
									</Node>
								</Node>
								<Node id="13" defaultChild="26">
									<SimplePredicate field="mean_resp_time" operator="greaterOrEqual" value="18.763306"/>
									<Node id="26" score="0.38265684">
										<SimplePredicate field="cross_npc" operator="lessThan" value="1"/>
									</Node>
									<Node id="27" score="0.5211833">
										<SimplePredicate field="cross_npc" operator="greaterOrEqual" value="1"/>
									</Node>
								</Node>
							</Node>
							<Node id="7" defaultChild="14">
								<SimplePredicate field="num_cars" operator="greaterOrEqual" value="2"/>
								<Node id="14" defaultChild="28">
									<SimplePredicate field="cross_npc" operator="lessThan" value="1"/>
									<Node id="28" score="0.16727977">
										<SimplePredicate field="mean_resp_time" operator="lessThan" value="19.97433"/>
									</Node>
									<Node id="29" score="0.2686157">
										<SimplePredicate field="mean_resp_time" operator="greaterOrEqual" value="19.97433"/>
									</Node>
								</Node>
								<Node id="15" defaultChild="30">
									<SimplePredicate field="cross_npc" operator="greaterOrEqual" value="1"/>
									<Node id="30" score="0.29185316">
										<SimplePredicate field="mean_resp_time" operator="lessThan" value="22.875"/>
									</Node>
									<Node id="31" score="0.4445272">
										<SimplePredicate field="mean_resp_time" operator="greaterOrEqual" value="22.875"/>
									</Node>
								</Node>
							</Node>
						</Node>
					</Node>
				</TreeModel>
			</Segment>
			<Segment id="17">
				<True/>
				<TreeModel functionName="regression" missingValueStrategy="defaultChild" splitCharacteristic="binarySplit">
					<MiningSchema>
						<MiningField name="traffic_travel_time"/>
						<MiningField name="mean_resp_time"/>
						<MiningField name="is_urgent"/>
						<MiningField name="num_cars"/>
						<MiningField name="cross_npc"/>
					</MiningSchema>
					<Node id="1" defaultChild="2">
						<True/>
						<Node id="2" defaultChild="4">
							<SimplePredicate field="mean_resp_time" operator="lessThan" value="12.939339"/>
							<Node id="4" defaultChild="8">
								<SimplePredicate field="num_cars" operator="lessThan" value="2"/>
								<Node id="8" defaultChild="16">
									<SimplePredicate field="mean_resp_time" operator="lessThan" value="9.326241"/>
									<Node id="16" score="0.12863627">
										<SimplePredicate field="mean_resp_time" operator="lessThan" value="6.912879"/>
									</Node>
									<Node id="17" score="0.1849962">
										<SimplePredicate field="mean_resp_time" operator="greaterOrEqual" value="6.912879"/>
									</Node>
								</Node>
								<Node id="9" defaultChild="18">
									<SimplePredicate field="mean_resp_time" operator="greaterOrEqual" value="9.326241"/>
									<Node id="18" score="0.22123359">
										<SimplePredicate field="mean_resp_time" operator="lessThan" value="10.968864"/>
									</Node>
									<Node id="19" score="0.24989259">
										<SimplePredicate field="mean_resp_time" operator="greaterOrEqual" value="10.968864"/>
									</Node>
								</Node>
							</Node>
							<Node id="5" defaultChild="10">
								<SimplePredicate field="num_cars" operator="greaterOrEqual" value="2"/>
								<Node id="10" defaultChild="20">
									<SimplePredicate field="mean_resp_time" operator="lessThan" value="6.7192116"/>
									<Node id="20" score="0.01371435">
										<SimplePredicate field="mean_resp_time" operator="lessThan" value="2.5833335"/>
									</Node>
									<Node id="21" score="0.0822923">
										<SimplePredicate field="mean_resp_time" operator="greaterOrEqual" value="2.5833335"/>
									</Node>
								</Node>
								<Node id="11" defaultChild="22">
									<SimplePredicate field="mean_resp_time" operator="greaterOrEqual" value="6.7192116"/>
									<Node id="22" score="0.10696528">
										<SimplePredicate field="is_urgent" operator="lessThan" value="1"/>
									</Node>
									<Node id="23" score="0.1453361">
										<SimplePredicate field="is_urgent" operator="greaterOrEqual" value="1"/>
									</Node>
								</Node>
							</Node>
						</Node>
						<Node id="3" defaultChild="6">
							<SimplePredicate field="mean_resp_time" operator="greaterOrEqual" value="12.939339"/>
							<Node id="6" defaultChild="12">
								<SimplePredicate field="num_cars" operator="lessThan" value="2"/>
								<Node id="12" defaultChild="24">
									<SimplePredicate field="mean_resp_time" operator="lessThan" value="19.472149"/>
									<Node id="24" score="0.28555414">
										<SimplePredicate field="mean_resp_time" operator="lessThan" value="15.294786"/>
									</Node>
									<Node id="25" score="0.32028034">
										<SimplePredicate field="mean_resp_time" operator="greaterOrEqual" value="15.294786"/>
									</Node>
								</Node>
								<Node id="13" defaultChild="26">
									<SimplePredicate field="mean_resp_time" operator="greaterOrEqual" value="19.472149"/>
									<Node id="26" score="0.3580005">
										<SimplePredicate field="traffic_travel_time" operator="lessThan" value="607"/>
									</Node>
									<Node id="27" score="0.45279485">
										<SimplePredicate field="traffic_travel_time" operator="greaterOrEqual" value="607"/>
									</Node>
								</Node>
							</Node>
							<Node id="7" defaultChild="14">
								<SimplePredicate field="num_cars" operator="greaterOrEqual" value="2"/>
								<Node id="14" defaultChild="28">
									<SimplePredicate field="cross_npc" operator="lessThan" value="1"/>
									<Node id="28" score="0.16790871">
										<SimplePredicate field="mean_resp_time" operator="lessThan" value="21.133333"/>
									</Node>
									<Node id="29" score="0.28028232">
										<SimplePredicate field="mean_resp_time" operator="greaterOrEqual" value="21.133333"/>
									</Node>
								</Node>
								<Node id="15" defaultChild="30">
									<SimplePredicate field="cross_npc" operator="greaterOrEqual" value="1"/>
									<Node id="30" score="0.28199753">
										<SimplePredicate field="traffic_travel_time" operator="lessThan" value="929"/>
									</Node>
									<Node id="31" score="0.40849122">
										<SimplePredicate field="traffic_travel_time" operator="greaterOrEqual" value="929"/>
									</Node>
								</Node>
							</Node>
						</Node>
					</Node>
				</TreeModel>
			</Segment>
			<Segment id="18">
				<True/>
				<TreeModel functionName="regression" missingValueStrategy="defaultChild" splitCharacteristic="binarySplit">
					<MiningSchema>
						<MiningField name="mean_resp_time"/>
						<MiningField name="is_urgent"/>
						<MiningField name="num_cars"/>
						<MiningField name="cross_npc"/>
					</MiningSchema>
					<Node id="1" defaultChild="2">
						<True/>
						<Node id="2" defaultChild="4">
							<SimplePredicate field="mean_resp_time" operator="lessThan" value="10.989796"/>
							<Node id="4" defaultChild="8">
								<SimplePredicate field="num_cars" operator="lessThan" value="2"/>
								<Node id="8" defaultChild="16">
									<SimplePredicate field="mean_resp_time" operator="lessThan" value="8.087121"/>
									<Node id="16" score="-0.017401358">
										<SimplePredicate field="mean_resp_time" operator="lessThan" value="4.1499996"/>
									</Node>
									<Node id="17" score="0.15159868">
										<SimplePredicate field="mean_resp_time" operator="greaterOrEqual" value="4.1499996"/>
									</Node>
								</Node>
								<Node id="9" defaultChild="18">
									<SimplePredicate field="mean_resp_time" operator="greaterOrEqual" value="8.087121"/>
									<Node id="18" score="0.1887011">
										<SimplePredicate field="mean_resp_time" operator="lessThan" value="9.481066"/>
									</Node>
									<Node id="19" score="0.21238516">
										<SimplePredicate field="mean_resp_time" operator="greaterOrEqual" value="9.481066"/>
									</Node>
								</Node>
							</Node>
							<Node id="5" defaultChild="10">
								<SimplePredicate field="num_cars" operator="greaterOrEqual" value="2"/>
								<Node id="10" defaultChild="20">
									<SimplePredicate field="mean_resp_time" operator="lessThan" value="5.7238097"/>
									<Node id="20" score="-0.012039288">
										<SimplePredicate field="mean_resp_time" operator="lessThan" value="1.9"/>
									</Node>
									<Node id="21" score="0.06108308">
										<SimplePredicate field="mean_resp_time" operator="greaterOrEqual" value="1.9"/>
									</Node>
								</Node>
								<Node id="11" defaultChild="22">
									<SimplePredicate field="mean_resp_time" operator="greaterOrEqual" value="5.7238097"/>
									<Node id="22" score="0.10764139">
										<SimplePredicate field="mean_resp_time" operator="lessThan" value="9.720779"/>
									</Node>
									<Node id="23" score="0.14793411">
										<SimplePredicate field="mean_resp_time" operator="greaterOrEqual" value="9.720779"/>
									</Node>
								</Node>
							</Node>
						</Node>
						<Node id="3" defaultChild="6">
							<SimplePredicate field="mean_resp_time" operator="greaterOrEqual" value="10.989796"/>
							<Node id="6" defaultChild="12">
								<SimplePredicate field="num_cars" operator="lessThan" value="2"/>
								<Node id="12" defaultChild="24">
									<SimplePredicate field="mean_resp_time" operator="lessThan" value="15.73774"/>
									<Node id="24" score="0.2394526">
										<SimplePredicate field="mean_resp_time" operator="lessThan" value="12.983871"/>
									</Node>
									<Node id="25" score="0.27236852">
										<SimplePredicate field="mean_resp_time" operator="greaterOrEqual" value="12.983871"/>
									</Node>
								</Node>
								<Node id="13" defaultChild="26">
									<SimplePredicate field="mean_resp_time" operator="greaterOrEqual" value="15.73774"/>
									<Node id="26" score="0.31470582">
										<SimplePredicate field="mean_resp_time" operator="lessThan" value="22.984375"/>
									</Node>
									<Node id="27" score="0.42712837">
										<SimplePredicate field="mean_resp_time" operator="greaterOrEqual" value="22.984375"/>
									</Node>
								</Node>
							</Node>
							<Node id="7" defaultChild="14">
								<SimplePredicate field="num_cars" operator="greaterOrEqual" value="2"/>
								<Node id="14" defaultChild="28">
									<SimplePredicate field="cross_npc" operator="lessThan" value="1"/>
									<Node id="28" score="0.14429995">
										<SimplePredicate field="is_urgent" operator="lessThan" value="1"/>
									</Node>
									<Node id="29" score="0.2431679">
										<SimplePredicate field="is_urgent" operator="greaterOrEqual" value="1"/>
									</Node>
								</Node>
								<Node id="15" defaultChild="30">
									<SimplePredicate field="cross_npc" operator="greaterOrEqual" value="1"/>
									<Node id="30" score="0.2571977">
										<SimplePredicate field="mean_resp_time" operator="lessThan" value="22.875"/>
									</Node>
									<Node id="31" score="0.40103427">
										<SimplePredicate field="mean_resp_time" operator="greaterOrEqual" value="22.875"/>
									</Node>
								</Node>
							</Node>
						</Node>
					</Node>
				</TreeModel>
			</Segment>
			<Segment id="19">
				<True/>
				<TreeModel functionName="regression" missingValueStrategy="defaultChild" splitCharacteristic="binarySplit">
					<MiningSchema>
						<MiningField name="mean_resp_time"/>
						<MiningField name="is_urgent"/>
						<MiningField name="num_cars"/>
						<MiningField name="cross_npc"/>
					</MiningSchema>
					<Node id="1" defaultChild="2">
						<True/>
						<Node id="2" defaultChild="4">
							<SimplePredicate field="mean_resp_time" operator="lessThan" value="11.174457"/>
							<Node id="4" defaultChild="8">
								<SimplePredicate field="num_cars" operator="lessThan" value="2"/>
								<Node id="8" defaultChild="16">
									<SimplePredicate field="mean_resp_time" operator="lessThan" value="8.135294"/>
									<Node id="16" score="-0.014828363">
										<SimplePredicate field="mean_resp_time" operator="lessThan" value="4.1499996"/>
									</Node>
									<Node id="17" score="0.1445549">
										<SimplePredicate field="mean_resp_time" operator="greaterOrEqual" value="4.1499996"/>
									</Node>
								</Node>
								<Node id="9" defaultChild="18">
									<SimplePredicate field="mean_resp_time" operator="greaterOrEqual" value="8.135294"/>
									<Node id="18" score="0.17981274">
										<SimplePredicate field="mean_resp_time" operator="lessThan" value="9.481066"/>
									</Node>
									<Node id="19" score="0.20254408">
										<SimplePredicate field="mean_resp_time" operator="greaterOrEqual" value="9.481066"/>
									</Node>
								</Node>
							</Node>
							<Node id="5" defaultChild="10">
								<SimplePredicate field="num_cars" operator="greaterOrEqual" value="2"/>
								<Node id="10" defaultChild="20">
									<SimplePredicate field="mean_resp_time" operator="lessThan" value="7.9522724"/>
									<Node id="20" score="0.013196893">
										<SimplePredicate field="mean_resp_time" operator="lessThan" value="2.9"/>
									</Node>
									<Node id="21" score="0.08413451">
										<SimplePredicate field="mean_resp_time" operator="greaterOrEqual" value="2.9"/>
									</Node>
								</Node>
								<Node id="11" defaultChild="22">
									<SimplePredicate field="mean_resp_time" operator="greaterOrEqual" value="7.9522724"/>
									<Node id="22" score="0.091762125">
										<SimplePredicate field="is_urgent" operator="lessThan" value="1"/>
									</Node>
									<Node id="23" score="0.13937269">
										<SimplePredicate field="is_urgent" operator="greaterOrEqual" value="1"/>
									</Node>
								</Node>
							</Node>
						</Node>
						<Node id="3" defaultChild="6">
							<SimplePredicate field="mean_resp_time" operator="greaterOrEqual" value="11.174457"/>
							<Node id="6" defaultChild="12">
								<SimplePredicate field="num_cars" operator="lessThan" value="2"/>
								<Node id="12" defaultChild="24">
									<SimplePredicate field="mean_resp_time" operator="lessThan" value="16.723637"/>
									<Node id="24" score="0.23216896">
										<SimplePredicate field="mean_resp_time" operator="lessThan" value="13.5278635"/>
									</Node>
									<Node id="25" score="0.2669686">
										<SimplePredicate field="mean_resp_time" operator="greaterOrEqual" value="13.5278635"/>
									</Node>
								</Node>
								<Node id="13" defaultChild="26">
									<SimplePredicate field="mean_resp_time" operator="greaterOrEqual" value="16.723637"/>
									<Node id="26" score="0.30624622">
										<SimplePredicate field="mean_resp_time" operator="lessThan" value="22.984375"/>
									</Node>
									<Node id="27" score="0.402627">
										<SimplePredicate field="mean_resp_time" operator="greaterOrEqual" value="22.984375"/>
									</Node>
								</Node>
							</Node>
							<Node id="7" defaultChild="14">
								<SimplePredicate field="num_cars" operator="greaterOrEqual" value="2"/>
								<Node id="14" defaultChild="28">
									<SimplePredicate field="cross_npc" operator="lessThan" value="1"/>
									<Node id="28" score="0.14247562">
										<SimplePredicate field="is_urgent" operator="lessThan" value="1"/>
									</Node>
									<Node id="29" score="0.23205975">
										<SimplePredicate field="is_urgent" operator="greaterOrEqual" value="1"/>
									</Node>
								</Node>
								<Node id="15" defaultChild="30">
									<SimplePredicate field="cross_npc" operator="greaterOrEqual" value="1"/>
									<Node id="30" score="0.24139903">
										<SimplePredicate field="mean_resp_time" operator="lessThan" value="22.875"/>
									</Node>
									<Node id="31" score="0.42535517">
										<SimplePredicate field="mean_resp_time" operator="greaterOrEqual" value="22.875"/>
									</Node>
								</Node>
							</Node>
						</Node>
					</Node>
				</TreeModel>
			</Segment>
			<Segment id="20">
				<True/>
				<TreeModel functionName="regression" missingValueStrategy="defaultChild" splitCharacteristic="binarySplit">
					<MiningSchema>
						<MiningField name="traffic_travel_time"/>
						<MiningField name="mean_resp_time"/>
						<MiningField name="is_urgent"/>
						<MiningField name="num_cars"/>
						<MiningField name="cross_npc"/>
					</MiningSchema>
					<Node id="1" defaultChild="2">
						<True/>
						<Node id="2" defaultChild="4">
							<SimplePredicate field="mean_resp_time" operator="lessThan" value="12.493902"/>
							<Node id="4" defaultChild="8">
								<SimplePredicate field="num_cars" operator="lessThan" value="2"/>
								<Node id="8" defaultChild="16">
									<SimplePredicate field="mean_resp_time" operator="lessThan" value="8.854497"/>
									<Node id="16" score="0.096522115">
										<SimplePredicate field="mean_resp_time" operator="lessThan" value="6.4913793"/>
									</Node>
									<Node id="17" score="0.1517977">
										<SimplePredicate field="mean_resp_time" operator="greaterOrEqual" value="6.4913793"/>
									</Node>
								</Node>
								<Node id="9" defaultChild="18">
									<SimplePredicate field="mean_resp_time" operator="greaterOrEqual" value="8.854497"/>
									<Node id="18" score="0.18380933">
										<SimplePredicate field="mean_resp_time" operator="lessThan" value="10.7464285"/>
									</Node>
									<Node id="19" score="0.21013267">
										<SimplePredicate field="mean_resp_time" operator="greaterOrEqual" value="10.7464285"/>
									</Node>
								</Node>
							</Node>
							<Node id="5" defaultChild="10">
								<SimplePredicate field="num_cars" operator="greaterOrEqual" value="2"/>
								<Node id="10" defaultChild="20">
									<SimplePredicate field="mean_resp_time" operator="lessThan" value="8.984375"/>
									<Node id="20" score="0.04349704">
										<SimplePredicate field="mean_resp_time" operator="lessThan" value="5.7238097"/>
									</Node>
									<Node id="21" score="0.09223796">
										<SimplePredicate field="mean_resp_time" operator="greaterOrEqual" value="5.7238097"/>
									</Node>
								</Node>
								<Node id="11" defaultChild="22">
									<SimplePredicate field="mean_resp_time" operator="greaterOrEqual" value="8.984375"/>
									<Node id="22" score="0.09335691">
										<SimplePredicate field="is_urgent" operator="lessThan" value="1"/>
									</Node>
									<Node id="23" score="0.15931723">
										<SimplePredicate field="is_urgent" operator="greaterOrEqual" value="1"/>
									</Node>
								</Node>
							</Node>
						</Node>
						<Node id="3" defaultChild="6">
							<SimplePredicate field="mean_resp_time" operator="greaterOrEqual" value="12.493902"/>
							<Node id="6" defaultChild="12">
								<SimplePredicate field="num_cars" operator="lessThan" value="2"/>
								<Node id="12" defaultChild="24">
									<SimplePredicate field="mean_resp_time" operator="lessThan" value="19.992188"/>
									<Node id="24" score="0.24263434">
										<SimplePredicate field="traffic_travel_time" operator="lessThan" value="555"/>
									</Node>
									<Node id="25" score="0.28218463">
										<SimplePredicate field="traffic_travel_time" operator="greaterOrEqual" value="555"/>
									</Node>
								</Node>
								<Node id="13" defaultChild="26">
									<SimplePredicate field="mean_resp_time" operator="greaterOrEqual" value="19.992188"/>
									<Node id="26" score="0.3252322">
										<SimplePredicate field="cross_npc" operator="lessThan" value="1"/>
									</Node>
									<Node id="27" score="0.4562393">
										<SimplePredicate field="cross_npc" operator="greaterOrEqual" value="1"/>
									</Node>
								</Node>
							</Node>
							<Node id="7" defaultChild="14">
								<SimplePredicate field="num_cars" operator="greaterOrEqual" value="2"/>
								<Node id="14" defaultChild="28">
									<SimplePredicate field="cross_npc" operator="lessThan" value="1"/>
									<Node id="28" score="0.1147437">
										<SimplePredicate field="mean_resp_time" operator="lessThan" value="14.648272"/>
									</Node>
									<Node id="29" score="0.17223017">
										<SimplePredicate field="mean_resp_time" operator="greaterOrEqual" value="14.648272"/>
									</Node>
								</Node>
								<Node id="15" defaultChild="30">
									<SimplePredicate field="cross_npc" operator="greaterOrEqual" value="1"/>
									<Node id="30" score="0.22513269">
										<SimplePredicate field="mean_resp_time" operator="lessThan" value="17.833332"/>
									</Node>
									<Node id="31" score="0.34921467">
										<SimplePredicate field="mean_resp_time" operator="greaterOrEqual" value="17.833332"/>
									</Node>
								</Node>
							</Node>
						</Node>
					</Node>
				</TreeModel>
			</Segment>
			<Segment id="21">
				<True/>
				<TreeModel functionName="regression" missingValueStrategy="defaultChild" splitCharacteristic="binarySplit">
					<MiningSchema>
						<MiningField name="traffic_travel_time"/>
						<MiningField name="mean_resp_time"/>
						<MiningField name="is_urgent"/>
						<MiningField name="num_cars"/>
					</MiningSchema>
					<Node id="1" defaultChild="2">
						<True/>
						<Node id="2" defaultChild="4">
							<SimplePredicate field="mean_resp_time" operator="lessThan" value="12.493902"/>
							<Node id="4" defaultChild="8">
								<SimplePredicate field="num_cars" operator="lessThan" value="2"/>
								<Node id="8" defaultChild="16">
									<SimplePredicate field="mean_resp_time" operator="lessThan" value="9.138096"/>
									<Node id="16" score="0.090912364">
										<SimplePredicate field="mean_resp_time" operator="lessThan" value="6.4913793"/>
									</Node>
									<Node id="17" score="0.14734186">
										<SimplePredicate field="mean_resp_time" operator="greaterOrEqual" value="6.4913793"/>
									</Node>
								</Node>
								<Node id="9" defaultChild="18">
									<SimplePredicate field="mean_resp_time" operator="greaterOrEqual" value="9.138096"/>
									<Node id="18" score="0.17897503">
										<SimplePredicate field="traffic_travel_time" operator="lessThan" value="456"/>
									</Node>
									<Node id="19" score="0.20317245">
										<SimplePredicate field="traffic_travel_time" operator="greaterOrEqual" value="456"/>
									</Node>
								</Node>
							</Node>
							<Node id="5" defaultChild="10">
								<SimplePredicate field="num_cars" operator="greaterOrEqual" value="2"/>
								<Node id="10" defaultChild="20">
									<SimplePredicate field="mean_resp_time" operator="lessThan" value="7.9522724"/>
									<Node id="20" score="0.0073757777">
										<SimplePredicate field="mean_resp_time" operator="lessThan" value="2.3666668"/>
									</Node>
									<Node id="21" score="0.076089695">
										<SimplePredicate field="mean_resp_time" operator="greaterOrEqual" value="2.3666668"/>
									</Node>
								</Node>
								<Node id="11" defaultChild="22">
									<SimplePredicate field="mean_resp_time" operator="greaterOrEqual" value="7.9522724"/>
									<Node id="22" score="0.08483313">
										<SimplePredicate field="is_urgent" operator="lessThan" value="1"/>
									</Node>
									<Node id="23" score="0.13277449">
										<SimplePredicate field="is_urgent" operator="greaterOrEqual" value="1"/>
									</Node>
								</Node>
							</Node>
						</Node>
						<Node id="3" defaultChild="6">
							<SimplePredicate field="mean_resp_time" operator="greaterOrEqual" value="12.493902"/>
							<Node id="6" defaultChild="12">
								<SimplePredicate field="num_cars" operator="lessThan" value="2"/>
								<Node id="12" defaultChild="24">
