<?xml version="1.0" encoding="UTF-8" standalone="yes"?>
<PMML xmlns="http://www.dmg.org/PMML-4_3" version="4.3">
	<Header>
		<Application name="JPMML-SkLearn" version="1.2.1"/>
		<Timestamp>2017-03-07T08:17:56Z</Timestamp>
	</Header>
	<MiningBuildTask>
		<Extension>PMMLPipeline(steps=[('regression', GradientBoostingRegressor(alpha=0.9, criterion='friedman_mse', init=None,
             learning_rate=0.1, loss='ls', max_depth=3, max_features=None,
             max_leaf_nodes=None, min_impurity_split=1e-07,
             min_samples_leaf=1, min_samples_split=2,
             min_weight_fraction_leaf=0.0, n_estimators=100,
             presort='auto', random_state=None, subsample=1.0, verbose=0,
             warm_start=False))])</Extension>
	</MiningBuildTask>
	<DataDictionary>
		<DataField name="travel_time" optype="continuous" dataType="double"/>
		<DataField name="traffic_travel_time" optype="continuous" dataType="float"/>
		<DataField name="mean_resp_time" optype="continuous" dataType="float"/>
		<DataField name="is_urgent" optype="continuous" dataType="float"/>
		<DataField name="num_cars" optype="continuous" dataType="float"/>
		<DataField name="cross_npc" optype="continuous" dataType="float"/>
		<DataField name="hours" optype="continuous" dataType="float"/>
	</DataDictionary>
	<MiningModel functionName="regression">
		<MiningSchema>
			<MiningField name="travel_time" usageType="target"/>
			<MiningField name="traffic_travel_time"/>
			<MiningField name="mean_resp_time"/>
			<MiningField name="is_urgent"/>
			<MiningField name="num_cars"/>
			<MiningField name="cross_npc"/>
			<MiningField name="hours"/>
		</MiningSchema>
		<Targets>
			<Target field="travel_time" rescaleConstant="9.653869864933027" rescaleFactor="0.1"/>
		</Targets>
		<Segmentation multipleModelMethod="sum">
			<Segment id="1">
				<True/>
				<TreeModel functionName="regression" splitCharacteristic="binarySplit">
					<MiningSchema>
						<MiningField name="mean_resp_time"/>
						<MiningField name="num_cars"/>
						<MiningField name="cross_npc"/>
					</MiningSchema>
					<Node id="1">
						<True/>
						<Node id="2">
							<SimplePredicate field="num_cars" operator="lessOrEqual" value="1.5"/>
							<Node id="3">
								<SimplePredicate field="mean_resp_time" operator="lessOrEqual" value="11.901915"/>
								<Node id="4" score="-2.428177989840383">
									<SimplePredicate field="mean_resp_time" operator="lessOrEqual" value="9.226496"/>
								</Node>
								<Node id="5" score="-0.26498897770848545">
									<SimplePredicate field="mean_resp_time" operator="greaterThan" value="9.226496"/>
								</Node>
							</Node>
							<Node id="6">
								<SimplePredicate field="mean_resp_time" operator="greaterThan" value="11.901915"/>
								<Node id="7" score="2.3010211639565123">
									<SimplePredicate field="mean_resp_time" operator="lessOrEqual" value="17.283422"/>
								</Node>
								<Node id="8" score="5.125480483094281">
									<SimplePredicate field="mean_resp_time" operator="greaterThan" value="17.283422"/>
								</Node>
							</Node>
						</Node>
						<Node id="9">
							<SimplePredicate field="num_cars" operator="greaterThan" value="1.5"/>
							<Node id="10">
								<SimplePredicate field="mean_resp_time" operator="lessOrEqual" value="7.470769"/>
								<Node id="11" score="-8.091168900302781">
									<SimplePredicate field="mean_resp_time" operator="lessOrEqual" value="3.1666665"/>
								</Node>
								<Node id="12" score="-6.644471368692307">
									<SimplePredicate field="mean_resp_time" operator="greaterThan" value="3.1666665"/>
								</Node>
							</Node>
							<Node id="13">
								<SimplePredicate field="mean_resp_time" operator="greaterThan" value="7.470769"/>
								<Node id="14" score="-5.107580463096564">
									<SimplePredicate field="cross_npc" operator="lessOrEqual" value="0.5"/>
								</Node>
								<Node id="15" score="-2.1170035054860077">
									<SimplePredicate field="cross_npc" operator="greaterThan" value="0.5"/>
								</Node>
							</Node>
						</Node>
					</Node>
				</TreeModel>
			</Segment>
			<Segment id="2">
				<True/>
				<TreeModel functionName="regression" splitCharacteristic="binarySplit">
					<MiningSchema>
						<MiningField name="mean_resp_time"/>
						<MiningField name="num_cars"/>
						<MiningField name="cross_npc"/>
					</MiningSchema>
					<Node id="1">
						<True/>
						<Node id="2">
							<SimplePredicate field="num_cars" operator="lessOrEqual" value="1.5"/>
							<Node id="3">
								<SimplePredicate field="mean_resp_time" operator="lessOrEqual" value="12.567972"/>
								<Node id="4" score="-2.1304156170717214">
									<SimplePredicate field="mean_resp_time" operator="lessOrEqual" value="9.37171"/>
								</Node>
								<Node id="5" score="0.009754457553759071">
									<SimplePredicate field="mean_resp_time" operator="greaterThan" value="9.37171"/>
								</Node>
							</Node>
							<Node id="6">
								<SimplePredicate field="mean_resp_time" operator="greaterThan" value="12.567972"/>
								<Node id="7" score="2.2855073735614937">
									<SimplePredicate field="mean_resp_time" operator="lessOrEqual" value="17.582493"/>
								</Node>
								<Node id="8" score="4.710171465964933">
									<SimplePredicate field="mean_resp_time" operator="greaterThan" value="17.582493"/>
								</Node>
							</Node>
						</Node>
						<Node id="9">
							<SimplePredicate field="num_cars" operator="greaterThan" value="1.5"/>
							<Node id="10">
								<SimplePredicate field="mean_resp_time" operator="lessOrEqual" value="7.5405846"/>
								<Node id="11" score="-6.863474504971522">
									<SimplePredicate field="mean_resp_time" operator="lessOrEqual" value="5.651515"/>
								</Node>
								<Node id="12" score="-5.723945154946607">
									<SimplePredicate field="mean_resp_time" operator="greaterThan" value="5.651515"/>
								</Node>
							</Node>
							<Node id="13">
								<SimplePredicate field="mean_resp_time" operator="greaterThan" value="7.5405846"/>
								<Node id="14" score="-4.59234721596586">
									<SimplePredicate field="cross_npc" operator="lessOrEqual" value="0.5"/>
								</Node>
								<Node id="15" score="-1.8145348539628834">
									<SimplePredicate field="cross_npc" operator="greaterThan" value="0.5"/>
								</Node>
							</Node>
						</Node>
					</Node>
				</TreeModel>
			</Segment>
			<Segment id="3">
				<True/>
				<TreeModel functionName="regression" splitCharacteristic="binarySplit">
					<MiningSchema>
						<MiningField name="mean_resp_time"/>
						<MiningField name="num_cars"/>
						<MiningField name="cross_npc"/>
					</MiningSchema>
					<Node id="1">
						<True/>
						<Node id="2">
							<SimplePredicate field="num_cars" operator="lessOrEqual" value="1.5"/>
							<Node id="3">
								<SimplePredicate field="mean_resp_time" operator="lessOrEqual" value="11.758333"/>
								<Node id="4" score="-2.5022711558710387">
									<SimplePredicate field="mean_resp_time" operator="lessOrEqual" value="8.138096"/>
								</Node>
								<Node id="5" score="-0.564532420618589">
									<SimplePredicate field="mean_resp_time" operator="greaterThan" value="8.138096"/>
								</Node>
							</Node>
							<Node id="6">
								<SimplePredicate field="mean_resp_time" operator="greaterThan" value="11.758333"/>
								<Node id="7" score="1.5342296659004837">
									<SimplePredicate field="mean_resp_time" operator="lessOrEqual" value="15.755"/>
								</Node>
								<Node id="8" score="3.711204104586872">
									<SimplePredicate field="mean_resp_time" operator="greaterThan" value="15.755"/>
								</Node>
							</Node>
						</Node>
						<Node id="9">
							<SimplePredicate field="num_cars" operator="greaterThan" value="1.5"/>
							<Node id="10">
								<SimplePredicate field="mean_resp_time" operator="lessOrEqual" value="9.741667"/>
								<Node id="11" score="-6.177127054474382">
									<SimplePredicate field="mean_resp_time" operator="lessOrEqual" value="5.651515"/>
								</Node>
								<Node id="12" score="-4.819040597680273">
									<SimplePredicate field="mean_resp_time" operator="greaterThan" value="5.651515"/>
								</Node>
							</Node>
							<Node id="13">
								<SimplePredicate field="mean_resp_time" operator="greaterThan" value="9.741667"/>
								<Node id="14" score="-3.9625484256980554">
									<SimplePredicate field="cross_npc" operator="lessOrEqual" value="0.5"/>
								</Node>
								<Node id="15" score="-0.3475327492453748">
									<SimplePredicate field="cross_npc" operator="greaterThan" value="0.5"/>
								</Node>
							</Node>
						</Node>
					</Node>
				</TreeModel>
			</Segment>
			<Segment id="4">
				<True/>
				<TreeModel functionName="regression" splitCharacteristic="binarySplit">
					<MiningSchema>
						<MiningField name="mean_resp_time"/>
						<MiningField name="num_cars"/>
						<MiningField name="cross_npc"/>
					</MiningSchema>
					<Node id="1">
						<True/>
						<Node id="2">
							<SimplePredicate field="num_cars" operator="lessOrEqual" value="1.5"/>
							<Node id="3">
								<SimplePredicate field="mean_resp_time" operator="lessOrEqual" value="13.097619"/>
								<Node id="4" score="-1.6563572784737137">
									<SimplePredicate field="mean_resp_time" operator="lessOrEqual" value="9.641711"/>
								</Node>
								<Node id="5" score="0.2100192739304902">
									<SimplePredicate field="mean_resp_time" operator="greaterThan" value="9.641711"/>
								</Node>
							</Node>
							<Node id="6">
								<SimplePredicate field="mean_resp_time" operator="greaterThan" value="13.097619"/>
								<Node id="7" score="2.1276266453455692">
									<SimplePredicate field="mean_resp_time" operator="lessOrEqual" value="18.941483"/>
								</Node>
								<Node id="8" score="4.572323744384225">
									<SimplePredicate field="mean_resp_time" operator="greaterThan" value="18.941483"/>
								</Node>
							</Node>
						</Node>
						<Node id="9">
							<SimplePredicate field="num_cars" operator="greaterThan" value="1.5"/>
							<Node id="10">
								<SimplePredicate field="mean_resp_time" operator="lessOrEqual" value="9.741667"/>
								<Node id="11" score="-5.310524266893153">
									<SimplePredicate field="mean_resp_time" operator="lessOrEqual" value="6.939338"/>
								</Node>
								<Node id="12" score="-4.209409760375237">
									<SimplePredicate field="mean_resp_time" operator="greaterThan" value="6.939338"/>
								</Node>
							</Node>
							<Node id="13">
								<SimplePredicate field="mean_resp_time" operator="greaterThan" value="9.741667"/>
								<Node id="14" score="-3.5662935831283202">
									<SimplePredicate field="cross_npc" operator="lessOrEqual" value="0.5"/>
								</Node>
								<Node id="15" score="-0.3127794743208378">
									<SimplePredicate field="cross_npc" operator="greaterThan" value="0.5"/>
								</Node>
							</Node>
						</Node>
					</Node>
				</TreeModel>
			</Segment>
			<Segment id="5">
				<True/>
				<TreeModel functionName="regression" splitCharacteristic="binarySplit">
					<MiningSchema>
						<MiningField name="mean_resp_time"/>
						<MiningField name="is_urgent"/>
						<MiningField name="num_cars"/>
					</MiningSchema>
					<Node id="1">
						<True/>
						<Node id="2">
							<SimplePredicate field="num_cars" operator="lessOrEqual" value="1.5"/>
							<Node id="3">
								<SimplePredicate field="mean_resp_time" operator="lessOrEqual" value="12.670834"/>
								<Node id="4" score="-1.7607541501873163">
									<SimplePredicate field="mean_resp_time" operator="lessOrEqual" value="8.976191"/>
								</Node>
								<Node id="5" score="-0.06506706200483055">
									<SimplePredicate field="mean_resp_time" operator="greaterThan" value="8.976191"/>
								</Node>
							</Node>
							<Node id="6">
								<SimplePredicate field="mean_resp_time" operator="greaterThan" value="12.670834"/>
								<Node id="7" score="1.8262107553849682">
									<SimplePredicate field="mean_resp_time" operator="lessOrEqual" value="18.941483"/>
								</Node>
								<Node id="8" score="4.115091369945989">
									<SimplePredicate field="mean_resp_time" operator="greaterThan" value="18.941483"/>
								</Node>
							</Node>
						</Node>
						<Node id="9">
							<SimplePredicate field="num_cars" operator="greaterThan" value="1.5"/>
							<Node id="10">
								<SimplePredicate field="mean_resp_time" operator="lessOrEqual" value="9.741667"/>
								<Node id="11" score="-5.028361922337628">
									<SimplePredicate field="mean_resp_time" operator="lessOrEqual" value="5.651515"/>
								</Node>
								<Node id="12" score="-3.8953858085520974">
									<SimplePredicate field="mean_resp_time" operator="greaterThan" value="5.651515"/>
								</Node>
							</Node>
							<Node id="13">
								<SimplePredicate field="mean_resp_time" operator="greaterThan" value="9.741667"/>
								<Node id="14" score="-3.345165845015106">
									<SimplePredicate field="is_urgent" operator="lessOrEqual" value="0.5"/>
								</Node>
								<Node id="15" score="-1.100049870629068">
									<SimplePredicate field="is_urgent" operator="greaterThan" value="0.5"/>
								</Node>
							</Node>
						</Node>
					</Node>
				</TreeModel>
			</Segment>
			<Segment id="6">
				<True/>
				<TreeModel functionName="regression" splitCharacteristic="binarySplit">
					<MiningSchema>
						<MiningField name="traffic_travel_time"/>
						<MiningField name="mean_resp_time"/>
						<MiningField name="num_cars"/>
					</MiningSchema>
					<Node id="1">
						<True/>
						<Node id="2">
							<SimplePredicate field="num_cars" operator="lessOrEqual" value="1.5"/>
							<Node id="3">
								<SimplePredicate field="mean_resp_time" operator="lessOrEqual" value="11.758333"/>
								<Node id="4" score="-2.022832968136322">
									<SimplePredicate field="mean_resp_time" operator="lessOrEqual" value="7.970588"/>
								</Node>
								<Node id="5" score="-0.43464850596537435">
									<SimplePredicate field="mean_resp_time" operator="greaterThan" value="7.970588"/>
								</Node>
							</Node>
							<Node id="6">
								<SimplePredicate field="mean_resp_time" operator="greaterThan" value="11.758333"/>
								<Node id="7" score="1.0935781453803954">
									<SimplePredicate field="mean_resp_time" operator="lessOrEqual" value="15.755"/>
								</Node>
								<Node id="8" score="2.783777542810579">
									<SimplePredicate field="mean_resp_time" operator="greaterThan" value="15.755"/>
								</Node>
							</Node>
						</Node>
						<Node id="9">
							<SimplePredicate field="num_cars" operator="greaterThan" value="1.5"/>
							<Node id="10">
								<SimplePredicate field="mean_resp_time" operator="lessOrEqual" value="7.708995"/>
								<Node id="11" score="-5.196124588384583">
									<SimplePredicate field="mean_resp_time" operator="lessOrEqual" value="2.65"/>
								</Node>
								<Node id="12" score="-3.9171411510587513">
									<SimplePredicate field="mean_resp_time" operator="greaterThan" value="2.65"/>
								</Node>
							</Node>
							<Node id="13">
								<SimplePredicate field="mean_resp_time" operator="greaterThan" value="7.708995"/>
								<Node id="14" score="-2.885952140820886">
									<SimplePredicate field="traffic_travel_time" operator="lessOrEqual" value="18.5"/>
								</Node>
								<Node id="15" score="3.243594833499848">
									<SimplePredicate field="traffic_travel_time" operator="greaterThan" value="18.5"/>
								</Node>
							</Node>
						</Node>
					</Node>
				</TreeModel>
			</Segment>
			<Segment id="7">
				<True/>
				<TreeModel functionName="regression" splitCharacteristic="binarySplit">
					<MiningSchema>
						<MiningField name="traffic_travel_time"/>
						<MiningField name="mean_resp_time"/>
						<MiningField name="num_cars"/>
					</MiningSchema>
					<Node id="1">
						<True/>
						<Node id="2">
							<SimplePredicate field="num_cars" operator="lessOrEqual" value="1.5"/>
							<Node id="3">
								<SimplePredicate field="mean_resp_time" operator="lessOrEqual" value="13.4875"/>
								<Node id="4" score="-1.183094448663841">
									<SimplePredicate field="mean_resp_time" operator="lessOrEqual" value="9.9925375"/>
								</Node>
								<Node id="5" score="0.29341207547521625">
									<SimplePredicate field="mean_resp_time" operator="greaterThan" value="9.9925375"/>
								</Node>
							</Node>
							<Node id="6">
								<SimplePredicate field="mean_resp_time" operator="greaterThan" value="13.4875"/>
								<Node id="7" score="1.7533011558997922">
									<SimplePredicate field="mean_resp_time" operator="lessOrEqual" value="20.772257"/>
								</Node>
								<Node id="8" score="4.175027018374172">
									<SimplePredicate field="mean_resp_time" operator="greaterThan" value="20.772257"/>
								</Node>
							</Node>
						</Node>
						<Node id="9">
							<SimplePredicate field="num_cars" operator="greaterThan" value="1.5"/>
							<Node id="10">
								<SimplePredicate field="mean_resp_time" operator="lessOrEqual" value="18.732143"/>
								<Node id="11" score="-3.7443298239690663">
									<SimplePredicate field="mean_resp_time" operator="lessOrEqual" value="7.470769"/>
								</Node>
								<Node id="12" score="-2.6931606019508796">
									<SimplePredicate field="mean_resp_time" operator="greaterThan" value="7.470769"/>
								</Node>
							</Node>
							<Node id="13">
								<SimplePredicate field="mean_resp_time" operator="greaterThan" value="18.732143"/>
								<Node id="14" score="-0.90210099492341">
									<SimplePredicate field="traffic_travel_time" operator="lessOrEqual" value="17.5"/>
								</Node>
								<Node id="15" score="8.798202171640114">
									<SimplePredicate field="traffic_travel_time" operator="greaterThan" value="17.5"/>
								</Node>
							</Node>
						</Node>
					</Node>
				</TreeModel>
			</Segment>
			<Segment id="8">
				<True/>
				<TreeModel functionName="regression" splitCharacteristic="binarySplit">
					<MiningSchema>
						<MiningField name="traffic_travel_time"/>
						<MiningField name="mean_resp_time"/>
						<MiningField name="num_cars"/>
						<MiningField name="hours"/>
					</MiningSchema>
					<Node id="1">
						<True/>
						<Node id="2">
							<SimplePredicate field="num_cars" operator="lessOrEqual" value="1.5"/>
							<Node id="3">
								<SimplePredicate field="mean_resp_time" operator="lessOrEqual" value="14.164728"/>
								<Node id="4" score="-1.0647850037974391">
									<SimplePredicate field="mean_resp_time" operator="lessOrEqual" value="9.9925375"/>
								</Node>
								<Node id="5" score="0.3430146806433566">
									<SimplePredicate field="mean_resp_time" operator="greaterThan" value="9.9925375"/>
								</Node>
							</Node>
							<Node id="6">
								<SimplePredicate field="mean_resp_time" operator="greaterThan" value="14.164728"/>
								<Node id="7" score="0.9757284662575589">
									<SimplePredicate field="hours" operator="lessOrEqual" value="2.5"/>
								</Node>
								<Node id="8" score="2.422183617735844">
									<SimplePredicate field="hours" operator="greaterThan" value="2.5"/>
								</Node>
							</Node>
						</Node>
						<Node id="9">
							<SimplePredicate field="num_cars" operator="greaterThan" value="1.5"/>
							<Node id="10">
								<SimplePredicate field="mean_resp_time" operator="lessOrEqual" value="18.732143"/>
								<Node id="11" score="-3.5267863519462415">
									<SimplePredicate field="mean_resp_time" operator="lessOrEqual" value="6.939338"/>
								</Node>
								<Node id="12" score="-2.4598626995161488">
									<SimplePredicate field="mean_resp_time" operator="greaterThan" value="6.939338"/>
								</Node>
							</Node>
							<Node id="13">
								<SimplePredicate field="mean_resp_time" operator="greaterThan" value="18.732143"/>
								<Node id="14" score="-0.8118908954310731">
									<SimplePredicate field="traffic_travel_time" operator="lessOrEqual" value="17.5"/>
								</Node>
								<Node id="15" score="7.918381954476104">
									<SimplePredicate field="traffic_travel_time" operator="greaterThan" value="17.5"/>
								</Node>
							</Node>
						</Node>
					</Node>
				</TreeModel>
			</Segment>
			<Segment id="9">
				<True/>
				<TreeModel functionName="regression" splitCharacteristic="binarySplit">
					<MiningSchema>
						<MiningField name="mean_resp_time"/>
						<MiningField name="is_urgent"/>
						<MiningField name="num_cars"/>
					</MiningSchema>
					<Node id="1">
						<True/>
						<Node id="2">
							<SimplePredicate field="mean_resp_time" operator="lessOrEqual" value="10.978261"/>
							<Node id="3">
								<SimplePredicate field="num_cars" operator="lessOrEqual" value="1.5"/>
								<Node id="4" score="-2.037989163039979">
									<SimplePredicate field="mean_resp_time" operator="lessOrEqual" value="7.1834736"/>
								</Node>
								<Node id="5" score="-0.5760230483854271">
									<SimplePredicate field="mean_resp_time" operator="greaterThan" value="7.1834736"/>
								</Node>
							</Node>
							<Node id="6">
								<SimplePredicate field="num_cars" operator="greaterThan" value="1.5"/>
								<Node id="7" score="-3.366228324888879">
									<SimplePredicate field="mean_resp_time" operator="lessOrEqual" value="5.651515"/>
								</Node>
								<Node id="8" score="-2.4649410443250073">
									<SimplePredicate field="mean_resp_time" operator="greaterThan" value="5.651515"/>
								</Node>
							</Node>
						</Node>
						<Node id="9">
							<SimplePredicate field="mean_resp_time" operator="greaterThan" value="10.978261"/>
							<Node id="10">
								<SimplePredicate field="num_cars" operator="lessOrEqual" value="1.5"/>
								<Node id="11" score="0.7945937696473752">
									<SimplePredicate field="mean_resp_time" operator="lessOrEqual" value="16.679487"/>
								</Node>
								<Node id="12" score="2.294466184614086">
									<SimplePredicate field="mean_resp_time" operator="greaterThan" value="16.679487"/>
								</Node>
							</Node>
							<Node id="13">
								<SimplePredicate field="num_cars" operator="greaterThan" value="1.5"/>
								<Node id="14" score="-2.2657091618026426">
									<SimplePredicate field="is_urgent" operator="lessOrEqual" value="0.5"/>
								</Node>
								<Node id="15" score="1.184941810554978">
									<SimplePredicate field="is_urgent" operator="greaterThan" value="0.5"/>
								</Node>
							</Node>
						</Node>
					</Node>
				</TreeModel>
			</Segment>
			<Segment id="10">
				<True/>
				<TreeModel functionName="regression" splitCharacteristic="binarySplit">
					<MiningSchema>
						<MiningField name="mean_resp_time"/>
						<MiningField name="num_cars"/>
						<MiningField name="cross_npc"/>
					</MiningSchema>
					<Node id="1">
						<True/>
						<Node id="2">
							<SimplePredicate field="mean_resp_time" operator="lessOrEqual" value="10.978261"/>
							<Node id="3">
								<SimplePredicate field="num_cars" operator="lessOrEqual" value="1.5"/>
								<Node id="4" score="-1.489569282415767">
									<SimplePredicate field="mean_resp_time" operator="lessOrEqual" value="7.848572"/>
								</Node>
								<Node id="5" score="-0.4142126434430365">
									<SimplePredicate field="mean_resp_time" operator="greaterThan" value="7.848572"/>
								</Node>
							</Node>
							<Node id="6">
								<SimplePredicate field="num_cars" operator="greaterThan" value="1.5"/>
								<Node id="7" score="-2.870759153050933">
									<SimplePredicate field="mean_resp_time" operator="lessOrEqual" value="6.939338"/>
								</Node>
								<Node id="8" score="-2.1533698159922983">
									<SimplePredicate field="mean_resp_time" operator="greaterThan" value="6.939338"/>
								</Node>
							</Node>
						</Node>
						<Node id="9">
							<SimplePredicate field="mean_resp_time" operator="greaterThan" value="10.978261"/>
							<Node id="10">
								<SimplePredicate field="num_cars" operator="lessOrEqual" value="1.5"/>
								<Node id="11" score="0.45435897451590207">
									<SimplePredicate field="mean_resp_time" operator="lessOrEqual" value="14.5793705"/>
								</Node>
								<Node id="12" score="1.7017221766852915">
									<SimplePredicate field="mean_resp_time" operator="greaterThan" value="14.5793705"/>
								</Node>
							</Node>
							<Node id="13">
								<SimplePredicate field="num_cars" operator="greaterThan" value="1.5"/>
								<Node id="14" score="-1.9976501547822803">
									<SimplePredicate field="cross_npc" operator="lessOrEqual" value="0.5"/>
								</Node>
								<Node id="15" score="1.4894206997726378">
									<SimplePredicate field="cross_npc" operator="greaterThan" value="0.5"/>
								</Node>
							</Node>
						</Node>
					</Node>
				</TreeModel>
			</Segment>
			<Segment id="11">
				<True/>
				<TreeModel functionName="regression" splitCharacteristic="binarySplit">
					<MiningSchema>
						<MiningField name="mean_resp_time"/>
						<MiningField name="is_urgent"/>
						<MiningField name="num_cars"/>
					</MiningSchema>
					<Node id="1">
						<True/>
						<Node id="2">
							<SimplePredicate field="mean_resp_time" operator="lessOrEqual" value="11.707143"/>
							<Node id="3">
								<SimplePredicate field="num_cars" operator="lessOrEqual" value="1.5"/>
								<Node id="4" score="-1.3178665553776219">
									<SimplePredicate field="mean_resp_time" operator="lessOrEqual" value="7.970588"/>
								</Node>
								<Node id="5" score="-0.24902896376489472">
									<SimplePredicate field="mean_resp_time" operator="greaterThan" value="7.970588"/>
								</Node>
							</Node>
							<Node id="6">
								<SimplePredicate field="num_cars" operator="greaterThan" value="1.5"/>
								<Node id="7" score="-3.1168615240166266">
									<SimplePredicate field="mean_resp_time" operator="lessOrEqual" value="3.1666665"/>
								</Node>
								<Node id="8" score="-2.030662369106429">
									<SimplePredicate field="mean_resp_time" operator="greaterThan" value="3.1666665"/>
								</Node>
							</Node>
						</Node>
						<Node id="9">
							<SimplePredicate field="mean_resp_time" operator="greaterThan" value="11.707143"/>
							<Node id="10">
								<SimplePredicate field="num_cars" operator="lessOrEqual" value="1.5"/>
								<Node id="11" score="0.8342876089391298">
									<SimplePredicate field="mean_resp_time" operator="lessOrEqual" value="18.941483"/>
								</Node>
								<Node id="12" score="2.5415703791251625">
									<SimplePredicate field="mean_resp_time" operator="greaterThan" value="18.941483"/>
								</Node>
							</Node>
							<Node id="13">
								<SimplePredicate field="num_cars" operator="greaterThan" value="1.5"/>
								<Node id="14" score="-1.768594808262829">
									<SimplePredicate field="is_urgent" operator="lessOrEqual" value="0.5"/>
								</Node>
								<Node id="15" score="1.9439455396664689">
									<SimplePredicate field="is_urgent" operator="greaterThan" value="0.5"/>
								</Node>
							</Node>
						</Node>
					</Node>
				</TreeModel>
			</Segment>
			<Segment id="12">
				<True/>
				<TreeModel functionName="regression" splitCharacteristic="binarySplit">
					<MiningSchema>
						<MiningField name="mean_resp_time"/>
						<MiningField name="num_cars"/>
						<MiningField name="cross_npc"/>
						<MiningField name="hours"/>
					</MiningSchema>
					<Node id="1">
						<True/>
						<Node id="2">
							<SimplePredicate field="mean_resp_time" operator="lessOrEqual" value="14.164728"/>
							<Node id="3">
								<SimplePredicate field="num_cars" operator="lessOrEqual" value="1.5"/>
								<Node id="4" score="-0.9973399090418155">
									<SimplePredicate field="mean_resp_time" operator="lessOrEqual" value="8.677084"/>
								</Node>
								<Node id="5" score="0.0638679063069344">
									<SimplePredicate field="mean_resp_time" operator="greaterThan" value="8.677084"/>
								</Node>
							</Node>
							<Node id="6">
								<SimplePredicate field="num_cars" operator="greaterThan" value="1.5"/>
								<Node id="7" score="-2.5241161514447463">
									<SimplePredicate field="hours" operator="lessOrEqual" value="4.5"/>
								</Node>
								<Node id="8" score="-1.705288996737905">
									<SimplePredicate field="hours" operator="greaterThan" value="4.5"/>
								</Node>
							</Node>
						</Node>
						<Node id="9">
							<SimplePredicate field="mean_resp_time" operator="greaterThan" value="14.164728"/>
							<Node id="10">
								<SimplePredicate field="num_cars" operator="lessOrEqual" value="1.5"/>
								<Node id="11" score="0.42796377661670654">
									<SimplePredicate field="hours" operator="lessOrEqual" value="2.5"/>
								</Node>
								<Node id="12" score="1.7513453914731323">
									<SimplePredicate field="hours" operator="greaterThan" value="2.5"/>
								</Node>
							</Node>
							<Node id="13">
								<SimplePredicate field="num_cars" operator="greaterThan" value="1.5"/>
								<Node id="14" score="-1.4671212984921471">
									<SimplePredicate field="cross_npc" operator="lessOrEqual" value="0.5"/>
								</Node>
								<Node id="15" score="2.1190778260442014">
									<SimplePredicate field="cross_npc" operator="greaterThan" value="0.5"/>
								</Node>
							</Node>
						</Node>
					</Node>
				</TreeModel>
			</Segment>
			<Segment id="13">
				<True/>
				<TreeModel functionName="regression" splitCharacteristic="binarySplit">
					<MiningSchema>
						<MiningField name="mean_resp_time"/>
						<MiningField name="is_urgent"/>
						<MiningField name="num_cars"/>
						<MiningField name="cross_npc"/>
						<MiningField name="hours"/>
					</MiningSchema>
					<Node id="1">
						<True/>
						<Node id="2">
							<SimplePredicate field="mean_resp_time" operator="lessOrEqual" value="13.4875"/>
							<Node id="3">
								<SimplePredicate field="num_cars" operator="lessOrEqual" value="1.5"/>
								<Node id="4" score="-1.086345908935641">
									<SimplePredicate field="mean_resp_time" operator="lessOrEqual" value="7.970588"/>
								</Node>
								<Node id="5" score="-0.06338719303286316">
									<SimplePredicate field="mean_resp_time" operator="greaterThan" value="7.970588"/>
								</Node>
							</Node>
							<Node id="6">
								<SimplePredicate field="num_cars" operator="greaterThan" value="1.5"/>
								<Node id="7" score="-2.0169821229466716">
									<SimplePredicate field="is_urgent" operator="lessOrEqual" value="0.5"/>
								</Node>
								<Node id="8" score="-1.4566304187102799">
									<SimplePredicate field="is_urgent" operator="greaterThan" value="0.5"/>
								</Node>
							</Node>
						</Node>
						<Node id="9">
							<SimplePredicate field="mean_resp_time" operator="greaterThan" value="13.4875"/>
							<Node id="10">
								<SimplePredicate field="num_cars" operator="lessOrEqual" value="1.5"/>
								<Node id="11" score="1.2923666310563664">
									<SimplePredicate field="hours" operator="lessOrEqual" value="22.5"/>
								</Node>
								<Node id="12" score="-0.7293520333366789">
									<SimplePredicate field="hours" operator="greaterThan" value="22.5"/>
								</Node>
							</Node>
							<Node id="13">
								<SimplePredicate field="num_cars" operator="greaterThan" value="1.5"/>
								<Node id="14" score="-1.3626450575230826">
									<SimplePredicate field="cross_npc" operator="lessOrEqual" value="0.5"/>
								</Node>
								<Node id="15" score="2.0845366676106503">
									<SimplePredicate field="cross_npc" operator="greaterThan" value="0.5"/>
								</Node>
							</Node>
						</Node>
					</Node>
				</TreeModel>
			</Segment>
			<Segment id="14">
				<True/>
				<TreeModel functionName="regression" splitCharacteristic="binarySplit">
					<MiningSchema>
						<MiningField name="mean_resp_time"/>
						<MiningField name="is_urgent"/>
						<MiningField name="num_cars"/>
						<MiningField name="cross_npc"/>
					</MiningSchema>
					<Node id="1">
						<True/>
						<Node id="2">
							<SimplePredicate field="mean_resp_time" operator="lessOrEqual" value="10.978261"/>
							<Node id="3">
								<SimplePredicate field="num_cars" operator="lessOrEqual" value="1.5"/>
								<Node id="4" score="-2.0237243304499053">
									<SimplePredicate field="mean_resp_time" operator="lessOrEqual" value="6.3798075"/>
								</Node>
								<Node id="5" score="-0.41594521025383296">
									<SimplePredicate field="mean_resp_time" operator="greaterThan" value="6.3798075"/>
								</Node>
							</Node>
							<Node id="6">
								<SimplePredicate field="num_cars" operator="greaterThan" value="1.5"/>
								<Node id="7" score="-1.4280449830711277">
									<SimplePredicate field="cross_npc" operator="lessOrEqual" value="0.5"/>
								</Node>
								<Node id="8" score="-2.1323226167045286">
									<SimplePredicate field="cross_npc" operator="greaterThan" value="0.5"/>
								</Node>
							</Node>
						</Node>
						<Node id="9">
							<SimplePredicate field="mean_resp_time" operator="greaterThan" value="10.978261"/>
							<Node id="10">
								<SimplePredicate field="num_cars" operator="lessOrEqual" value="1.5"/>
								<Node id="11" score="0.5571362020158834">
									<SimplePredicate field="mean_resp_time" operator="lessOrEqual" value="18.941483"/>
								</Node>
								<Node id="12" score="2.0378876320036268">
									<SimplePredicate field="mean_resp_time" operator="greaterThan" value="18.941483"/>
								</Node>
							</Node>
							<Node id="13">
								<SimplePredicate field="num_cars" operator="greaterThan" value="1.5"/>
								<Node id="14" score="-1.3955360908615289">
									<SimplePredicate field="is_urgent" operator="lessOrEqual" value="0.5"/>
								</Node>
								<Node id="15" score="1.3276552771889496">
									<SimplePredicate field="is_urgent" operator="greaterThan" value="0.5"/>
								</Node>
							</Node>
						</Node>
					</Node>
				</TreeModel>
			</Segment>
			<Segment id="15">
				<True/>
				<TreeModel functionName="regression" splitCharacteristic="binarySplit">
					<MiningSchema>
						<MiningField name="traffic_travel_time"/>
						<MiningField name="mean_resp_time"/>
						<MiningField name="num_cars"/>
						<MiningField name="hours"/>
					</MiningSchema>
					<Node id="1">
						<True/>
						<Node id="2">
							<SimplePredicate field="mean_resp_time" operator="lessOrEqual" value="14.5793705"/>
							<Node id="3">
								<SimplePredicate field="num_cars" operator="lessOrEqual" value="1.5"/>
								<Node id="4" score="-0.6033857562642265">
									<SimplePredicate field="traffic_travel_time" operator="lessOrEqual" value="6.5"/>
								</Node>
								<Node id="5" score="0.2521009745706255">
									<SimplePredicate field="traffic_travel_time" operator="greaterThan" value="6.5"/>
								</Node>
							</Node>
							<Node id="6">
								<SimplePredicate field="num_cars" operator="greaterThan" value="1.5"/>
								<Node id="7" score="-1.9626914219592497">
									<SimplePredicate field="hours" operator="lessOrEqual" value="4.5"/>
								</Node>
								<Node id="8" score="-1.2267965266024348">
									<SimplePredicate field="hours" operator="greaterThan" value="4.5"/>
								</Node>
							</Node>
						</Node>
						<Node id="9">
							<SimplePredicate field="mean_resp_time" operator="greaterThan" value="14.5793705"/>
							<Node id="10">
								<SimplePredicate field="hours" operator="lessOrEqual" value="1.5"/>
								<Node id="11" score="0.07765769087674691">
									<SimplePredicate field="num_cars" operator="lessOrEqual" value="1.5"/>
								</Node>
								<Node id="12" score="-2.3619968840001433">
									<SimplePredicate field="num_cars" operator="greaterThan" value="1.5"/>
								</Node>
							</Node>
							<Node id="13">
								<SimplePredicate field="hours" operator="greaterThan" value="1.5"/>
								<Node id="14" score="0.9031483220867568">
									<SimplePredicate field="mean_resp_time" operator="lessOrEqual" value="19.982143"/>
								</Node>
								<Node id="15" score="2.917222968873648">
									<SimplePredicate field="mean_resp_time" operator="greaterThan" value="19.982143"/>
								</Node>
							</Node>
						</Node>
					</Node>
				</TreeModel>
			</Segment>
			<Segment id="16">
				<True/>
				<TreeModel functionName="regression" splitCharacteristic="binarySplit">
					<MiningSchema>
						<MiningField name="mean_resp_time"/>
						<MiningField name="is_urgent"/>
						<MiningField name="num_cars"/>
						<MiningField name="hours"/>
					</MiningSchema>
					<Node id="1">
						<True/>
						<Node id="2">
							<SimplePredicate field="mean_resp_time" operator="lessOrEqual" value="10.978261"/>
							<Node id="3">
								<SimplePredicate field="mean_resp_time" operator="lessOrEqual" value="6.912879"/>
								<Node id="4" score="-2.1900688539271616">
									<SimplePredicate field="mean_resp_time" operator="lessOrEqual" value="4.9444447"/>
								</Node>
								<Node id="5" score="-1.3232072654545177">
									<SimplePredicate field="mean_resp_time" operator="greaterThan" value="4.9444447"/>
								</Node>
							</Node>
							<Node id="6">
								<SimplePredicate field="mean_resp_time" operator="greaterThan" value="6.912879"/>
								<Node id="7" score="-0.325519234338972">
									<SimplePredicate field="num_cars" operator="lessOrEqual" value="1.5"/>
								</Node>
								<Node id="8" score="-1.1115772557295192">
									<SimplePredicate field="num_cars" operator="greaterThan" value="1.5"/>
								</Node>
							</Node>
						</Node>
						<Node id="9">
							<SimplePredicate field="mean_resp_time" operator="greaterThan" value="10.978261"/>
							<Node id="10">
								<SimplePredicate field="num_cars" operator="lessOrEqual" value="1.5"/>
								<Node id="11" score="0.7758385783763532">
									<SimplePredicate field="hours" operator="lessOrEqual" value="22.5"/>
								</Node>
								<Node id="12" score="-0.8841225106277846">
									<SimplePredicate field="hours" operator="greaterThan" value="22.5"/>
								</Node>
							</Node>
							<Node id="13">
								<SimplePredicate field="num_cars" operator="greaterThan" value="1.5"/>
								<Node id="14" score="-1.2193546206908854">
									<SimplePredicate field="is_urgent" operator="lessOrEqual" value="0.5"/>
								</Node>
								<Node id="15" score="1.290612823109739">
									<SimplePredicate field="is_urgent" operator="greaterThan" value="0.5"/>
								</Node>
							</Node>
						</Node>
					</Node>
				</TreeModel>
			</Segment>
			<Segment id="17">
				<True/>
				<TreeModel functionName="regression" splitCharacteristic="binarySplit">
					<MiningSchema>
						<MiningField name="traffic_travel_time"/>
						<MiningField name="mean_resp_time"/>
						<MiningField name="num_cars"/>
						<MiningField name="hours"/>
					</MiningSchema>
					<Node id="1">
						<True/>
						<Node id="2">
							<SimplePredicate field="mean_resp_time" operator="lessOrEqual" value="14.780449"/>
							<Node id="3">
								<SimplePredicate field="num_cars" operator="lessOrEqual" value="1.5"/>
								<Node id="4" score="-0.369284424248137">
									<SimplePredicate field="traffic_travel_time" operator="lessOrEqual" value="8.5"/>
								</Node>
								<Node id="5" score="0.4307285323364535">
									<SimplePredicate field="traffic_travel_time" operator="greaterThan" value="8.5"/>
								</Node>
							</Node>
							<Node id="6">
								<SimplePredicate field="num_cars" operator="greaterThan" value="1.5"/>
								<Node id="7" score="-1.6357074419404556">
									<SimplePredicate field="hours" operator="lessOrEqual" value="5.5"/>
								</Node>
								<Node id="8" score="-0.9942488148032624">
									<SimplePredicate field="hours" operator="greaterThan" value="5.5"/>
								</Node>
							</Node>
						</Node>
						<Node id="9">
							<SimplePredicate field="mean_resp_time" operator="greaterThan" value="14.780449"/>
							<Node id="10">
								<SimplePredicate field="hours" operator="lessOrEqual" value="1.5"/>
								<Node id="11" score="-0.00939500708754508">
									<SimplePredicate field="num_cars" operator="lessOrEqual" value="1.5"/>
								</Node>
								<Node id="12" score="-1.9982919535637362">
									<SimplePredicate field="num_cars" operator="greaterThan" value="1.5"/>
								</Node>
							</Node>
							<Node id="13">
								<SimplePredicate field="hours" operator="greaterThan" value="1.5"/>
								<Node id="14" score="0.8765709917166553">
									<SimplePredicate field="mean_resp_time" operator="lessOrEqual" value="20.541668"/>
								</Node>
								<Node id="15" score="2.8309261567215986">
									<SimplePredicate field="mean_resp_time" operator="greaterThan" value="20.541668"/>
								</Node>
							</Node>
						</Node>
					</Node>
				</TreeModel>
			</Segment>
			<Segment id="18">
				<True/>
				<TreeModel functionName="regression" splitCharacteristic="binarySplit">
					<MiningSchema>
						<MiningField name="traffic_travel_time"/>
						<MiningField name="mean_resp_time"/>
						<MiningField name="is_urgent"/>
						<MiningField name="num_cars"/>
					</MiningSchema>
					<Node id="1">
						<True/>
						<Node id="2">
							<SimplePredicate field="mean_resp_time" operator="lessOrEqual" value="10.978261"/>
							<Node id="3">
								<SimplePredicate field="mean_resp_time" operator="lessOrEqual" value="6.912879"/>
								<Node id="4" score="-1.7605395909145503">
									<SimplePredicate field="mean_resp_time" operator="lessOrEqual" value="5.480769"/>
								</Node>
								<Node id="5" score="-1.0833727553693233">
									<SimplePredicate field="mean_resp_time" operator="greaterThan" value="5.480769"/>
								</Node>
							</Node>
							<Node id="6">
								<SimplePredicate field="mean_resp_time" operator="greaterThan" value="6.912879"/>
								<Node id="7" score="-0.2789978438028805">
									<SimplePredicate field="num_cars" operator="lessOrEqual" value="1.5"/>
								</Node>
								<Node id="8" score="-0.8900129227368522">
									<SimplePredicate field="num_cars" operator="greaterThan" value="1.5"/>
								</Node>
							</Node>
						</Node>
						<Node id="9">
							<SimplePredicate field="mean_resp_time" operator="greaterThan" value="10.978261"/>
							<Node id="10">
								<SimplePredicate field="num_cars" operator="lessOrEqual" value="1.5"/>
								<Node id="11" score="0.19719004228175072">
									<SimplePredicate field="traffic_travel_time" operator="lessOrEqual" value="8.5"/>
								</Node>
								<Node id="12" score="1.0829390343770127">
									<SimplePredicate field="traffic_travel_time" operator="greaterThan" value="8.5"/>
								</Node>
							</Node>
							<Node id="13">
								<SimplePredicate field="num_cars" operator="greaterThan" value="1.5"/>
								<Node id="14" score="-1.0647794441412806">
									<SimplePredicate field="is_urgent" operator="lessOrEqual" value="0.5"/>
								</Node>
								<Node id="15" score="1.240490184428975">
									<SimplePredicate field="is_urgent" operator="greaterThan" value="0.5"/>
								</Node>
							</Node>
						</Node>
					</Node>
				</TreeModel>
			</Segment>
			<Segment id="19">
				<True/>
				<TreeModel functionName="regression" splitCharacteristic="binarySplit">
					<MiningSchema>
						<MiningField name="traffic_travel_time"/>
						<MiningField name="mean_resp_time"/>
						<MiningField name="num_cars"/>
						<MiningField name="hours"/>
					</MiningSchema>
					<Node id="1">
						<True/>
						<Node id="2">
							<SimplePredicate field="mean_resp_time" operator="lessOrEqual" value="14.780449"/>
							<Node id="3">
								<SimplePredicate field="mean_resp_time" operator="lessOrEqual" value="8.19375"/>
								<Node id="4" score="-1.3708915039738563">
									<SimplePredicate field="mean_resp_time" operator="lessOrEqual" value="6.354167"/>
								</Node>
								<Node id="5" score="-0.6278394746836103">
									<SimplePredicate field="mean_resp_time" operator="greaterThan" value="6.354167"/>
								</Node>
							</Node>
							<Node id="6">
								<SimplePredicate field="mean_resp_time" operator="greaterThan" value="8.19375"/>
								<Node id="7" score="-0.2937095973691042">
									<SimplePredicate field="traffic_travel_time" operator="lessOrEqual" value="8.5"/>
								</Node>
								<Node id="8" score="0.3224090930404028">
									<SimplePredicate field="traffic_travel_time" operator="greaterThan" value="8.5"/>
								</Node>
							</Node>
						</Node>
						<Node id="9">
							<SimplePredicate field="mean_resp_time" operator="greaterThan" value="14.780449"/>
							<Node id="10">
								<SimplePredicate field="hours" operator="lessOrEqual" value="1.5"/>
								<Node id="11" score="-0.057771139549953214">
									<SimplePredicate field="num_cars" operator="lessOrEqual" value="1.5"/>
								</Node>
								<Node id="12" score="-1.693317339590093">
									<SimplePredicate field="num_cars" operator="greaterThan" value="1.5"/>
								</Node>
							</Node>
							<Node id="13">
								<SimplePredicate field="hours" operator="greaterThan" value="1.5"/>
								<Node id="14" score="0.7975014781604816">
									<SimplePredicate field="mean_resp_time" operator="lessOrEqual" value="21.809525"/>
								</Node>
								<Node id="15" score="3.014184296101596">
									<SimplePredicate field="mean_resp_time" operator="greaterThan" value="21.809525"/>
								</Node>
							</Node>
						</Node>
					</Node>
				</TreeModel>
			</Segment>
			<Segment id="20">
				<True/>
				<TreeModel functionName="regression" splitCharacteristic="binarySplit">
					<MiningSchema>
						<MiningField name="traffic_travel_time"/>
						<MiningField name="mean_resp_time"/>
						<MiningField name="is_urgent"/>
						<MiningField name="num_cars"/>
						<MiningField name="hours"/>
					</MiningSchema>
					<Node id="1">
						<True/>
						<Node id="2">
							<SimplePredicate field="mean_resp_time" operator="lessOrEqual" value="15.741072"/>
							<Node id="3">
								<SimplePredicate field="num_cars" operator="lessOrEqual" value="1.5"/>
								<Node id="4" score="-0.40549353562152385">
									<SimplePredicate field="traffic_travel_time" operator="lessOrEqual" value="6.5"/>
								</Node>
								<Node id="5" score="0.24767259059481928">
									<SimplePredicate field="traffic_travel_time" operator="greaterThan" value="6.5"/>
								</Node>
							</Node>
							<Node id="6">
								<SimplePredicate field="num_cars" operator="greaterThan" value="1.5"/>
								<Node id="7" score="-1.0930054781334235">
									<SimplePredicate field="is_urgent" operator="lessOrEqual" value="0.5"/>
								</Node>
								<Node id="8" score="-0.6371805460027539">
									<SimplePredicate field="is_urgent" operator="greaterThan" value="0.5"/>
								</Node>
							</Node>
						</Node>
						<Node id="9">
							<SimplePredicate field="mean_resp_time" operator="greaterThan" value="15.741072"/>
							<Node id="10">
								<SimplePredicate field="traffic_travel_time" operator="lessOrEqual" value="17.5"/>
								<Node id="11" score="-0.0544685925072296">
									<SimplePredicate field="hours" operator="lessOrEqual" value="2.5"/>
								</Node>
								<Node id="12" score="0.9848186984519914">
									<SimplePredicate field="hours" operator="greaterThan" value="2.5"/>
								</Node>
							</Node>
							<Node id="13">
								<SimplePredicate field="traffic_travel_time" operator="greaterThan" value="17.5"/>
								<Node id="14" score="3.3526486616583">
									<SimplePredicate field="mean_resp_time" operator="lessOrEqual" value="21.75"/>
								</Node>
								<Node id="15" score="8.179948804160896">
									<SimplePredicate field="mean_resp_time" operator="greaterThan" value="21.75"/>
								</Node>
							</Node>
						</Node>
					</Node>
				</TreeModel>
			</Segment>
			<Segment id="21">
				<True/>
				<TreeModel functionName="regression" splitCharacteristic="binarySplit">
					<MiningSchema>
						<MiningField name="traffic_travel_time"/>
						<MiningField name="mean_resp_time"/>
						<MiningField name="num_cars"/>
						<MiningField name="hours"/>
					</MiningSchema>
					<Node id="1">
						<True/>
						<Node id="2">
							<SimplePredicate field="mean_resp_time" operator="lessOrEqual" value="9.9925375"/>
							<Node id="3">
								<SimplePredicate field="mean_resp_time" operator="lessOrEqual" value="6.5166664"/>
								<Node id="4" score="-1.962415444955848">
									<SimplePredicate field="mean_resp_time" operator="lessOrEqual" value="2.2"/>
								</Node>
								<Node id="5" score="-1.0318540378400138">
									<SimplePredicate field="mean_resp_time" operator="greaterThan" value="2.2"/>
								</Node>
							</Node>
							<Node id="6">
								<SimplePredicate field="mean_resp_time" operator="greaterThan" value="6.5166664"/>
								<Node id="7" score="-0.2940001800564619">
									<SimplePredicate field="num_cars" operator="lessOrEqual" value="1.5"/>
								</Node>
								<Node id="8" score="-0.800329172348151">
									<SimplePredicate field="num_cars" operator="greaterThan" value="1.5"/>
								</Node>
							</Node>
						</Node>
						<Node id="9">
							<SimplePredicate field="mean_resp_time" operator="greaterThan" value="9.9925375"/>
							<Node id="10">
								<SimplePredicate field="hours" operator="lessOrEqual" value="22.5"/>
								<Node id="11" score="0.4979122717126726">
									<SimplePredicate field="num_cars" operator="lessOrEqual" value="1.5"/>
								</Node>
								<Node id="12" score="-0.5674959684276379">
									<SimplePredicate field="num_cars" operator="greaterThan" value="1.5"/>
								</Node>
							</Node>
							<Node id="13">
								<SimplePredicate field="hours" operator="greaterThan" value="22.5"/>
								<Node id="14" score="-1.8153721937484333">
									<SimplePredicate field="traffic_travel_time" operator="lessOrEqual" value="5.5"/>
								</Node>
								<Node id="15" score="-0.7399985642733025">
									<SimplePredicate field="traffic_travel_time" operator="greaterThan" value="5.5"/>
								</Node>
							</Node>
						</Node>
					</Node>
				</TreeModel>
			</Segment>
			<Segment id="22">
				<True/>
				<TreeModel functionName="regression" splitCharacteristic="binarySplit">
					<MiningSchema>
						<MiningField name="traffic_travel_time"/>
						<MiningField name="mean_resp_time"/>
						<MiningField name="hours"/>
					</MiningSchema>
					<Node id="1">
						<True/>
						<Node id="2">
							<SimplePredicate field="mean_resp_time" operator="lessOrEqual" value="15.936731"/>
							<Node id="3">
								<SimplePredicate field="mean_resp_time" operator="lessOrEqual" value="8.696154"/>
								<Node id="4" score="-1.105990131823137">
									<SimplePredicate field="mean_resp_time" operator="lessOrEqual" value="6.211111"/>
								</Node>
								<Node id="5" score="-0.473267289379148">
									<SimplePredicate field="mean_resp_time" operator="greaterThan" value="6.211111"/>
								</Node>
							</Node>
							<Node id="6">
								<SimplePredicate field="mean_resp_time" operator="greaterThan" value="8.696154"/>
								<Node id="7" score="-0.23061030618784328">
									<SimplePredicate field="traffic_travel_time" operator="lessOrEqual" value="8.5"/>
								</Node>
								<Node id="8" score="0.3876118056769455">
									<SimplePredicate field="traffic_travel_time" operator="greaterThan" value="8.5"/>
								</Node>
							</Node>
						</Node>
						<Node id="9">
							<SimplePredicate field="mean_resp_time" operator="greaterThan" value="15.936731"/>
							<Node id="10">
								<SimplePredicate field="traffic_travel_time" operator="lessOrEqual" value="17.5"/>
								<Node id="11" score="0.7319620938110915">
									<SimplePredicate field="hours" operator="lessOrEqual" value="22.5"/>
								</Node>
								<Node id="12" score="-0.8602202929635524">
									<SimplePredicate field="hours" operator="greaterThan" value="22.5"/>
								</Node>
							</Node>
							<Node id="13">
								<SimplePredicate field="traffic_travel_time" operator="greaterThan" value="17.5"/>
								<Node id="14" score="5.835281218842889">
									<SimplePredicate field="mean_resp_time" operator="lessOrEqual" value="31.25"/>
								</Node>
								<Node id="15" score="-3.06542289641045">
									<SimplePredicate field="mean_resp_time" operator="greaterThan" value="31.25"/>
								</Node>
							</Node>
						</Node>
					</Node>
				</TreeModel>
			</Segment>
			<Segment id="23">
				<True/>
				<TreeModel functionName="regression" splitCharacteristic="binarySplit">
					<MiningSchema>
						<MiningField name="traffic_travel_time"/>
						<MiningField name="mean_resp_time"/>
						<MiningField name="is_urgent"/>
						<MiningField name="num_cars"/>
						<MiningField name="hours"/>
					</MiningSchema>
					<Node id="1">
						<True/>
						<Node id="2">
							<SimplePredicate field="mean_resp_time" operator="lessOrEqual" value="17.74342"/>
							<Node id="3">
								<SimplePredicate field="num_cars" operator="lessOrEqual" value="1.5"/>
								<Node id="4" score="-0.3009475654660883">
									<SimplePredicate field="traffic_travel_time" operator="lessOrEqual" value="6.5"/>
								</Node>
								<Node id="5" score="0.2708676515422186">
									<SimplePredicate field="traffic_travel_time" operator="greaterThan" value="6.5"/>
								</Node>
							</Node>
							<Node id="6">
								<SimplePredicate field="num_cars" operator="greaterThan" value="1.5"/>
								<Node id="7" score="-0.9644050749232916">
									<SimplePredicate field="is_urgent" operator="lessOrEqual" value="0.5"/>
								</Node>
								<Node id="8" score="-0.43448274485289246">
									<SimplePredicate field="is_urgent" operator="greaterThan" value="0.5"/>
								</Node>
							</Node>
						</Node>
						<Node id="9">
							<SimplePredicate field="mean_resp_time" operator="greaterThan" value="17.74342"/>
							<Node id="10">
								<SimplePredicate field="hours" operator="lessOrEqual" value="2.5"/>
								<Node id="11" score="0.9239678807670143">
									<SimplePredicate field="mean_resp_time" operator="lessOrEqual" value="18.410713"/>
								</Node>
								<Node id="12" score="-0.3300836582477058">
									<SimplePredicate field="mean_resp_time" operator="greaterThan" value="18.410713"/>
								</Node>
							</Node>
							<Node id="13">
								<SimplePredicate field="hours" operator="greaterThan" value="2.5"/>
								<Node id="14" score="1.9146403905350209">
									<SimplePredicate field="hours" operator="lessOrEqual" value="20.5"/>
								</Node>
								<Node id="15" score="-0.06862172812201942">
									<SimplePredicate field="hours" operator="greaterThan" value="20.5"/>
								</Node>
							</Node>
						</Node>
					</Node>
				</TreeModel>
			</Segment>
			<Segment id="24">
				<True/>
				<TreeModel functionName="regression" splitCharacteristic="binarySplit">
					<MiningSchema>
						<MiningField name="traffic_travel_time"/>
						<MiningField name="mean_resp_time"/>
						<MiningField name="hours"/>
					</MiningSchema>
					<Node id="1">
						<True/>
						<Node id="2">
							<SimplePredicate field="mean_resp_time" operator="lessOrEqual" value="11.707143"/>
							<Node id="3">
								<SimplePredicate field="mean_resp_time" operator="lessOrEqual" value="6.9852943"/>
								<Node id="4" score="-2.042504119507408">
									<SimplePredicate field="mean_resp_time" operator="lessOrEqual" value="1.4166667"/>
								</Node>
								<Node id="5" score="-0.7728967754601898">
									<SimplePredicate field="mean_resp_time" operator="greaterThan" value="1.4166667"/>
								</Node>
							</Node>
							<Node id="6">
								<SimplePredicate field="mean_resp_time" operator="greaterThan" value="6.9852943"/>
								<Node id="7" score="-0.7100172044228003">
									<SimplePredicate field="hours" operator="lessOrEqual" value="1.5"/>
								</Node>
								<Node id="8" score="-0.15485603649077603">
									<SimplePredicate field="hours" operator="greaterThan" value="1.5"/>
								</Node>
							</Node>
						</Node>
						<Node id="9">
							<SimplePredicate field="mean_resp_time" operator="greaterThan" value="11.707143"/>
							<Node id="10">
								<SimplePredicate field="hours" operator="lessOrEqual" value="22.5"/>
								<Node id="11" score="-0.2647339639843614">
									<SimplePredicate field="hours" operator="lessOrEqual" value="2.5"/>
								</Node>
								<Node id="12" score="0.590788545964528">
									<SimplePredicate field="hours" operator="greaterThan" value="2.5"/>
								</Node>
							</Node>
							<Node id="13">
								<SimplePredicate field="hours" operator="greaterThan" value="22.5"/>
								<Node id="14" score="-1.6366348455259525">
									<SimplePredicate field="traffic_travel_time" operator="lessOrEqual" value="5.5"/>
								</Node>
								<Node id="15" score="-0.5679412710974118">
									<SimplePredicate field="traffic_travel_time" operator="greaterThan" value="5.5"/>
								</Node>
							</Node>
						</Node>
					</Node>
				</TreeModel>
			</Segment>
			<Segment id="25">
				<True/>
				<TreeModel functionName="regression" splitCharacteristic="binarySplit">
					<MiningSchema>
						<MiningField name="traffic_travel_time"/>
						<MiningField name="mean_resp_time"/>
						<MiningField name="num_cars"/>
						<MiningField name="hours"/>
					</MiningSchema>
					<Node id="1">
						<True/>
						<Node id="2">
							<SimplePredicate field="mean_resp_time" operator="lessOrEqual" value="14.5793705"/>
							<Node id="3">
								<SimplePredicate field="hours" operator="lessOrEqual" value="20.5"/>
								<Node id="4" score="-0.5430331446481519">
									<SimplePredicate field="hours" operator="lessOrEqual" value="3.5"/>
								</Node>
								<Node id="5" score="0.08790357428295782">
									<SimplePredicate field="hours" operator="greaterThan" value="3.5"/>
								</Node>
							</Node>
							<Node id="6">
								<SimplePredicate field="hours" operator="greaterThan" value="20.5"/>
								<Node id="7" score="-0.7585626280257858">
									<SimplePredicate field="traffic_travel_time" operator="lessOrEqual" value="8.5"/>
								</Node>
								<Node id="8" score="-0.11685946991005901">
									<SimplePredicate field="traffic_travel_time" operator="greaterThan" value="8.5"/>
								</Node>
							</Node>
						</Node>
						<Node id="9">
							<SimplePredicate field="mean_resp_time" operator="greaterThan" value="14.5793705"/>
							<Node id="10">
								<SimplePredicate field="traffic_travel_time" operator="lessOrEqual" value="18.5"/>
								<Node id="11" score="0.5073806838392312">
									<SimplePredicate field="num_cars" operator="lessOrEqual" value="1.5"/>
								</Node>
								<Node id="12" score="-0.8243143371138866">
									<SimplePredicate field="num_cars" operator="greaterThan" value="1.5"/>
								</Node>
							</Node>
							<Node id="13">
								<SimplePredicate field="traffic_travel_time" operator="greaterThan" value="18.5"/>
								<Node id="14" score="2.2353533382195154">
									<SimplePredicate field="mean_resp_time" operator="lessOrEqual" value="21.5"/>
								</Node>
								<Node id="15" score="6.987099336035147">
									<SimplePredicate field="mean_resp_time" operator="greaterThan" value="21.5"/>
								</Node>
							</Node>
						</Node>
					</Node>
				</TreeModel>
			</Segment>
			<Segment id="26">
				<True/>
				<TreeModel functionName="regression" splitCharacteristic="binarySplit">
					<MiningSchema>
						<MiningField name="traffic_travel_time"/>
						<MiningField name="mean_resp_time"/>
						<MiningField name="is_urgent"/>
						<MiningField name="num_cars"/>
						<MiningField name="hours"/>
					</MiningSchema>
					<Node id="1">
						<True/>
						<Node id="2">
							<SimplePredicate field="num_cars" operator="lessOrEqual" value="1.5"/>
							<Node id="3">
								<SimplePredicate field="traffic_travel_time" operator="lessOrEqual" value="6.5"/>
								<Node id="4" score="-0.1394852527661352">
									<SimplePredicate field="hours" operator="lessOrEqual" value="22.5"/>
								</Node>
								<Node id="5" score="-1.1188746778162344">
									<SimplePredicate field="hours" operator="greaterThan" value="22.5"/>
								</Node>
							</Node>
							<Node id="6">
								<SimplePredicate field="traffic_travel_time" operator="greaterThan" value="6.5"/>
								<Node id="7" score="0.2865462188076125">
									<SimplePredicate field="mean_resp_time" operator="lessOrEqual" value="20.772257"/>
								</Node>
								<Node id="8" score="1.6915460741790844">
									<SimplePredicate field="mean_resp_time" operator="greaterThan" value="20.772257"/>
								</Node>
							</Node>
						</Node>
						<Node id="9">
							<SimplePredicate field="num_cars" operator="greaterThan" value="1.5"/>
							<Node id="10">
								<SimplePredicate field="traffic_travel_time" operator="lessOrEqual" value="23.5"/>
								<Node id="11" score="-0.836968118484601">
									<SimplePredicate field="is_urgent" operator="lessOrEqual" value="0.5"/>
								</Node>
								<Node id="12" score="-0.32579279239132153">
									<SimplePredicate field="is_urgent" operator="greaterThan" value="0.5"/>
								</Node>
							</Node>
							<Node id="13">
								<SimplePredicate field="traffic_travel_time" operator="greaterThan" value="23.5"/>
								<Node id="14" score="0.2455604660710543">
									<SimplePredicate field="mean_resp_time" operator="lessOrEqual" value="8.964286"/>
								</Node>
								<Node id="15" score="4.751052856593851">
									<SimplePredicate field="mean_resp_time" operator="greaterThan" value="8.964286"/>
								</Node>
							</Node>
						</Node>
					</Node>
				</TreeModel>
			</Segment>
			<Segment id="27">
				<True/>
				<TreeModel functionName="regression" splitCharacteristic="binarySplit">
					<MiningSchema>
						<MiningField name="mean_resp_time"/>
						<MiningField name="num_cars"/>
						<MiningField name="hours"/>
					</MiningSchema>
					<Node id="1">
						<True/>
						<Node id="2">
							<SimplePredicate field="mean_resp_time" operator="lessOrEqual" value="10.118055"/>
							<Node id="3">
								<SimplePredicate field="mean_resp_time" operator="lessOrEqual" value="6.9575167"/>
								<Node id="4" score="-1.4113740439404103">
									<SimplePredicate field="mean_resp_time" operator="lessOrEqual" value="2.2"/>
								</Node>
								<Node id="5" score="-0.6374166389901565">
									<SimplePredicate field="mean_resp_time" operator="greaterThan" value="2.2"/>
								</Node>
							</Node>
							<Node id="6">
								<SimplePredicate field="mean_resp_time" operator="greaterThan" value="6.9575167"/>
								<Node id="7" score="-0.17402325932580845">
									<SimplePredicate field="num_cars" operator="lessOrEqual" value="1.5"/>
								</Node>
								<Node id="8" score="-0.547457475121395">
									<SimplePredicate field="num_cars" operator="greaterThan" value="1.5"/>
								</Node>
							</Node>
						</Node>
						<Node id="9">
							<SimplePredicate field="mean_resp_time" operator="greaterThan" value="10.118055"/>
							<Node id="10">
								<SimplePredicate field="hours" operator="lessOrEqual" value="22.5"/>
								<Node id="11" score="-0.2983811495618435">
									<SimplePredicate field="hours" operator="lessOrEqual" value="2.5"/>
								</Node>
								<Node id="12" score="0.42970864896890554">
									<SimplePredicate field="hours" operator="greaterThan" value="2.5"/>
								</Node>
							</Node>
							<Node id="13">
								<SimplePredicate field="hours" operator="greaterThan" value="22.5"/>
								<Node id="14" score="-0.6968730799693791">
									<SimplePredicate field="mean_resp_time" operator="lessOrEqual" value="19.426586"/>
								</Node>
								<Node id="15" score="-2.3816412135873852">
									<SimplePredicate field="mean_resp_time" operator="greaterThan" value="19.426586"/>
								</Node>
							</Node>
						</Node>
					</Node>
				</TreeModel>
			</Segment>
			<Segment id="28">
				<True/>
				<TreeModel functionName="regression" splitCharacteristic="binarySplit">
					<MiningSchema>
						<MiningField name="traffic_travel_time"/>
						<MiningField name="mean_resp_time"/>
						<MiningField name="is_urgent"/>
						<MiningField name="num_cars"/>
						<MiningField name="hours"/>
					</MiningSchema>
					<Node id="1">
						<True/>
						<Node id="2">
							<SimplePredicate field="mean_resp_time" operator="lessOrEqual" value="17.582493"/>
							<Node id="3">
								<SimplePredicate field="num_cars" operator="lessOrEqual" value="1.5"/>
								<Node id="4" score="-0.15649157865701663">
									<SimplePredicate field="traffic_travel_time" operator="lessOrEqual" value="8.5"/>
								</Node>
								<Node id="5" score="0.3329948813591495">
									<SimplePredicate field="traffic_travel_time" operator="greaterThan" value="8.5"/>
								</Node>
							</Node>
							<Node id="6">
								<SimplePredicate field="num_cars" operator="greaterThan" value="1.5"/>
								<Node id="7" score="-0.765432624484971">
									<SimplePredicate field="is_urgent" operator="lessOrEqual" value="0.5"/>
								</Node>
								<Node id="8" score="-0.26504594456811903">
									<SimplePredicate field="is_urgent" operator="greaterThan" value="0.5"/>
								</Node>
							</Node>
						</Node>
						<Node id="9">
							<SimplePredicate field="mean_resp_time" operator="greaterThan" value="17.582493"/>
							<Node id="10">
								<SimplePredicate field="hours" operator="lessOrEqual" value="3.5"/>
								<Node id="11" score="0.018701482546769992">
									<SimplePredicate field="num_cars" operator="lessOrEqual" value="1.5"/>
								</Node>
								<Node id="12" score="-1.6948123745529826">
									<SimplePredicate field="num_cars" operator="greaterThan" value="1.5"/>
								</Node>
							</Node>
							<Node id="13">
								<SimplePredicate field="hours" operator="greaterThan" value="3.5"/>
								<Node id="14" score="1.6054628194977385">
									<SimplePredicate field="hours" operator="lessOrEqual" value="20.5"/>
								</Node>
								<Node id="15" score="-0.11363860899321714">
									<SimplePredicate field="hours" operator="greaterThan" value="20.5"/>
								</Node>
							</Node>
						</Node>
					</Node>
				</TreeModel>
			</Segment>
			<Segment id="29">
				<True/>
				<TreeModel functionName="regression" splitCharacteristic="binarySplit">
					<MiningSchema>
						<MiningField name="traffic_travel_time"/>
						<MiningField name="mean_resp_time"/>
						<MiningField name="num_cars"/>
						<MiningField name="hours"/>
					</MiningSchema>
					<Node id="1">
						<True/>
						<Node id="2">
							<SimplePredicate field="mean_resp_time" operator="lessOrEqual" value="13.097619"/>
							<Node id="3">
								<SimplePredicate field="hours" operator="lessOrEqual" value="1.5"/>
								<Node id="4" score="-0.5132283198656734">
									<SimplePredicate field="mean_resp_time" operator="lessOrEqual" value="10.827797"/>
								</Node>
								<Node id="5" score="-1.3974739036317079">
									<SimplePredicate field="mean_resp_time" operator="greaterThan" value="10.827797"/>
								</Node>
							</Node>
							<Node id="6">
								<SimplePredicate field="hours" operator="greaterThan" value="1.5"/>
								<Node id="7" score="-0.01856288048109487">
									<SimplePredicate field="hours" operator="lessOrEqual" value="20.5"/>
								</Node>
								<Node id="8" score="-0.4566996534061268">
									<SimplePredicate field="hours" operator="greaterThan" value="20.5"/>
								</Node>
							</Node>
						</Node>
						<Node id="9">
							<SimplePredicate field="mean_resp_time" operator="greaterThan" value="13.097619"/>
							<Node id="10">
								<SimplePredicate field="traffic_travel_time" operator="lessOrEqual" value="9.5"/>
								<Node id="11" score="0.16787043385479763">
									<SimplePredicate field="num_cars" operator="lessOrEqual" value="1.5"/>
								</Node>
								<Node id="12" score="-0.9428111776376845">
									<SimplePredicate field="num_cars" operator="greaterThan" value="1.5"/>
								</Node>
							</Node>
							<Node id="13">
								<SimplePredicate field="traffic_travel_time" operator="greaterThan" value="9.5"/>
								<Node id="14" score="0.53404569276486">
									<SimplePredicate field="mean_resp_time" operator="lessOrEqual" value="21.837303"/>
								</Node>
								<Node id="15" score="2.2133203675459265">
									<SimplePredicate field="mean_resp_time" operator="greaterThan" value="21.837303"/>
								</Node>
							</Node>
						</Node>
					</Node>
				</TreeModel>
			</Segment>
			<Segment id="30">
				<True/>
				<TreeModel functionName="regression" splitCharacteristic="binarySplit">
					<MiningSchema>
						<MiningField name="mean_resp_time"/>
						<MiningField name="num_cars"/>
						<MiningField name="hours"/>
					</MiningSchema>
					<Node id="1">
						<True/>
						<Node id="2">
							<SimplePredicate field="mean_resp_time" operator="lessOrEqual" value="9.919872"/>
							<Node id="3">
								<SimplePredicate field="mean_resp_time" operator="lessOrEqual" value="6.5166664"/>
								<Node id="4" score="-0.9342444259400922">
									<SimplePredicate field="hours" operator="lessOrEqual" value="11.5"/>
								</Node>
								<Node id="5" score="-0.4780624148002895">
									<SimplePredicate field="hours" operator="greaterThan" value="11.5"/>
								</Node>
							</Node>
							<Node id="6">
								<SimplePredicate field="mean_resp_time" operator="greaterThan" value="6.5166664"/>
								<Node id="7" score="-0.15798713594253175">
									<SimplePredicate field="num_cars" operator="lessOrEqual" value="1.5"/>
								</Node>
								<Node id="8" score="-0.4590562264342014">
									<SimplePredicate field="num_cars" operator="greaterThan" value="1.5"/>
								</Node>
							</Node>
						</Node>
						<Node id="9">
							<SimplePredicate field="mean_resp_time" operator="greaterThan" value="9.919872"/>
							<Node id="10">
								<SimplePredicate field="hours" operator="lessOrEqual" value="20.5"/>
								<Node id="11" score="-0.21892090886384957">
									<SimplePredicate field="hours" operator="lessOrEqual" value="3.5"/>
								</Node>
								<Node id="12" score="0.5122778170108168">
									<SimplePredicate field="hours" operator="greaterThan" value="3.5"/>
								</Node>
							</Node>
							<Node id="13">
								<SimplePredicate field="hours" operator="greaterThan" value="20.5"/>
								<Node id="14" score="-0.13029796809396488">
									<SimplePredicate field="hours" operator="lessOrEqual" value="22.5"/>
								</Node>
								<Node id="15" score="-0.7034137734541621">
									<SimplePredicate field="hours" operator="greaterThan" value="22.5"/>
								</Node>
							</Node>
						</Node>
					</Node>
				</TreeModel>
			</Segment>
			<Segment id="31">
				<True/>
				<TreeModel functionName="regression" splitCharacteristic="binarySplit">
					<MiningSchema>
						<MiningField name="traffic_travel_time"/>
						<MiningField name="mean_resp_time"/>
						<MiningField name="is_urgent"/>
						<MiningField name="num_cars"/>
						<MiningField name="hours"/>
					</MiningSchema>
					<Node id="1">
						<True/>
						<Node id="2">
							<SimplePredicate field="mean_resp_time" operator="lessOrEqual" value="17.582493"/>
							<Node id="3">
								<SimplePredicate field="num_cars" operator="lessOrEqual" value="1.5"/>
								<Node id="4" score="-0.13292861739781794">
									<SimplePredicate field="traffic_travel_time" operator="lessOrEqual" value="8.5"/>
								</Node>
								<Node id="5" score="0.2847268933360542">
									<SimplePredicate field="traffic_travel_time" operator="greaterThan" value="8.5"/>
								</Node>
							</Node>
							<Node id="6">
								<SimplePredicate field="num_cars" operator="greaterThan" value="1.5"/>
								<Node id="7" score="-0.6726772662279507">
									<SimplePredicate field="is_urgent" operator="lessOrEqual" value="0.5"/>
								</Node>
								<Node id="8" score="-0.18596904609851722">
									<SimplePredicate field="is_urgent" operator="greaterThan" value="0.5"/>
								</Node>
							</Node>
						</Node>
						<Node id="9">
							<SimplePredicate field="mean_resp_time" operator="greaterThan" value="17.582493"/>
							<Node id="10">
								<SimplePredicate field="traffic_travel_time" operator="lessOrEqual" value="17.5"/>
								<Node id="11" score="-0.14491984061007418">
									<SimplePredicate field="hours" operator="lessOrEqual" value="3.5"/>
								</Node>
								<Node id="12" score="0.7929325485186981">
									<SimplePredicate field="hours" operator="greaterThan" value="3.5"/>
								</Node>
							</Node>
							<Node id="13">
								<SimplePredicate field="traffic_travel_time" operator="greaterThan" value="17.5"/>
								<Node id="14" score="5.12582483520992">
									<SimplePredicate field="mean_resp_time" operator="lessOrEqual" value="31.25"/>
								</Node>
								<Node id="15" score="-4.183586887418911">
									<SimplePredicate field="mean_resp_time" operator="greaterThan" value="31.25"/>
								</Node>
							</Node>
						</Node>
					</Node>
				</TreeModel>
			</Segment>
			<Segment id="32">
				<True/>
				<TreeModel functionName="regression" splitCharacteristic="binarySplit">
					<MiningSchema>
						<MiningField name="traffic_travel_time"/>
						<MiningField name="mean_resp_time"/>
						<MiningField name="num_cars"/>
						<MiningField name="hours"/>
					</MiningSchema>
					<Node id="1">
						<True/>
						<Node id="2">
							<SimplePredicate field="mean_resp_time" operator="lessOrEqual" value="15.936731"/>
							<Node id="3">
								<SimplePredicate field="hours" operator="lessOrEqual" value="1.5"/>
								<Node id="4" score="-0.9214261853037904">
									<SimplePredicate field="traffic_travel_time" operator="lessOrEqual" value="5.5"/>
								</Node>
								<Node id="5" score="-0.26445070946774485">
									<SimplePredicate field="traffic_travel_time" operator="greaterThan" value="5.5"/>
								</Node>
							</Node>
							<Node id="6">
								<SimplePredicate field="hours" operator="greaterThan" value="1.5"/>
								<Node id="7" score="0.07449965844549018">
									<SimplePredicate field="hours" operator="lessOrEqual" value="20.5"/>
								</Node>
								<Node id="8" score="-0.3605028252336366">
									<SimplePredicate field="hours" operator="greaterThan" value="20.5"/>
								</Node>
							</Node>
						</Node>
						<Node id="9">
							<SimplePredicate field="mean_resp_time" operator="greaterThan" value="15.936731"/>
							<Node id="10">
								<SimplePredicate field="traffic_travel_time" operator="lessOrEqual" value="18.5"/>
								<Node id="11" score="0.426282870126378">
									<SimplePredicate field="num_cars" operator="lessOrEqual" value="1.5"/>
								</Node>
								<Node id="12" score="-0.7104627049967409">
									<SimplePredicate field="num_cars" operator="greaterThan" value="1.5"/>
								</Node>
							</Node>
							<Node id="13">
								<SimplePredicate field="traffic_travel_time" operator="greaterThan" value="18.5"/>
								<Node id="14" score="4.408011584798152">
									<SimplePredicate field="mean_resp_time" operator="lessOrEqual" value="31.25"/>
								</Node>
								<Node id="15" score="-4.704626164036182">
									<SimplePredicate field="mean_resp_time" operator="greaterThan" value="31.25"/>
								</Node>
							</Node>
						</Node>
					</Node>
				</TreeModel>
			</Segment>
			<Segment id="33">
				<True/>
				<TreeModel functionName="regression" splitCharacteristic="binarySplit">
					<MiningSchema>
						<MiningField name="traffic_travel_time"/>
						<MiningField name="mean_resp_time"/>
						<MiningField name="hours"/>
					</MiningSchema>
					<Node id="1">
						<True/>
						<Node id="2">
							<SimplePredicate field="mean_resp_time" operator="lessOrEqual" value="12.530594"/>
							<Node id="3">
								<SimplePredicate field="mean_resp_time" operator="lessOrEqual" value="7.1834736"/>
								<Node id="4" score="-1.5154944261922247">
									<SimplePredicate field="mean_resp_time" operator="lessOrEqual" value="1.1666667"/>
								</Node>
								<Node id="5" score="-0.4487165791236664">
									<SimplePredicate field="mean_resp_time" operator="greaterThan" value="1.1666667"/>
								</Node>
							</Node>
							<Node id="6">
								<SimplePredicate field="mean_resp_time" operator="greaterThan" value="7.1834736"/>
								<Node id="7" score="0.0076516730079058196">
									<SimplePredicate field="hours" operator="lessOrEqual" value="18.5"/>
								</Node>
								<Node id="8" score="-0.28160425492603547">
									<SimplePredicate field="hours" operator="greaterThan" value="18.5"/>
								</Node>
							</Node>
						</Node>
						<Node id="9">
							<SimplePredicate field="mean_resp_time" operator="greaterThan" value="12.530594"/>
							<Node id="10">
								<SimplePredicate field="traffic_travel_time" operator="lessOrEqual" value="3.5"/>
								<Node id="11" score="-0.5573158219492044">
									<SimplePredicate field="hours" operator="lessOrEqual" value="21.5"/>
								</Node>
								<Node id="12" score="-1.8556352990425957">
									<SimplePredicate field="hours" operator="greaterThan" value="21.5"/>
								</Node>
							</Node>
							<Node id="13">
								<SimplePredicate field="traffic_travel_time" operator="greaterThan" value="3.5"/>
								<Node id="14" score="0.38100324837188876">
									<SimplePredicate field="hours" operator="lessOrEqual" value="20.5"/>
								</Node>
								<Node id="15" score="-0.15439839729164062">
									<SimplePredicate field="hours" operator="greaterThan" value="20.5"/>
								</Node>
							</Node>
						</Node>
					</Node>
				</TreeModel>
			</Segment>
			<Segment id="34">
				<True/>
				<TreeModel functionName="regression" splitCharacteristic="binarySplit">
					<MiningSchema>
						<MiningField name="traffic_travel_time"/>
						<MiningField name="mean_resp_time"/>
						<MiningField name="is_urgent"/>
						<MiningField name="num_cars"/>
					</MiningSchema>
					<Node id="1">
						<True/>
						<Node id="2">
							<SimplePredicate field="mean_resp_time" operator="lessOrEqual" value="22.909092"/>
							<Node id="3">
								<SimplePredicate field="num_cars" operator="lessOrEqual" value="1.5"/>
								<Node id="4" score="-0.1549429220719723">
									<SimplePredicate field="traffic_travel_time" operator="lessOrEqual" value="6.5"/>
								</Node>
								<Node id="5" score="0.20763838637042342">
									<SimplePredicate field="traffic_travel_time" operator="greaterThan" value="6.5"/>
								</Node>
							</Node>
							<Node id="6">
								<SimplePredicate field="num_cars" operator="greaterThan" value="1.5"/>
								<Node id="7" score="-0.6043529129672078">
									<SimplePredicate field="is_urgent" operator="lessOrEqual" value="0.5"/>
								</Node>
								<Node id="8" score="-0.1238460508074583">
									<SimplePredicate field="is_urgent" operator="greaterThan" value="0.5"/>
								</Node>
							</Node>
						</Node>
						<Node id="9">
							<SimplePredicate field="mean_resp_time" operator="greaterThan" value="22.909092"/>
							<Node id="10">
								<SimplePredicate field="traffic_travel_time" operator="lessOrEqual" value="18.5"/>
								<Node id="11" score="1.404871355744135">
									<SimplePredicate field="mean_resp_time" operator="lessOrEqual" value="27.15625"/>
								</Node>
								<Node id="12" score="-0.5595334406564008">
									<SimplePredicate field="mean_resp_time" operator="greaterThan" value="27.15625"/>
								</Node>
							</Node>
							<Node id="13">
								<SimplePredicate field="traffic_travel_time" operator="greaterThan" value="18.5"/>
								<Node id="14" score="6.819287222536817">
									<SimplePredicate field="mean_resp_time" operator="lessOrEqual" value="31.25"/>
								</Node>
								<Node id="15" score="-4.272263872469751">
									<SimplePredicate field="mean_resp_time" operator="greaterThan" value="31.25"/>
								</Node>
							</Node>
						</Node>
					</Node>
				</TreeModel>
			</Segment>
			<Segment id="35">
				<True/>
				<TreeModel functionName="regression" splitCharacteristic="binarySplit">
					<MiningSchema>
						<MiningField name="traffic_travel_time"/>
						<MiningField name="mean_resp_time"/>
						<MiningField name="hours"/>
					</MiningSchema>
					<Node id="1">
						<True/>
						<Node id="2">
							<SimplePredicate field="hours" operator="lessOrEqual" value="22.5"/>
							<Node id="3">
								<SimplePredicate field="hours" operator="lessOrEqual" value="2.5"/>
								<Node id="4" score="-0.48793516967038736">
									<SimplePredicate field="traffic_travel_time" operator="lessOrEqual" value="6.5"/>
								</Node>
								<Node id="5" score="-0.13941321323644196">
									<SimplePredicate field="traffic_travel_time" operator="greaterThan" value="6.5"/>
								</Node>
							</Node>
							<Node id="6">
								<SimplePredicate field="hours" operator="greaterThan" value="2.5"/>
								<Node id="7" score="0.07624101327597944">
									<SimplePredicate field="mean_resp_time" operator="lessOrEqual" value="19.921211"/>
								</Node>
								<Node id="8" score="1.550892597033777">
									<SimplePredicate field="mean_resp_time" operator="greaterThan" value="19.921211"/>
								</Node>
							</Node>
						</Node>
						<Node id="9">
							<SimplePredicate field="hours" operator="greaterThan" value="22.5"/>
							<Node id="10">
								<SimplePredicate field="mean_resp_time" operator="lessOrEqual" value="18.167595"/>
								<Node id="11" score="-0.48150878166365174">
									<SimplePredicate field="mean_resp_time" operator="lessOrEqual" value="18.098484"/>
								</Node>
								<Node id="12" score="2.1818737082514574">
									<SimplePredicate field="mean_resp_time" operator="greaterThan" value="18.098484"/>
								</Node>
							</Node>
							<Node id="13">
								<SimplePredicate field="mean_resp_time" operator="greaterThan" value="18.167595"/>
								<Node id="14" score="-4.016566378508891">
									<SimplePredicate field="traffic_travel_time" operator="lessOrEqual" value="4.5"/>
								</Node>
								<Node id="15" score="-0.9768079147146247">
									<SimplePredicate field="traffic_travel_time" operator="greaterThan" value="4.5"/>
								</Node>
							</Node>
						</Node>
					</Node>
				</TreeModel>
			</Segment>
			<Segment id="36">
				<True/>
				<TreeModel functionName="regression" splitCharacteristic="binarySplit">
					<MiningSchema>
						<MiningField name="traffic_travel_time"/>
						<MiningField name="mean_resp_time"/>
						<MiningField name="num_cars"/>
						<MiningField name="hours"/>
					</MiningSchema>
					<Node id="1">
						<True/>
						<Node id="2">
							<SimplePredicate field="mean_resp_time" operator="lessOrEqual" value="10.348484"/>
							<Node id="3">
								<SimplePredicate field="mean_resp_time" operator="lessOrEqual" value="6.354167"/>
								<Node id="4" score="-0.833155464866513">
									<SimplePredicate field="num_cars" operator="lessOrEqual" value="1.5"/>
								</Node>
								<Node id="5" score="-0.2749633062936401">
									<SimplePredicate field="num_cars" operator="greaterThan" value="1.5"/>
								</Node>
							</Node>
							<Node id="6">
								<SimplePredicate field="mean_resp_time" operator="greaterThan" value="6.354167"/>
								<Node id="7" score="-0.18935744284065276">
									<SimplePredicate field="traffic_travel_time" operator="lessOrEqual" value="11.5"/>
								</Node>
								<Node id="8" score="0.08735613395981442">
									<SimplePredicate field="traffic_travel_time" operator="greaterThan" value="11.5"/>
								</Node>
							</Node>
						</Node>
						<Node id="9">
							<SimplePredicate field="mean_resp_time" operator="greaterThan" value="10.348484"/>
							<Node id="10">
								<SimplePredicate field="hours" operator="lessOrEqual" value="20.5"/>
								<Node id="11" score="-0.3187394625641053">
									<SimplePredicate field="hours" operator="lessOrEqual" value="1.5"/>
								</Node>
								<Node id="12" score="0.3798177150145403">
									<SimplePredicate field="hours" operator="greaterThan" value="1.5"/>
								</Node>
							</Node>
							<Node id="13">
								<SimplePredicate field="hours" operator="greaterThan" value="20.5"/>
								<Node id="14" score="-0.27709683945695207">
									<SimplePredicate field="traffic_travel_time" operator="lessOrEqual" value="17.5"/>
								</Node>
								<Node id="15" score="3.1000870119613855">
									<SimplePredicate field="traffic_travel_time" operator="greaterThan" value="17.5"/>
								</Node>
							</Node>
						</Node>
					</Node>
				</TreeModel>
			</Segment>
			<Segment id="37">
				<True/>
				<TreeModel functionName="regression" splitCharacteristic="binarySplit">
					<MiningSchema>
						<MiningField name="traffic_travel_time"/>
						<MiningField name="is_urgent"/>
						<MiningField name="num_cars"/>
						<MiningField name="hours"/>
					</MiningSchema>
					<Node id="1">
						<True/>
						<Node id="2">
							<SimplePredicate field="num_cars" operator="lessOrEqual" value="1.5"/>
							<Node id="3">
								<SimplePredicate field="traffic_travel_time" operator="lessOrEqual" value="6.5"/>
								<Node id="4" score="-0.40722565512983233">
									<SimplePredicate field="hours" operator="lessOrEqual" value="2.5"/>
								</Node>
								<Node id="5" score="-0.03645860297046063">
									<SimplePredicate field="hours" operator="greaterThan" value="2.5"/>
								</Node>
							</Node>
							<Node id="6">
								<SimplePredicate field="traffic_travel_time" operator="greaterThan" value="6.5"/>
								<Node id="7" score="0.35756334266247974">
									<SimplePredicate field="is_urgent" operator="lessOrEqual" value="0.5"/>
								</Node>
								<Node id="8" score="-0.09952785778436611">
									<SimplePredicate field="is_urgent" operator="greaterThan" value="0.5"/>
								</Node>
							</Node>
						</Node>
						<Node id="9">
							<SimplePredicate field="num_cars" operator="greaterThan" value="1.5"/>
							<Node id="10">
								<SimplePredicate field="traffic_travel_time" operator="lessOrEqual" value="20.5"/>
								<Node id="11" score="-0.5806634425917621">
									<SimplePredicate field="is_urgent" operator="lessOrEqual" value="0.5"/>
								</Node>
								<Node id="12" score="-0.10447519963009305">
									<SimplePredicate field="is_urgent" operator="greaterThan" value="0.5"/>
								</Node>
							</Node>
							<Node id="13">
								<SimplePredicate field="traffic_travel_time" operator="greaterThan" value="20.5"/>
								<Node id="14" score="0.5490967217067618">
									<SimplePredicate field="hours" operator="lessOrEqual" value="15.5"/>
								</Node>
								<Node id="15" score="3.103041918038417">
									<SimplePredicate field="hours" operator="greaterThan" value="15.5"/>
								</Node>
							</Node>
						</Node>
					</Node>
				</TreeModel>
			</Segment>
			<Segment id="38">
				<True/>
				<TreeModel functionName="regression" splitCharacteristic="binarySplit">
					<MiningSchema>
						<MiningField name="traffic_travel_time"/>
						<MiningField name="mean_resp_time"/>
						<MiningField name="hours"/>
					</MiningSchema>
					<Node id="1">
						<True/>
						<Node id="2">
							<SimplePredicate field="hours" operator="lessOrEqual" value="22.5"/>
							<Node id="3">
								<SimplePredicate field="mean_resp_time" operator="lessOrEqual" value="13.566964"/>
								<Node id="4" score="-0.27805949036639516">
									<SimplePredicate field="mean_resp_time" operator="lessOrEqual" value="8.19375"/>
								</Node>
								<Node id="5" score="-0.011140244958049026">
									<SimplePredicate field="mean_resp_time" operator="greaterThan" value="8.19375"/>
								</Node>
							</Node>
							<Node id="6">
								<SimplePredicate field="mean_resp_time" operator="greaterThan" value="13.566964"/>
								<Node id="7" score="-0.1463148591509634">
									<SimplePredicate field="hours" operator="lessOrEqual" value="3.5"/>
								</Node>
								<Node id="8" score="0.4327733069690521">
									<SimplePredicate field="hours" operator="greaterThan" value="3.5"/>
								</Node>
							</Node>
						</Node>
						<Node id="9">
							<SimplePredicate field="hours" operator="greaterThan" value="22.5"/>
							<Node id="10">
								<SimplePredicate field="mean_resp_time" operator="lessOrEqual" value="18.167595"/>
								<Node id="11" score="-0.41475647449471165">
									<SimplePredicate field="mean_resp_time" operator="lessOrEqual" value="18.098484"/>
								</Node>
								<Node id="12" score="1.9685065594165752">
									<SimplePredicate field="mean_resp_time" operator="greaterThan" value="18.098484"/>
								</Node>
							</Node>
							<Node id="13">
								<SimplePredicate field="mean_resp_time" operator="greaterThan" value="18.167595"/>
								<Node id="14" score="-3.576084718224376">
									<SimplePredicate field="traffic_travel_time" operator="lessOrEqual" value="4.5"/>
								</Node>
								<Node id="15" score="-0.8728321410090928">
									<SimplePredicate field="traffic_travel_time" operator="greaterThan" value="4.5"/>
								</Node>
							</Node>
						</Node>
					</Node>
				</TreeModel>
			</Segment>
			<Segment id="39">
				<True/>
				<TreeModel functionName="regression" splitCharacteristic="binarySplit">
					<MiningSchema>
						<MiningField name="traffic_travel_time"/>
						<MiningField name="mean_resp_time"/>
						<MiningField name="is_urgent"/>
						<MiningField name="num_cars"/>
						<MiningField name="hours"/>
					</MiningSchema>
					<Node id="1">
						<True/>
						<Node id="2">
							<SimplePredicate field="num_cars" operator="lessOrEqual" value="1.5"/>
							<Node id="3">
								<SimplePredicate field="traffic_travel_time" operator="lessOrEqual" value="8.5"/>
								<Node id="4" score="0.050050886129563855">
									<SimplePredicate field="hours" operator="lessOrEqual" value="19.5"/>
								</Node>
								<Node id="5" score="-0.3054757348757733">
									<SimplePredicate field="hours" operator="greaterThan" value="19.5"/>
								</Node>
							</Node>
							<Node id="6">
								<SimplePredicate field="traffic_travel_time" operator="greaterThan" value="8.5"/>
								<Node id="7" score="0.4268785090256393">
									<SimplePredicate field="is_urgent" operator="lessOrEqual" value="0.5"/>
								</Node>
								<Node id="8" score="-0.0554366521107152">
									<SimplePredicate field="is_urgent" operator="greaterThan" value="0.5"/>
								</Node>
							</Node>
						</Node>
						<Node id="9">
							<SimplePredicate field="num_cars" operator="greaterThan" value="1.5"/>
							<Node id="10">
								<SimplePredicate field="traffic_travel_time" operator="lessOrEqual" value="20.5"/>
								<Node id="11" score="-0.529872074602653">
									<SimplePredicate field="is_urgent" operator="lessOrEqual" value="0.5"/>
								</Node>
								<Node id="12" score="-0.07822790262058255">
									<SimplePredicate field="is_urgent" operator="greaterThan" value="0.5"/>
								</Node>
							</Node>
							<Node id="13">
								<SimplePredicate field="traffic_travel_time" operator="greaterThan" value="20.5"/>
								<Node id="14" score="0.02357265897728336">
									<SimplePredicate field="mean_resp_time" operator="lessOrEqual" value="5.5"/>
								</Node>
								<Node id="15" score="2.6857932974584204">
									<SimplePredicate field="mean_resp_time" operator="greaterThan" value="5.5"/>
								</Node>
							</Node>
						</Node>
					</Node>
				</TreeModel>
			</Segment>
			<Segment id="40">
				<True/>
				<TreeModel functionName="regression" splitCharacteristic="binarySplit">
					<MiningSchema>
						<MiningField name="traffic_travel_time"/>
						<MiningField name="mean_resp_time"/>
						<MiningField name="hours"/>
					</MiningSchema>
					<Node id="1">
						<True/>
						<Node id="2">
							<SimplePredicate field="mean_resp_time" operator="lessOrEqual" value="22.909092"/>
							<Node id="3">
								<SimplePredicate field="hours" operator="lessOrEqual" value="0.5"/>
								<Node id="4" score="-0.332462270820827">
									<SimplePredicate field="mean_resp_time" operator="lessOrEqual" value="19.912037"/>
								</Node>
								<Node id="5" score="-1.1941387330753055">
									<SimplePredicate field="mean_resp_time" operator="greaterThan" value="19.912037"/>
								</Node>
							</Node>
							<Node id="6">
								<SimplePredicate field="hours" operator="greaterThan" value="0.5"/>
								<Node id="7" score="0.12810075619035244">
									<SimplePredicate field="hours" operator="lessOrEqual" value="18.5"/>
								</Node>
								<Node id="8" score="-0.16603131935262594">
									<SimplePredicate field="hours" operator="greaterThan" value="18.5"/>
								</Node>
							</Node>
						</Node>
						<Node id="9">
							<SimplePredicate field="mean_resp_time" operator="greaterThan" value="22.909092"/>
							<Node id="10">
								<SimplePredicate field="mean_resp_time" operator="lessOrEqual" value="30.25"/>
								<Node id="11" score="0.9987708684721927">
									<SimplePredicate field="traffic_travel_time" operator="lessOrEqual" value="18.5"/>
								</Node>
								<Node id="12" score="5.772863494413741">
									<SimplePredicate field="traffic_travel_time" operator="greaterThan" value="18.5"/>
								</Node>
							</Node>
							<Node id="13">
								<SimplePredicate field="mean_resp_time" operator="greaterThan" value="30.25"/>
								<Node id="14" score="6.045494412178805">
									<SimplePredicate field="traffic_travel_time" operator="lessOrEqual" value="5.5"/>
								</Node>
								<Node id="15" score="-1.9778332840341355">
									<SimplePredicate field="traffic_travel_time" operator="greaterThan" value="5.5"/>
								</Node>
							</Node>
						</Node>
					</Node>
				</TreeModel>
			</Segment>
			<Segment id="41">
				<True/>
				<TreeModel functionName="regression" splitCharacteristic="binarySplit">
					<MiningSchema>
						<MiningField name="traffic_travel_time"/>
						<MiningField name="mean_resp_time"/>
						<MiningField name="num_cars"/>
						<MiningField name="hours"/>
					</MiningSchema>
					<Node id="1">
						<True/>
						<Node id="2">
							<SimplePredicate field="mean_resp_time" operator="lessOrEqual" value="15.936731"/>
							<Node id="3">
								<SimplePredicate field="hours" operator="lessOrEqual" value="1.5"/>
								<Node id="4" score="-0.2971258417170144">
									<SimplePredicate field="mean_resp_time" operator="lessOrEqual" value="15.664175"/>
								</Node>
								<Node id="5" score="-1.6581781844925716">
									<SimplePredicate field="mean_resp_time" operator="greaterThan" value="15.664175"/>
								</Node>
							</Node>
							<Node id="6">
								<SimplePredicate field="hours" operator="greaterThan" value="1.5"/>
								<Node id="7" score="0.04723723939071125">
									<SimplePredicate field="hours" operator="lessOrEqual" value="20.5"/>
								</Node>
								<Node id="8" score="-0.2228019064565482">
									<SimplePredicate field="hours" operator="greaterThan" value="20.5"/>
								</Node>
							</Node>
						</Node>
						<Node id="9">
							<SimplePredicate field="mean_resp_time" operator="greaterThan" value="15.936731"/>
							<Node id="10">
								<SimplePredicate field="traffic_travel_time" operator="lessOrEqual" value="3.5"/>
								<Node id="11" score="-0.5775994332077865">
									<SimplePredicate field="mean_resp_time" operator="lessOrEqual" value="19.84578"/>
								</Node>
								<Node id="12" score="-1.8856786552020688">
									<SimplePredicate field="mean_resp_time" operator="greaterThan" value="19.84578"/>
								</Node>
							</Node>
							<Node id="13">
								<SimplePredicate field="traffic_travel_time" operator="greaterThan" value="3.5"/>
								<Node id="14" score="0.397850737552695">
									<SimplePredicate field="num_cars" operator="lessOrEqual" value="1.5"/>
								</Node>
								<Node id="15" score="-0.43946868711778336">
									<SimplePredicate field="num_cars" operator="greaterThan" value="1.5"/>
								</Node>
							</Node>
						</Node>
					</Node>
				</TreeModel>
			</Segment>
			<Segment id="42">
				<True/>
				<TreeModel functionName="regression" splitCharacteristic="binarySplit">
					<MiningSchema>
						<MiningField name="traffic_travel_time"/>
						<MiningField name="mean_resp_time"/>
						<MiningField name="hours"/>
					</MiningSchema>
					<Node id="1">
						<True/>
						<Node id="2">
							<SimplePredicate field="traffic_travel_time" operator="lessOrEqual" value="9.5"/>
							<Node id="3">
								<SimplePredicate field="hours" operator="lessOrEqual" value="0.5"/>
								<Node id="4" score="-0.41563960912570314">
									<SimplePredicate field="traffic_travel_time" operator="lessOrEqual" value="8.5"/>
								</Node>
								<Node id="5" score="-1.1162673190440995">
									<SimplePredicate field="traffic_travel_time" operator="greaterThan" value="8.5"/>
								</Node>
							</Node>
							<Node id="6">
								<SimplePredicate field="hours" operator="greaterThan" value="0.5"/>
								<Node id="7" score="0.06600552737412138">
									<SimplePredicate field="hours" operator="lessOrEqual" value="18.5"/>
								</Node>
								<Node id="8" score="-0.20612812844617676">
									<SimplePredicate field="hours" operator="greaterThan" value="18.5"/>
								</Node>
							</Node>
						</Node>
						<Node id="9">
							<SimplePredicate field="traffic_travel_time" operator="greaterThan" value="9.5"/>
							<Node id="10">
								<SimplePredicate field="mean_resp_time" operator="lessOrEqual" value="23.379807"/>
								<Node id="11" score="-0.1203643067115519">
									<SimplePredicate field="mean_resp_time" operator="lessOrEqual" value="10.3875"/>
								</Node>
								<Node id="12" score="0.2742174944497407">
									<SimplePredicate field="mean_resp_time" operator="greaterThan" value="10.3875"/>
								</Node>
							</Node>
							<Node id="13">
								<SimplePredicate field="mean_resp_time" operator="greaterThan" value="23.379807"/>
								<Node id="14" score="2.300656611481885">
									<SimplePredicate field="mean_resp_time" operator="lessOrEqual" value="30.25"/>
								</Node>
								<Node id="15" score="-1.1559407266447652">
									<SimplePredicate field="mean_resp_time" operator="greaterThan" value="30.25"/>
								</Node>
							</Node>
						</Node>
					</Node>
				</TreeModel>
			</Segment>
			<Segment id="43">
				<True/>
				<TreeModel functionName="regression" splitCharacteristic="binarySplit">
					<MiningSchema>
						<MiningField name="traffic_travel_time"/>
						<MiningField name="mean_resp_time"/>
						<MiningField name="is_urgent"/>
						<MiningField name="num_cars"/>
					</MiningSchema>
					<Node id="1">
						<True/>
						<Node id="2">
							<SimplePredicate field="num_cars" operator="lessOrEqual" value="1.5"/>
							<Node id="3">
								<SimplePredicate field="mean_resp_time" operator="lessOrEqual" value="4.9444447"/>
								<Node id="4" score="-4.10709649051564">
									<SimplePredicate field="mean_resp_time" operator="lessOrEqual" value="3.1666665"/>
								</Node>
								<Node id="5" score="-1.6585939208298364">
									<SimplePredicate field="mean_resp_time" operator="greaterThan" value="3.1666665"/>
								</Node>
							</Node>
